11 1443
, 0.0087346975 0.007951955 0.06655285 -0.008991304 -0.035806414 -0.039315503 0.0007934281 0.072497144 0.007812804 -0.018695492 0.014553722 0.018436424 0.0026224041 -0.02546192 -0.0065955417 0.020052642 0.02453933 -0.005207236 -0.09484016 -0.06522217 -0.055122618 -0.058339227 -0.028490417 -0.086099535 0.0018018909 0.057065804 -0.00019383174 -0.03822023 0.0060718665 0.00846135 0.00691525 -0.011553335 -0.013106666 -0.028601555 0.049652677 0.03094699 -0.04038436 0.028105678 0.023202945 -0.018565994 -0.029907988 -0.09646644 0.006867678 -0.032755323 -0.007332102 -0.038434364 0.056981493 0.11669895 -0.15163532 0.03378744 0.0241546 -0.060915448 0.020053407 0.0016760277 -0.020210525 -0.0023767403 -0.0039053147 -0.015762433 0.07616924 -0.05126532 0.0058642263 -0.13943094 0.18601114 0.06954011 -0.13818736 0.10234882 -0.108774595 0.074511364 0.048712578 -0.030300705 -0.14388375 -0.12286257 0.013382888 0.0050106826 0.04418367 0.010317908 0.1729345 -0.07776121 0.09775825 -0.13191546 -0.08622483 0.050357636 -0.076188624 -0.040682204 0.040122557 -0.064056724 -0.021431169 0.10262569 0.020076951 -0.057287283 -0.00808554 -0.046593055 -0.044779927 0.037159346 0.023275314 0.08653449 0.040019587 0.14315143 0.102654606 -0.06067995 -0.026607106 0.012765041 -0.06801753 0.062025517 0.061946094 -0.101136535 -0.14148396 0.099230945 -0.11004966 0.030497981 0.03490335 -0.030485975 -0.039409548 -0.033859435 -0.081476085 0.23040058 -0.058856685 -0.12539497 0.039941054 -0.111163445 -0.059010353 -0.120018184 -0.00721676 0.0038851483 0.04732016 0.046626657 0.047082197 0.09705419 -0.019836843 0.054436777 -0.04064993 0.0416915 -0.05721554 -0.082111314 0.07063643 0.078853056 0.04341663 0.12029726 0.016228216 0.039706286 -0.061491918 -0.02291872 -0.0725491 -0.04176253 -0.07006391 0.08408506 -0.017208911 -0.105508 0.039170332 -0.050780058 0.03959818 -0.06899688 0.0042415233 -0.054875113 -0.012137269 -0.021272171 -0.037688795 -0.030035634 -0.039515458 -0.07878991 0.03799485 0.01995107 0.029778678 0.06896817 0.044686984 -0.022987437 -0.086517416 -0.035737853 0.06296731 0.06736379 0.00036828555 0.040117558 -0.0077180527 -0.043528326 0.03085128 -0.03329723 0.023212273 -0.057509694 0.03864469 0.020929642 0.026748339 0.0553702 0.0235598 -0.045113344 -0.010456285 -0.012221666 -0.002268205 -0.039012447 -0.0037729326 0.038742874 0.1319553 -0.037655715 0.06734143 0.074407354 0.002139547 0.020560766 0.017743187 0.03676617 -0.015503549 0.015164605 0.0060728025 -0.041142453 0.032377135 -0.011190666 -0.023050765 0.000782204 -0.0064339675 -0.012092546 0.02202478 0.0246362 0.0022964599 -0.0036668568 0.0018134391 0.0049459403 0.0004917162 -0.021874448 0.07791112 -0.0073405015 -0.012338729 0.0029071583 -0.061858553 0.010327281 0.0014217313 -0.032660753 0.010200364 0.0148151945 0.020497663 0.01915811 -0.03572794 0.013120431 0.07445691 -0.04019611 0.0033658352 0.036784194 -0.015078725 0.0012103186 0.011807782 0.008723218 0.008041888 0.021214515 -0.009483767 -0.037627656 0.029074099 -0.076128565 0.027638407 -0.013061803 -0.015310957 0.0071725477 -0.050498743 0.012634588 0.010073228 -0.043901835 0.06543049 -0.06161705 0.013459498 -0.034063704 -0.060236827 -0.031242244 -0.023014186 -0.045239933 -0.007987136 0.0074510593 0.052743416 0.060797144 0.039210003 0.02921882 -0.0050602895 0.08748007 0.025895858 0.0209068 0.064766325 0.018350406 -0.061430052 -0.00023867788 0.0055575212 -0.057677925 -0.06938558 0.01863147 0.0649772 0.012785208 -0.06684664 0.039289095 -0.048701942 -0.030598596 -0.048409805 0.08366221 -0.013753256 0.068865806 0.011332205 -0.04071725 -0.06327895 -0.02385882 -0.10006896 0.03275622 -0.03642618 0.028085226 0.0014631414 0.09807995 0.050224323 0.053651646 0.10096606 -0.06733461 -0.038706895 0.08230802 -0.013007865 -0.065734684 -0.039713327 0.011259303 -0.122562125 -0.03870298 9.26324e-05 -0.04286936 -0.037206113 -0.059878446 -0.05082943 0.006022426 -0.059692077 -0.019898266 0.0068258815 0.014479902 -0.013691981 -0.006427197 0.063322455 -0.05657793 -0.024830598 0.019820703 0.040309317 -0.015200275 0.0042328737 -0.012050816 -0.039379265 0.015160256 0.015847368 -0.023156228 -0.07717443 -0.06550668 -0.0349158 -0.0017037484 0.012901181 -0.039618324 0.010975184 -0.021334918 0.01524732 -0.08803385 -0.012131576 0.02003408 -0.030704405 0.0637376 -0.05610213 -0.03669552 0.011921122 -0.012560402 0.01684542 -0.028488096 -0.013011043 -0.007573399 -0.091902666 0.013432553 0.06290466 0.012348339 -0.10557764 0.035942502 0.16271803 -0.051878303 0.06462637 0.007484268 0.016200779 0.07645939 0.077542804 -0.073016986 0.033987645 0.018923098 0.041570332 0.009377019 -0.017228192 -0.0050219777 -0.09497078 -0.09036077 -0.0060788216 0.10421119 0.116362065 0.027271245 0.1104121 -0.011003972 0.0038975575 0.007502074 -0.025109757 -0.026235236 0.042714033 0.1003542 0.16152921 0.08464187 -0.06585312 0.009075952 -0.07212576 -0.071798116 -0.04207441 -0.10534441 0.08335207 0.04179623 0.048908398 -0.0998592 -0.009472612 -0.04614153 -0.03649317 0.050770927 0.007587411 0.09016551 -0.047781456 -0.060080223 -0.033639587 0.07621464 0.037064917 -0.0060724174 -0.03527793 -0.034114674 0.0885757 -0.04152907 0.070003614 0.026647585 -0.094183594 -0.09598045 0.007486711 0.030503973 0.042826843 -0.047750235 0.02125055 0.09499886 -0.050343588 -0.040203553 -0.020769767 0.098994374 0.06553642 -0.0056185946 0.028654369 -0.052935738 0.11031315 0.020288058 -0.0950705 -0.08738109 -0.03016298 -0.07241335 0.054888915 0.011330103 0.03282205 -0.059909847 -0.052179072 0.013872628 -0.035887163 -0.13043486 0.0015660855 0.042977426 0.011160466 0.14219514 0.037271872 0.025806287 0.10858776 -0.04836796 -0.016354011 -0.037885856 -0.062147494 -0.038391642 -0.034993045 -0.02486523 0.0014878175 -0.024037372 0.10804778 -0.0050106435 -0.16776831 -0.030833246 0.047879007 -0.026169317 -0.093256496 0.055093784 0.033151757 0.111108854 0.13432413 0.09553754 -0.074114524 -0.010817827 0.046971757 -0.05394779 -0.053531084 -0.17085794 0.093840964 0.14274795 0.11758847 0.07764647 0.030141631 -0.00547076 -0.14484541 0.0014748592 0.15763399 -0.07016842 -0.07263798 0.022345575 -0.09162185 0.040419217 0.04457493 -0.0073792767 -0.04098159 -0.06809147 -0.045052767 0.0022146371 -0.055970915 0.021074358 -0.003259931 0.026707454 -0.034219272 -0.009384225 -0.047331795 -0.055152677 -0.036212422 -0.007843991 -0.013734981 0.049660888 -0.013977168 -0.050717488 0.10565593 -0.024953691 -0.07319738 0.06298019 -0.10769859 -0.014754274 0.06911938 -0.025345894 0.05139031 -0.022647208 -0.055346157 0.22994143 0.026708575 0.03397964 -0.09045639 -0.08115453 0.020659076 -0.1172527 -0.030521218 -0.013467073 0.07098406 0.048983872 -0.09928226 -0.060508765 0.0352444 0.026396213 0.033630226 -0.059007462 -0.027524441 0.030200187 -0.037832323 0.008009017 -0.04225061 -0.01608137 0.03513465 0.03585934 0.010543102 0.04170733 0.007783623 -0.061867304 -0.048664294 0.012993999 -0.04732286 -0.007754955 0.00028349878 -0.0152765615 -0.011158013 0.0067745135 0.021769684 0.002300321 -0.026778601 -0.0078086047 -0.008387911 0.032694552 -0.009645989 -0.019435592 0.014008605 -0.004486468 0.0027011312 -0.017981883 -0.011881784 -0.014703856 -0.008031047 -0.016436787 -0.015780257 -0.009054285 -0.030784506 -0.0027160035 0.0077611287 -0.010545087 0.008719238 0.008083482 0.0033617981 0.0041175154 -0.016497705 0.009519869 -0.0019796733 0.014723103 0.014604443 -0.011899592 -0.00041628632 -0.034210484 0.017338583 -0.009276965 0.0143695325 0.007991573 0.0022966266 0.03938868 0.009882747 0.0069776974 -0.01115326 0.031967077 -0.039882004 -0.014444395 0.02018186 -0.061954208 -0.01130587 -0.0502948 0.0062401844 -0.027605703 -0.02248382 -0.013991974 -0.03898446 -0.015081595 0.046120692 -0.053111613 -0.028662298 0.042285483 -0.028227197 -0.018018883 0.01620985 0.010228451 -0.011800577 -0.021690616 0.0035886783 0.018865801 -0.0008199987 0.021164028 0.0052090664 -0.012286515 -0.020524204 0.013131055 0.007705025 -0.027830208 -0.017957993 0.018630685 0.014802191 -0.0009724192 0.012726365 -0.0100572 -0.010095749 0.0048241974 0.005004339 0.0014514992 -0.018538885 -0.008530521 -0.0026230505 0.0012273543 0.0155643225 -0.008745416 0.010819211 -0.0021650495 0.0009794119 0.0023020327 -0.0046867738 -0.0023071852 0.021357777 0.0077387597 -0.00051489193 0.00061866344 -0.00041885572 -0.008203999 -0.012859003 0.021186933 -0.024758581 -0.038593367 0.035194732 0.007019278 -0.0004788154 0.017506061 0.014698311 0.092457764 0.03237475 0.023361944 0.015558848 -0.012168741 0.0241211 -0.019065645 -0.007702977 -0.016657887 0.01359925 -0.0018280261 0.010168111 0.014736182 -0.021724679 -0.00664529 0.0066774823 0.00035912867 -0.01987762 -0.019612832 -0.013771734 -0.019781066 -0.0034403496 0.0011206956 0.010359668 0.00765623 -0.004895339 0.019285236 -0.030627124 -0.04437738 -0.019481907 0.019517455 0.021500768 -0.0076306392 -0.027867347 -0.046582308 -0.029087782 0.03452656 -0.029897057 -0.015083028 0.029289305 0.015597085 0.01961454 -0.053681802 0.008060033 0.0057518445 -0.085724585 0.010930705 0.030879142 -0.056207795 0.105951816 0.014043454 -0.038964048 -0.025851777 0.055180214 0.00014992047 0.08030804 0.018497346 -0.038913097 0.10018323 -0.00629312 0.022255717 -0.09436603 0.04357129 0.002711735 -0.05432933 0.035722885 -0.031091949 -0.00681497 0.009042814 0.008631532 0.004005055 0.046018638 -0.017767383 0.0040757465 -0.01013916 -0.0055726357 -0.0073297857 -0.049631372 0.013886419 -0.025138088 -0.023092005 0.004455083 0.0035570026 -0.02761701 0.10506525 0.030224651 0.030053422 -0.0058389455 0.012289299 -0.011707007 -0.108011566 -0.022058766 0.07933547 0.025042545 0.079724945 0.00044590925 0.047840435 -0.01569626 0.18481469 -0.0012375612 -0.06521759 -0.23490433 0.03478502 -0.030849278 -0.08486393 -0.02010313 -0.0009491577 0.043612406 0.15703121 0.048476733 -0.06455177 0.066244476 -0.03624133 -0.014443287 0.004474652 0.025682446 -0.054647237 -0.06286961 0.022136142 -0.013702264 0.0044547105 0.018907893 0.0067002033 0.02133737 -0.006399852 0.00583269 0.009112223 0.0031928385 -0.005297602 -0.022834027 0.015447768 0.015389883 -0.03237699 0.0058454657 0.07048441 -0.0038997405 0.0031080907 -0.018856622 -0.048748173 -0.019261956 -0.02254451 0.041871376 0.016486878 -0.00079448364 0.0372266 -0.033579785 -0.027018195 0.06546717 -0.02711232 -0.084716536 0.06704643 -0.0005054232 0.033723798 0.013501564 -0.003517794 0.010140519 0.047991876 -0.0075103245 0.025720399 0.018820656 -0.010730331 0.0020251176 -0.009554201 -0.01370098 -0.021996945 -0.016897697 0.030827055 0.0027021845 0.012293561 -0.019723201 -7.645669e-06 -0.013193072 -0.028170532 -0.046259865 0.024251562 -0.006220869 -0.016970957 -0.011237894 -0.017153969 0.05612691 -0.025566699 -0.009533362 -0.0014156397 0.015787205 -0.05999289 -0.020412225 0.013234369 -0.061864126 0.0035094873 -0.062074378 0.013942144 -0.025645219 0.018275095 0.049136344 -0.044655558 0.015413964 -0.0031737029 -0.027874365 8.43989e-06 0.014240074 -0.009657645 -0.023424577 -0.021458985 -0.043122534 -0.034013428 0.03219675 -0.037857655 -0.015548591 -0.012229552 -0.027423823 0.013514596 -0.000750611 0.034820728 -0.012691646 -0.004198174 0.019209992 0.0064764386 0.0004978199 -0.0108722625 -0.046797697 0.13052273 -0.018954929 -0.06581684 -0.086465 -0.055930838 -0.03865756 0.044626236 -0.043037042 -0.065580934 0.087128736 0.0080205975 0.000738734 0.008015779 -0.02394555 -0.023647506 -0.012627105 0.005200418 0.011460352 0.009642271 0.009674249 0.0034878121 -0.0045773266 0.0037711507 0.022445496 0.0031106013 0.0021516546 0.005865548 -0.00606618 -0.0052160975 0.008118852 -0.008469114 0.0030464472 -0.012028768 0.0140879825 0.008942277 -0.006091096 -0.0012415126 0.013563188 -0.0017032307 0.010047765 0.018708674 0.0033788395 -0.0005459391 -0.03727367 -0.01708873 0.01624719 0.014048681 0.014715111 -0.0039490666 0.0037379556 -0.026174137 0.01348668 -0.0041963025 -0.007707036 0.008071691 0.0050807944 0.028412867 -0.0007090911 -0.04255225 -0.043058503 -0.06418525 0.0068460545 -0.0089537725 0.0052926345 -0.015511174 -0.0038536647 -0.0069971643 -0.006166713 0.013063719 0.007478886 -0.0010742231 0.0003179489 -0.041013394 0.043093983 -0.036790825 -0.039516184 -0.08259632 -0.040983565 -0.0527595 0.07061406 -0.039717052 -0.0013919265 -0.07014811 -0.049387485 -0.04743916 0.07211277 0.18446247 0.08111501 0.10641459 0.027873456 -0.0767588 0.009927465 -0.027159816 -0.18126124 -0.106234774 -0.116525255 -0.06933267 0.21678768 -0.18576227 0.066708274 0.038385406 -0.11745777 -0.10985349 0.03242704 0.0064340555 -0.019222427 0.01350357 0.035140343 0.04127467 -0.012724461 0.1317328 -0.0547988 0.083412185 -0.017773228 0.024892036 -0.15938392 0.019111086 -0.002349821 0.20323151 0.01821942 -0.051049866 0.077481166 0.015534333 0.012431003 -0.07742054 -0.0137257585 0.001603072 0.031702194 0.0025028412 0.13636985 -0.013639925 0.026107486 0.20574142 -0.13875261 0.12552752 -0.07202193 -0.076785125 -0.05717722 0.02855721 0.010573843 0.17383693 -0.025293138 0.08334643 0.012826087 -0.0204118 0.03807772 -0.030366769 -0.046906557 -0.031590868 -0.110140525 -0.11186204 0.17219497 0.1532969 -0.06436715 0.06140457 -0.014474733 0.034208823 0.038387958 0.040685512 0.05628406 -0.06096852 -0.06317296 -0.05617705 -0.0045177354 0.052733656 -0.0030889153 0.08352891 0.026300063 0.05043661 -0.017394274 0.056571193 -0.08164459 -0.07923682 -0.028381601 0.034235384 -0.008981877 -0.020547023 0.02080821 -0.026503809 -0.025350334 -0.005188203 0.04108777 0.04402064 -0.055615008 0.016194375 -0.011539133 -0.017630927 0.08113288 -0.020674352 0.07628982 0.07242753 -0.04039725 0.03702501 0.0054603904 -0.029870626 -0.034784447 0.0027275137 -0.024558594 0.032027233 -0.0066344813 -0.022386547 -0.06932719 0.028502425 -0.005542374 0.004891564 0.015932035 0.039999112 -0.029529572 -0.049329367 -0.039780352 0.022169199 -0.06297272 -0.019662926 0.029491968 -0.029322244 -0.055069007 0.03529898 -0.0908346 0.08375355 0.002426315 -0.0032129902 -0.0033385735 0.021377074 0.008581801 0.0050323424 0.0035981594 0.025250217 0.01069997 -0.034327473 0.004394068 -0.023333363 -0.008001587 0.014255205 -0.0043341657 -0.016102646 0.018526208 0.06161488 0.0142455585 0.06289287 -0.004729688 -0.027541962 -0.045828667 -0.020693548 -0.025367294 0.029709041 -0.08010103 0.017685564 0.015957108 0.0020320758 0.042839915 -0.019567585 0.0066032317 0.026498398 -0.019325543 0.033213016 -0.0051142396 -0.05107551 -0.036776904 0.010915321 -0.02761889 -0.02407509 -0.027147293 0.017983587 0.008596332 -0.031819075 -0.03719903 0.03929019 0.02206073 0.013698243 0.013486325 -0.019490872 0.022231506 0.008855636 -0.0053556426 0.0006013809 0.00842914 -0.017265793 0.022876004 -0.012337296 -0.014411791 0.004916207 0.024412856 0.0040253056 -0.0002870439 0.003921642 0.0065804566 -0.0025100587 0.00042862247 -0.0009190501 0.008394986 0.0076828822 -0.005682352 -0.0036131898 0.0015968565 -0.021682352 0.0012878053 -0.010677235 -0.0005233359 0.0037322459 -0.0037707542 -0.0027195418 0.003769514 0.0043590725 0.0056144423 0.0074977116 0.011892317 0.0040803156 -0.005781746 -0.011875179 0.0037784644 -0.0031713364 -0.0019308331 -0.0030340909 0.0024893938 0.0039730747 0.0029945222 -0.0021198173 0.0151361255 -0.006303758 -0.015899885 0.0071243066 0.015526826 0.008493614 -0.010552191 -0.0005009067 -0.015824215 -0.05352001 0.0464206 0.011125688 -0.015308321 -0.041848578 -0.025083892 -0.00912011 0.019820858 -0.0045952317 -0.010495903 -0.007526931 -0.0030249108 -0.007274179 -0.015177144 -0.013185757 0.0043066624 0.002508301 0.0036999525 0.011262608 0.0031187318 -0.013251465 -0.01775418 -0.00469127 -0.009482261 0.043525197 0.026880946 0.01925313 -0.05934201 -0.0062264474 0.039993085 0.056363642 0.037991967 0.004317443 0.0349819 0.013567406 0.025331587 0.027878158 -0.029460343 0.03514443 0.014871525 0.007283987 0.06935307 0.037600946 0.047763065 0.009000502 -0.010401004 0.04367367 -0.0016117614 0.035291795 -0.019831888 -0.009506077 -0.016326912 -0.034166798 -0.0036901475 -0.002687654 0.03150335 -0.037259903 -0.0035431155 0.0024273791 -0.028271783 0.05019522 0.015143848 -0.010412505 -0.03213355 0.052789047 -0.07125063 -0.024431296 0.0036691378 0.018612614 0.024425482 -0.0385644 -0.018081348 0.018158082 -0.017441474 0.023562962 -0.0008219617 -0.06592633 -0.024688978 -0.06161364 0.0029643774 -0.10365362 -0.050172046 0.032267384 0.14548926 0.0113523165 0.1111854 -0.0048149615 0.012865168 0.06972853 -0.0021010723 -0.045895256 0.043588433 0.02023616 0.010754954 -0.0122670615 0.034308918 -0.011003851 -0.03448846 0.03404456 -0.054673847 0.006668203 -0.002726513 -0.019605057 -0.034247216 -0.10175705 0.046342015 -0.050033666 -0.09101801 -0.05382667 0.036348205 -0.03316612 -0.032852698 0.015992034 0.06083731 -0.025831614 -0.042145774 0.007919534 -0.034265094 0.045175456 -0.0007257031 0.02731283 -0.02370905 0.016380796 0.028815625 0.0033178502 0.011508887 -0.052691557 -0.0209319 0.02542502 0.0004232016 0.005097861 -0.0049494077 0.00014755942 -0.0006442495 -0.0032089069 -0.0072324416 -0.031762205 0.010072891 0.004267995 0.030677008 0.015407335 -0.03751317 0.026158296 -0.022901986 0.01610689 -0.0126078045 -0.034824066 -0.025114981 0.058421142 -0.03292971 -0.020242456 0.0023001807 -0.026260667 0.073436745 0.021055741 0.004943538 0.037513576 0.066860415 0.013966334 -0.031028286 0.0188043 0.03325835 -0.06124659 0.0038419056 0.016272804 0.023120707 0.025029901 0.0026672995 0.023831073 0.060632616 -0.026558816 0.014320607 -0.015487939 0.015038666 -0.03874284 0.001036234 -0.016748304 0.006082995 -0.0052994695 -0.0037497254 0.004550692 -0.0030947293 -0.0075460477 -0.008700938 -0.0015468517 -0.012678578 -0.007931481 -0.0018341868 0.005986562 0.0032662512 -0.021735292 -0.0057851467 0.0143637955 0.014306787 -4.0759154e-05 -0.0028104165 0.034562342 -0.11418165 0.08210003 0.085579745 -0.010017852 -0.039033562 0.06325324 -0.059300307 0.031058488 0.026690528 -0.051641308 0.1589768 0.28599247 -0.20755364 -0.020099288 0.005566438 -0.040264312 0.32880396 -0.30412543 0.0006586425 0.025601977 0.027792716
1 -0.043150436 -0.01149582 -0.160995 0.027303535 0.15061869 0.05895052 -0.00856772 -0.14407136 0.01572751 0.12651329 -0.11599176 -0.45383978 -0.10368028 0.004003531 0.25893363 -0.15250482 -0.10849526 0.1169402 0.033097334 -0.15874332 -0.17835534 -0.19689903 0.07888185 -0.059149384 0.04461967 0.076258235 -0.07910515 -0.05801962 0.3288861 0.04412355 -0.055275436 -0.06009051 0.019853337 -0.051032916 0.12492817 -0.06975836 -0.026951237 0.06802588 0.1359003 0.019548276 0.029118871 0.038578954 0.0053046755 0.008660286 -0.0027461355 0.038974393 -0.06288028 -0.118334636 0.1356325 -0.037390187 -0.006858895 0.07390428 0.024301473 -0.052275665 -0.06396979 0.11262858 -0.2568263 0.02150028 -0.03080009 0.02042054 -0.031215513 0.015386523 -0.12735344 -0.020669924 0.16105588 -0.080573194 0.1481739 -0.10434237 -0.045114364 0.08262108 0.29740146 0.27653345 0.06186928 -0.0061820475 -0.253222 -0.19698998 -0.68559587 0.36435434 -0.5393607 0.6222522 0.23655392 -0.11049048 0.13462822 0.10345635 -0.061386123 0.17617005 0.06507915 -0.39314133 -0.033697803 0.14506122 0.036924463 0.08591872 0.10640872 -0.088501066 -0.04458294 -0.20141481 0.03251641 0.060695518 0.07163949 -0.051839124 -0.011697636 0.012011226 -0.0009825584 -0.0077518527 0.05486603 -0.052978124 -0.11244343 0.049414538 -0.05026969 0.021185806 0.028700108 -0.009587356 -0.010774647 -0.022022024 -0.025959512 0.2308904 -0.09879871 -0.05866406 0.019122902 -0.082937844 -0.0620713 -0.15425923 -0.017886773 -0.0086859735 0.033889543 0.073634245 0.057615507 0.12590536 -0.04147518 0.032374635 -0.012909669 0.00071099395 -0.044078756 -0.080513395 0.037362542 0.08284213 0.0076389248 0.017534817 0.0010964494 0.004649598 -0.03986962 0.016203603 -0.07515259 -0.021925433 -0.07631486 0.12907113 -0.03170566 -0.13091606 0.048446517 -0.028159505 0.029533478 -0.10138659 0.037665814 -0.15282936 -0.009969147 -0.04263987 -0.0524442 -0.014059298 -0.019989278 -0.0013687039 0.03827641 0.011787719 0.039281365 0.033138823 0.037750207 -0.028637428 -0.04989061 -0.022737736 0.06003453 0.12635365 0.0064825737 0.059980154 0.024619902 -0.039917815 0.039609935 -0.033685565 0.06304813 -0.002431811 0.01572295 -0.017156519 -0.05095452 -0.015010903 -0.025685683 0.058989685 -0.0065273074 0.054132927 -0.012703248 0.08136037 -0.005826296 -0.003814816 -0.043744422 0.039060485 0.32605746 0.3945862 -0.043457497 0.22613889 0.22188278 0.26035714 -0.10391328 0.11035258 -0.09633931 -0.22678187 0.21711981 0.02420322 -0.21191998 -0.17618755 0.41605985 -0.06543456 -0.540655 -0.09641624 -0.039417718 0.16678315 -0.18143164 -0.24973917 0.0580434 0.13024786 -0.17914896 -0.0144931795 0.10400042 0.043315645 0.25399598 -0.06692457 -0.028006496 0.09729808 -0.03336219 0.01866283 -0.0978267 -0.040490847 0.048026543 -0.107250564 -0.10551249 0.17265528 0.036325287 0.058486585 -0.06274831 -0.065974765 0.068986 -0.002355167 0.041493975 -0.0015576212 -0.036056157 0.13525201 -0.09068689 0.3212481 -0.064919315 0.11483105 0.117916055 -0.03268205 0.13709742 -0.12743035 -0.111745976 0.18788058 -0.262634 0.062014192 0.0062266514 0.08770331 0.3600903 0.25016347 0.13718137 0.33348334 0.065715775 -0.048839614 -0.26319206 -0.3049934 -0.25478652 -0.1598113 0.028560933 -0.56258637 -0.22269383 -0.113335624 -0.46067902 -0.13920023 0.4626837 0.011282624 -0.072952405 0.33494017 0.41182008 -0.043743595 -0.36888713 -0.13804968 0.40110824 -0.21953693 0.30431038 0.23296234 0.2871948 -0.49416128 0.0905824 -0.3295592 -0.018561997 0.2292152 0.34262344 0.1422633 0.6211828 -0.14246388 0.22513933 -0.1517026 -0.011489702 -0.42926475 -0.19636072 -0.27882814 -0.48934662 0.33445323 0.21761243 -0.45512065 0.14124753 0.47190222 0.3586958 -0.09666651 1.1280978 0.2994179 0.03595806 0.40068868 0.30489552 0.51426893 0.33249032 -0.10201222 0.47195736 0.25055483 -0.0634992 -0.093272604 0.16020821 0.15283239 -0.32336077 0.304815 0.19764917 -0.1313274 -0.16280839 0.03918477 -0.07369813 0.048307117 0.068953745 -0.0055607706 -0.060319193 -0.019854784 0.2382742 0.23029141 0.03658474 0.011970802 -0.059324145 0.17050707 -0.06346972 0.11236279 -0.08889635 0.25654322 0.060275864 -0.005644593 0.26481444 -0.3989673 0.37292367 0.14038411 -0.026112236 0.13599502 -0.25055504 0.3132137 0.13520971 0.1415586 1.3304198 -0.17974591 -0.8650373 -0.13252206 0.96744055 -0.4486964 -1.3126985 0.51672506 -0.51455593 -0.020147905 -0.12717682 -0.6891158 -0.77115786 0.7415701 -0.5030636 -0.19337928 -0.47275877 -0.10152708 0.11437791 -0.03638108 0.79838157 0.7831699 0.080784425 -1.0344665 -1.1840643 -0.20693187 -0.7861938 -0.01890925 -0.035484217 -0.1328764 0.27116635 0.89548266 -0.050648674 -0.156489 -0.25670704 -0.3375024 -0.022863917 -0.023140382 -0.0047777155 0.15357721 0.08383356 0.26526305 -0.27777547 -0.011598439 -0.17033371 0.31123918 0.10735363 0.16000463 0.16709174 -0.048565306 -0.05135023 -0.4012881 0.2319771 0.4983573 0.06816069 -0.44215018 -0.31307372 -0.07924267 0.3994534 0.2467087 -0.5123331 0.33483043 -0.36883387 -0.22309196 0.74657387 0.67686456 -0.028057653 -0.27686492 -0.27153397 0.21656398 -0.10281297 -0.42527053 0.26422077 0.15858527 0.076404676 -0.51393646 -0.37027517 0.052960124 -0.19313462 0.37541312 -0.89383936 -0.22444682 0.6099735 0.48990932 0.1057306 0.4125762 -0.3859459 -0.10713638 -0.16141921 0.5371139 0.3149616 -0.22520226 0.11790607 0.35222864 0.05790005 -0.14724249 -0.13418145 -0.4352912 -0.0762335 -0.04760774 -0.44065693 0.21284556 0.0857099 0.11928918 0.2987296 0.02594924 0.13972288 0.0665755 0.00768743 0.11545217 -0.4171352 0.0348862 0.08769302 0.005609273 0.05579722 -0.06058919 0.033666883 0.016509112 0.045580372 -0.051130246 -0.08597144 -0.074880704 0.17763397 0.04497897 -0.19909324 0.2018574 0.2015003 0.60854596 -0.28577977 -0.47346458 -0.39457726 -0.30870178 -0.116513744 0.022133254 0.19766429 0.023709718 -0.29355446 0.19675355 0.27328977 -0.08363917 0.19975066 -0.22942832 -0.16443257 0.07370913 0.22827998 0.34241077 0.27047437 0.061802186 0.49995056 -0.16461483 -0.078029715 -0.13876812 0.45775893 0.123170726 0.34865528 0.40227762 0.36321145 0.086472556 0.098001555 -0.3224635 0.18309389 0.2908643 -0.9667103 0.25719467 0.4436986 -0.64081794 0.6499571 0.2545069 -0.583022 0.1570681 -0.46440044 0.29336596 0.2225652 -1.1500075 -0.06716505 -0.044826936 0.36160943 0.41801822 -0.18849403 0.9599446 0.22440803 0.013813853 -0.3661654 -0.09910381 0.32138517 0.3802708 -0.024975602 -0.02876417 0.043676637 -0.09194138 -0.06511027 0.07688098 -0.06226056 0.028140634 -0.14110973 -0.007239454 0.024375273 0.040597957 0.015160604 -0.13039784 0.11231752 0.27779123 0.20220236 -0.04157482 0.4616817 -0.029678652 -0.043925602 0.2158499 0.3066687 -0.07245362 -0.2734629 -0.20933051 -0.25313544 -0.08666139 0.26487115 -0.18712159 -0.07382592 0.48575184 -0.29440597 0.056365676 -0.16428538 -0.09848352 -0.106371336 -0.058593895 0.118301146 -0.067898184 -0.027037911 -0.14085774 -0.18302199 -0.14216435 0.11126363 -0.0888913 0.06933939 0.12348667 0.059778027 0.42287156 -0.12016948 0.11462235 0.010490089 -0.013112864 0.18763894 -0.073491 -0.15681744 -0.12541007 0.16125636 -0.05072257 0.17693 0.027764793 -0.016943041 0.22142158 0.041492563 0.08926483 -0.052302435 0.054886412 -0.07680888 -0.071894035 0.04966416 -0.083866216 0.00088146166 -0.2174574 0.109243065 -0.24996915 -0.21559389 -0.1533298 -0.34726614 -0.12345765 0.45992658 -0.46313322 -0.2293252 0.3327146 -0.19892001 -0.1659213 0.14786774 0.063868 -0.11097005 -0.13728562 0.046755888 0.05256155 0.08866784 0.1767115 0.09519103 -0.12073898 -0.12848979 0.016553733 0.07575978 -0.20927547 -0.08019395 -0.02301706 0.115973674 0.09438367 -0.11410499 0.039933413 0.094276205 0.15421987 0.027943766 0.18151082 0.2110217 -0.07383068 0.09950952 -0.022956258 -0.23708478 -0.0029676289 0.22252624 -0.10246494 -0.03623176 -0.069470204 -0.01433759 -0.15372795 0.25774157 0.037951693 -0.14774533 -0.10558128 0.032605797 -0.13831358 -0.2367532 -0.18780883 -0.20671004 -0.32584485 0.52448505 0.3328131 0.07350764 -0.10721467 0.08438086 1.0784076 0.26826704 0.2948076 -0.25683278 -0.17634276 0.1609236 -0.3464046 -0.08210882 -0.7546804 0.5039872 -0.3589772 -0.3762118 0.55679005 0.30063742 -0.37656516 -0.9209863 0.28558862 -0.07877642 0.06568284 -0.24334499 -0.22583288 -0.43809527 -0.44179407 0.3456665 -0.2774729 -0.058672246 -0.10792726 0.25411496 0.4475267 0.25583395 -0.3943346 0.044033494 0.18835342 0.08363981 0.5446092 0.4263856 -0.70712394 0.69594914 0.23013292 -0.4377019 -0.41058555 -0.34188297 0.80304456 -0.15047331 -0.30497584 0.2514129 -0.11663341 -0.1376929 0.10581268 -0.06757586 -0.0018776224 0.13924512 0.064944975 -0.18155804 -0.019717937 -0.33324355 -0.11198049 0.36308935 -0.5568129 -0.01614554 -0.071637094 0.44788128 -0.30753502 -0.117542006 0.16396034 -0.13849945 0.09705154 -0.08079071 -0.1490497 -0.09704967 0.020687247 -0.33905807 0.21208005 0.019270912 0.21548174 0.04292606 0.017027674 0.670644 -0.3379281 0.29845074 0.17371938 -0.23335189 -0.43903348 0.3272251 -0.89919674 -0.21146359 -0.38679734 0.0745222 -0.085761614 -0.04775986 -0.09438534 0.016725287 -0.066402994 0.04422958 -0.093556 -0.016075963 -0.040901687 0.019037044 0.0607357 0.024733959 -0.041906312 -0.07065939 0.01620793 -0.0144586405 -0.07174828 -0.004977248 -0.009488966 0.07618451 0.1397124 0.032372482 -0.112630956 0.11076088 -0.04113461 0.042706907 -0.059310645 0.0028936218 -0.0991785 0.0011893396 0.026593812 0.01690992 0.00485748 0.13388771 0.057996392 0.019922832 -0.08676876 0.15569343 0.35970306 -0.048689093 -0.04967625 0.113723315 -0.015726069 -0.021318562 0.16333763 -0.082353815 -0.1519153 0.014530309 -0.020047583 0.06120869 0.048696574 -0.0118205575 0.0059893886 -0.028325569 -0.07127563 0.07630893 -0.11212854 0.17804055 0.1351871 -0.2052188 0.12334825 0.1659241 -0.20839095 0.06073538 -0.17939863 -0.02548101 -0.052341793 -0.26994196 -0.35713893 0.03153725 -0.2842061 0.1698195 0.16238649 -0.013387436 0.09368611 0.44806102 -0.35324827 0.02177219 -0.3512195 -0.14225857 0.06680374 0.14541751 -0.049143374 0.005010443 0.074349076 0.15657963 0.023600364 0.019862086 -0.038858235 0.060813006 0.010198273 -0.17148423 -0.006694594 0.07737921 0.0027040525 -0.026402026 0.088608116 0.08036283 -0.07583875 0.13037321 0.022798663 0.16751175 -0.014951573 0.058166876 -0.06276276 0.008596947 -0.018317584 0.02825327 0.018941635 -0.015988985 -0.007212535 -0.06585863 -0.02772019 0.007459829 0.016597593 0.004320778 0.0279652 -0.0390261 -0.057770126 -0.009931831 -0.0022809333 0.073997006 0.011185551 -0.025780676 -0.04384775 -0.028158763 0.006893617 0.013045244 0.019063508 0.010345574 0.049724977 0.010209318 -0.09879386 -0.00638005 0.018286254 0.08218594 0.07309522 0.062825225 0.018283932 0.06416026 0.033104673 -0.013822202 0.08118609 0.022687422 0.10781444 0.15807068 0.12242974 0.08525086 -0.009330168 -0.09927705 0.1925869 -0.21058656 -0.008084017 -0.015010164 -0.044187695 0.14760713 0.18335003 -0.07088386 -0.11460551 0.016749045 0.058408786 0.047394212 -0.059261706 -0.11342948 -0.017046649 0.026210949 -0.043996472 0.029459931 0.016353702 0.11326209 0.06007389 0.11005745 0.0850568 0.06590726 -0.03971577 -0.25313896 -0.07077497 0.053831648 0.10143751 0.18088228 0.07469282 -0.044896897 -0.16425572 0.08174754 0.016766898 -0.019617345 0.07614073 0.04005967 0.055052944 0.022084901 -0.12547052 -0.16534558 -0.29296818 -0.026342094 -0.022170123 -0.0076483246 0.070368275 -0.050366342 -0.046683256 -0.046603028 -0.14713016 0.03302467 0.038043175 0.017984517 -0.008920013 -0.004286253 -0.10322765 -0.110340945 -0.05182313 -0.0047781817 -0.05597521 0.13732833 0.033984516 -0.035965495 -0.028511709 0.013540367 -0.05696756 0.27466998 0.7919632 0.20521002 0.3878875 0.048449133 -0.3237601 0.06807936 -0.1140083 -0.49422392 -0.26573256 -0.32426906 -0.19194572 0.601282 -0.53369004 0.19844261 0.056819256 -0.4054625 -0.34737027 0.10275166 0.032796443 -0.09746571 0.020967932 0.10723885 0.13559268 -0.066469654 0.43541396 -0.19722888 0.22613575 -0.1010875 0.0684555 -0.5376325 0.04791851 0.009030986 0.57129276 0.024258526 -0.18554908 0.19747551 0.053865507 -0.02046731 -0.1915502 -0.021759424 -0.024253188 0.06602682 0.0037656392 0.2898521 -0.04509322 0.07638254 0.79973906 -0.410616 0.44769534 -0.1980317 -0.3475773 -0.24831043 0.20636787 0.075959966 0.5611783 -0.09017977 0.2748458 0.10052445 -0.104175985 -0.00291354 -0.06843499 -0.18634054 -0.11044452 -0.36644474 -0.33276343 0.5027824 0.45016277 -0.1737707 0.17862996 -0.03748771 0.12554918 0.2509706 0.3761157 0.65967816 -0.6734314 -0.72139555 -0.45732886 0.013451964 0.61206996 -0.027275212 0.7176819 0.26719552 0.36217785 -0.16892573 0.48344144 -0.853477 -0.9314634 -0.27850175 0.36764577 -0.10497623 -0.2525765 0.26087293 -0.33420557 -0.21440506 -0.11388504 0.5409969 0.61340004 -0.67004436 0.13604999 -0.08079444 -0.21180561 0.917011 -0.30794188 0.42433733 0.4572469 -0.29262656 0.21586399 -0.008655824 -0.31404004 -0.19996817 0.039319675 -0.15496248 0.23894976 -0.017447691 -0.15028593 -0.49892828 0.21401782 -0.039660145 -0.0032564243 0.13070367 0.12720552 -0.08531324 -0.16307814 -0.13474521 0.0439216 -0.24480645 -0.010975387 0.15035406 -0.10781459 -0.17004679 0.16470933 -0.37954846 0.2974623 0.019331902 0.031585157 0.076600336 -0.0321105 0.029514274 -0.033259157 -0.07535236 -0.30347714 -0.08186486 0.0046130596 0.07327342 0.049008675 0.06270144 0.06078757 -0.015042294 -0.0657517 0.055354398 0.1092795 -0.013716016 0.07996189 -0.029111994 -0.06037711 -0.109751694 0.05031283 0.011013531 0.07641182 -0.14978187 0.075304255 0.0118598 -0.025856478 0.16730852 -0.103931844 0.093007915 0.064667925 -0.008701938 0.050462436 -0.024179876 -0.09321113 -0.054804157 0.042267203 -0.06275105 -0.067805186 0.025153527 -0.025201034 0.036763858 0.008146252 0.021186974 -0.07714234 -0.123253144 -0.06404863 0.010810709 0.13270907 -0.15332979 0.049719412 0.05261011 0.05571714 -0.04197902 0.07238873 0.050234932 -0.06352191 -0.14691168 0.08954877 0.16747609 -0.025571065 -0.006881057 0.09944634 0.08117534 0.022756876 -0.01984995 -0.012181591 0.069345325 0.0045330613 0.07679264 -0.0592136 -0.0033577445 0.35051742 -0.031515066 0.035542328 0.04957226 0.029813142 0.0044207773 0.062774576 -0.09083289 -0.25535363 -0.0942558 -0.20802778 -0.18393058 0.017603125 0.16361359 0.24087398 -0.00073971046 0.11014989 0.086780734 -0.07524923 0.23311308 0.07481944 0.008119878 -0.057143603 0.19605032 -0.08262262 -0.26516455 0.17328452 0.3030935 0.18296643 -0.107777454 -0.06373818 -0.111441724 -0.30031747 0.3451429 0.11109788 -0.09912969 0.24541304 0.1518215 0.15838772 -0.2635941 0.054922868 0.7517134 0.2639264 0.17570123 0.06809836 0.05422796 -0.0023760828 -0.39668298 0.02344461 -0.15521333 -0.025213216 -0.25524682 0.09118763 0.0053465934 -0.06117996 0.012236236 -0.24554397 -0.17483184 -0.06750907 0.2593929 0.034875717 -0.17113698 -0.2962052 -0.286207 -0.022967579 -0.2466726 -0.10122512 -0.17479582 -0.29705906 0.18047088 -0.13439925 -0.053352147 0.05975394 -0.47639015 -0.20653747 -0.37708718 -0.013026727 0.07300738 -0.25449196 -0.0066075944 -0.1337992 0.082030185 0.10122543 0.12850606 0.1023656 -0.020122679 0.01375068 -0.010209695 -0.028496036 -0.037498783 -0.00067992066 -0.011003172 0.025842259 0.05538944 -0.004751449 0.060542576 -0.06363436 0.015535904 0.014213496 -0.017770933 0.06148958 0.07753528 -0.17211339 -0.10461342 0.08412637 -0.13028844 0.15245983 -0.020245215 -0.37381533 -0.12575144 -0.35616857 0.009134456 -0.45320037 -0.22616625 0.12455973 0.6427726 0.06449202 0.60788286 -0.05170101 0.063277654 0.42797583 -0.048959386 -0.27297628 0.24972342 0.16668686 0.049621496 -0.086098365 0.24888387 -0.11253474 -0.16719672 0.2380476 -0.35049438 0.056998122 0.005302528 -0.11195431 -0.2078586 -0.5664799 0.22695617 -0.22944643 -0.49217278 -0.2927926 0.19038461 -0.17772843 -0.090431705 0.08400663 0.21878578 -0.07025558 -0.18188912 0.050618313 -0.13631997 0.17251702 -0.014563568 0.11016301 -0.0849238 0.086206846 0.09147883 -0.0016530332 0.08654408 -0.21227011 -0.06750696 0.11626351 -0.14906766 0.13287614 -0.04121838 -0.0060738213 0.07923947 0.065163486 -0.04662467 -0.29354173 0.08245084 -0.021067731 0.26640937 0.13624352 -0.3116357 0.22483756 -0.16562292 0.16358356 -0.14781299 -0.32609496 -0.21308403 0.5024042 -0.31411886 -0.18093915 -0.010168569 -0.17777471 0.46411824 0.13495663 0.016566629 0.16434 0.32826793 0.07968035 -0.080663376 0.065636896 0.10710341 -0.19732033 -0.036133364 0.061843477 -0.07680088 -0.04282312 0.03714459 0.05470602 0.24526864 -0.10385371 0.06442251 -0.050315283 0.019423082 -0.06297592 0.031212486 -0.06725499 0.06518765 0.0105454745 0.036795113 0.011951576 0.0382994 -0.018778237 -0.12519959 -0.059621643 -0.23937373 -0.33740133 0.33585942 -0.3157299 0.02219853 -0.6621359 -0.14599742 -0.30302525 0.25017628 0.517145 -0.07830902 -0.3485269 0.44189778 -0.3490541 -0.1711172 0.02767309 0.067817375 0.00062155107 -0.104099244 0.0015926594 0.07329339 0.05723646 0.34884986 0.6252113 -0.444028 -0.08934371 -0.094116 0.017888406 0.41138607 -0.4045828 0.050683223 -0.05759707 -0.11731701
2 0.41275826 -0.48749733 0.62685406 0.41077167 -1.2624917 0.5641535 -0.12843351 -1.0661877 -0.17118107 0.0067581055 0.004686741 0.43001133 0.0006027872 0.24525404 -0.30758655 0.15773271 -0.1075743 -0.064092815 0.38698873 0.29964307 0.28282723 0.2998349 0.115351684 0.28908217 -0.055795442 -0.058783077 -0.037600204 0.07479808 -0.17489229 -0.0529792 -0.020411184 0.045056544 0.009044851 0.18495965 -0.45085654 -0.05850808 0.21055871 -0.21923053 -0.32653353 0.00726743 0.09354831 0.2050408 -0.17355148 -0.0795658 -0.014807952 -0.04355528 -0.14126347 -0.23462157 0.6010328 -0.1806129 -0.16888878 0.2984138 -0.0011821145 0.05116177 -0.103575215 0.05117184 -0.20708106 0.0037690022 -0.08580211 0.05874239 -0.068358906 0.27019674 -0.43151656 -0.11027185 0.61449635 -0.35289022 0.4505132 -0.28862244 -0.16052411 0.19497111 0.6477643 0.33302963 -0.032731604 -0.012678184 -0.20256077 -0.13384607 -0.47978625 0.14738312 -0.31622845 0.2903165 0.143429 -0.04015247 0.094515145 0.02541718 -0.025426498 0.108777545 0.021989934 -0.10764183 -0.03615761 -0.013300661 0.031001473 0.06199916 0.045968592 -0.025435483 -0.07576484 -0.049580913 0.18858288 0.3526391 0.35158524 -0.21948473 -0.056263424 0.07346409 -0.14182764 0.13617772 0.116545744 -0.08144629 -0.1451843 0.03878471 -0.035339225 0.0025009217 0.01147233 -0.012947459 0.04637087 -0.039089438 0.00484143 0.21425958 -0.059157714 -0.057752784 -0.04516429 -0.011526328 -0.10124778 -0.28158498 -0.02665763 -0.11393394 0.1213965 0.16414021 0.10280412 0.2627306 -0.08270182 0.14698105 -0.06534128 0.030288184 -0.124378815 -0.13487668 0.12594013 0.21411438 0.19413538 0.26573116 0.09838467 0.19973972 -0.3041737 0.05511675 -0.5751414 -0.25275683 -0.3311897 0.5479799 -0.1460481 -0.60175645 0.25877538 -0.14958608 0.20427336 -0.500306 0.17267711 -0.6755338 -0.12985131 -0.35819978 -0.4397572 -0.26549605 -0.42673475 -0.85752743 0.20194915 0.11082299 0.19047427 0.3697584 0.19993106 -0.14452532 -0.51613194 -0.20211044 0.26900578 0.3667204 -0.06570866 0.36349604 0.009390909 -0.29326516 0.16014692 -0.14889026 0.16460243 -0.46155253 0.38431323 0.10104688 0.1377153 0.4161029 0.17967106 -0.30086035 -0.0315562 -0.07944144 -0.018651662 -0.16842054 0.014488118 0.1776459 0.6162648 -0.28429917 0.72332704 0.8371774 -0.074617915 0.33796227 0.32805902 0.46494597 -0.18605271 0.16275884 -0.14497298 -0.56385434 0.39590582 0.063399374 -0.36714143 -0.3351518 0.63007534 -0.13280018 -0.92069155 -0.16747682 0.03601723 0.22567116 -0.29072103 -0.3523587 0.05602707 -0.021781672 0.33516145 0.026312636 -0.0110555915 0.008882282 -0.18497941 0.20594984 -0.04006948 -0.19854094 0.0467452 0.0741136 0.06441663 -0.07614822 0.0007299052 -0.003978894 -0.06417562 0.06399462 -0.10196057 -0.094157584 0.15134765 -0.007848781 -0.123319015 -0.12203363 -0.09796886 -0.30297005 0.02440951 -0.03243866 0.03337096 -0.122562505 0.09511597 -0.12228759 -0.055283 0.072163254 -0.03441794 0.09900683 -0.106642 0.17857526 -0.088863775 0.1852618 -0.06947104 0.17722286 -0.021416819 -0.0040149814 0.01907265 0.026617667 -0.100893594 -0.016835516 -0.08474875 -0.05580591 -0.026730048 -0.15304776 -0.10251647 0.0766401 0.059824828 -0.025803236 -0.14918211 0.17656595 0.03675541 0.034435593 -0.042968065 0.09039525 0.15076216 -0.13018686 -0.0824156 0.009167769 -0.11908198 -0.034468416 -0.013087667 0.0073818797 0.012596738 0.10778526 -0.054508492 0.11805803 -0.028597865 0.15445375 0.077664874 -0.021639433 0.2440534 0.032725733 -0.034099214 0.0421246 -0.0012221908 0.11509772 0.045918584 0.045794625 0.22551456 -0.116552874 0.03765423 0.24182399 0.008589908 -0.33414552 -0.21628657 0.05722282 -0.93955547 -0.22273369 -0.07334353 -0.32830238 -0.2200726 -0.37823918 -0.25567427 0.0055999937 -0.34609038 -0.15402843 0.051821508 -0.013644432 -0.037026346 -0.07954314 0.14521237 -0.17979974 -0.1526446 0.0760683 0.1600214 -0.06010432 -0.04226378 0.0114159165 -0.14361131 0.042820204 0.07529481 -0.036580317 -0.49620315 -0.4280945 -0.054496422 -0.03076308 0.026972186 -0.018115053 0.07233653 0.081135474 0.005275898 -0.09819305 0.0468351 0.04762552 -0.16707622 0.15516464 -0.23582664 -0.12791732 0.03499683 -0.051543508 0.25871438 -0.2906733 -0.15745163 -0.16653298 -1.1808637 0.13206422 0.7822265 0.11849855 -0.7793853 0.33559647 1.1552745 -0.36885786 0.44411543 0.09437571 0.057567213 0.51943326 0.549951 -0.5502127 0.3654395 0.053363994 0.23921123 0.090477705 -0.20941883 -0.057430327 -0.47622216 -0.52350354 -0.014596621 0.722068 0.8298761 0.2041013 0.6033266 -0.043460853 0.047545787 0.08067413 -0.22007774 -0.7835714 0.039718136 0.06359449 0.22940259 0.15426414 0.02939127 -0.004421492 0.04886361 -0.21854499 -0.10424755 -0.3473356 0.25843915 0.09305153 -0.0036886574 -0.06407337 0.0073250933 -0.077201486 -0.092786975 -0.095429756 -0.0052336906 -0.01895973 0.01032364 -0.035804734 -0.01476382 0.003009547 -0.026454229 0.066396624 -0.04354938 0.017210579 -0.18200943 0.028974714 -0.12903245 -0.025833707 0.083566666 0.20978133 -0.0695968 -0.03495673 -0.1462083 0.17238376 -0.04975926 -0.35817304 0.20787477 0.15239939 0.053291243 -0.23882636 -0.16236323 0.07592528 -0.029617539 0.07432014 -0.2330999 -0.01628176 0.1317088 0.057069466 0.00618468 0.035047192 0.025908062 -0.002250562 0.010094793 -0.06615663 0.0488109 0.0830926 0.069938615 0.26517013 -0.0022276524 -0.054416824 0.022306016 -0.41372216 -0.124647714 -0.045838878 -0.22709766 0.1206288 0.020675795 0.07743237 0.12061925 0.126685 0.023352418 0.05471009 0.006422456 0.028985152 -0.02574733 0.018220216 0.32478496 0.055017248 -0.109015144 0.112126246 0.18002015 -0.14218536 -0.118201345 -0.3025143 -0.34775352 -0.28563643 0.13942808 -0.018844811 -0.05925634 0.07119581 0.029438538 0.17594631 -0.076707184 -0.024361772 0.0101995785 0.0005166228 -0.024555828 -0.030006634 0.45279366 0.021166103 -0.41433823 0.11095763 0.03464712 -0.026504908 0.11979921 0.08343017 0.016771115 -0.08402759 0.023838028 0.0559058 -0.0601162 -0.10745439 0.0492682 -0.05197942 0.11439015 -0.11087085 -0.08665341 -0.03010473 0.02270534 0.034146447 -0.43124115 -0.11319512 0.00010685191 0.2629275 -0.13943805 -0.2075286 1.0384591 -0.33564404 -0.2690137 0.737357 -0.73526937 -0.37571266 0.8116802 -0.21714184 0.65365154 -0.51086134 -0.38318238 1.9471105 0.1334701 0.06051509 -0.70590186 -0.80276775 0.2875218 -1.667574 -0.17082788 0.004345348 0.38953182 0.0010640114 -0.26404342 -0.39823663 -0.17646037 -0.1108751 -0.46045184 0.90056455 0.4448543 -0.54473627 0.640501 -0.15964374 0.77729076 0.34091708 -0.5465627 -0.49442405 -0.0878074 -0.43923786 -0.06901135 0.8389855 0.683034 -0.18075767 0.84006023 0.01035557 -0.04623045 0.14911462 0.19681919 -0.13225064 -0.30927926 -0.22450367 -0.23062474 0.0656684 -0.50183195 0.6676041 0.27995616 -1.260901 0.8829456 -0.08064409 0.34055734 -0.4029726 -0.46868128 0.42322466 -0.2699578 0.061462857 0.15916705 -0.31781322 -0.32290015 -0.11255511 -0.30944118 -0.19011708 -1.1812345 -0.0783729 -0.0603444 -0.5917903 -0.26297474 -0.8443446 0.045949385 -0.14252779 -0.9822158 -0.041303083 0.5903142 0.39655128 -0.29325026 0.19091514 -0.123033226 -0.21145211 -8.5602325e-05 0.07430982 0.056176543 -0.0047188955 -0.09969037 0.18609574 -0.32648763 -0.109809265 0.10912133 -0.4120697 0.017489547 -0.10473138 -0.006172863 0.19942237 0.07365357 -0.0045062653 0.18399341 0.07478923 -0.22355698 0.2242546 0.073810644 -0.07878184 0.032655645 0.07796661 0.013456163 -0.018822 0.030461606 0.023684496 -0.044700164 -0.106265634 0.074081466 -0.17500664 0.036815327 0.030892296 0.16296153 -0.009292617 0.005966593 0.23338743 0.09843771 -0.11782625 0.005112053 0.034959465 -0.07156016 0.021915706 0.063510224 -0.057684895 -0.09256267 -0.25141862 -0.17011064 -0.046635874 0.0070034633 -0.23002529 0.1478269 -0.07098701 -0.24058484 0.0742819 0.15271494 0.06617085 0.06956856 0.22980419 -0.33536 0.05016687 0.1323227 0.009810955 -0.04870792 0.13539988 0.37223053 0.038880385 0.15301861 0.18055716 -0.17621902 -0.101029344 -0.031368908 -0.17044125 -0.09651887 -0.9258058 -0.13296063 -0.26763844 -0.10019993 -0.0033394576 -0.16559038 0.15389349 0.13201635 0.32626384 -0.16921046 -0.01429586 0.05236922 -0.12228826 0.039509267 0.061298702 0.13285036 -0.0012687027 0.10094786 0.04823283 0.12911743 0.02267306 -0.01870234 -0.0787575 -0.055166475 -0.042918865 0.08504017 0.031824093 0.02645615 0.18264703 -0.046778217 0.0968853 -0.08389665 -0.15872762 0.1347125 -0.2009891 -0.23209612 0.42712572 -0.36181697 -0.2353904 0.21637903 0.22083946 0.22787331 -0.55385876 0.0756578 0.16933966 0.06131589 0.027245168 0.021296334 0.011895912 -0.34479243 0.028520457 0.07959306 0.06765732 -0.014210387 0.07134861 -0.05188047 -0.009856357 -0.14690876 0.12171691 -0.03702854 -0.04677028 0.00010033589 -0.16642892 -0.08518912 0.20674667 -0.16040882 0.121577166 0.014375738 -0.0014222715 -0.056632407 -0.09678333 -0.11210058 0.0042705177 -0.12615018 -0.07553338 0.05259188 0.07358224 0.094024755 -0.0023272452 -9.421346e-05 -0.0051472913 0.07606323 0.09404513 0.07327011 -0.20094313 -0.021603603 -0.10003942 0.007340744 -0.10082965 0.011460013 0.41024432 0.07860795 -0.15136285 -0.1264628 -0.198239 -0.016210504 -0.12447339 -0.00573305 0.073329724 -0.082449794 0.075946026 -0.02251531 -0.002681364 -0.022120098 0.04723685 -0.08919008 0.056262303 -0.07039754 0.046716046 0.047127977 0.021033533 -0.019011965 -0.072925955 -0.09417326 0.12500799 0.039147004 0.1439686 -0.01807983 -0.023319108 -0.0698952 -0.0202414 -0.42456722 -0.31632543 -0.03204487 0.31489265 -0.39141017 -0.6474424 0.13969932 0.060844753 -0.36839923 0.17591377 0.040166385 -0.42821404 0.040971033 0.76710516 0.036476508 0.12344951 -0.113803655 -0.2611894 0.06541274 0.03105621 0.020477327 0.109304085 -0.15460925 0.29857534 -0.34576738 -0.20623899 0.45714805 -0.20121433 -0.16958475 0.28861746 -0.14222237 0.22223896 -0.024135787 0.02401304 0.16712609 0.23699333 -0.09532498 0.17614852 -0.1754072 -0.119207196 0.011937415 -0.043585442 -0.15696265 0.16699784 -0.014768076 0.094834894 0.081374794 -0.03829873 0.05105402 -0.081074476 0.068059966 0.03505292 0.07480282 -0.06349776 0.009163783 0.08509771 0.0431694 0.0606462 -0.31174383 0.16437772 0.0975485 -0.07272851 -0.0027101806 0.18932962 0.025445037 0.008594891 0.2194092 0.0051803384 0.047264345 -0.071274176 0.013401086 -0.019728625 -0.00539676 -0.14052515 -0.032709684 -0.009679771 0.078353874 0.114148974 0.122379504 -0.018543188 -0.19369024 -0.14375205 -0.20962599 -0.31790236 0.05019254 0.020798463 -0.1438353 0.15077755 -0.13608605 0.03923396 -0.0042563295 0.08909491 0.007990498 0.005348245 -0.06042558 -0.023630058 -0.017418848 -0.060897764 0.030793635 -0.17020826 0.08907603 0.058752038 0.10197743 -0.0019276965 -0.009924843 -0.07780749 0.06845772 0.18281002 -0.24134947 0.016902706 -0.029430006 0.08454826 0.23304638 0.13839783 0.121821925 -0.06558318 -0.21426557 0.13994017 -0.27430138 0.04061157 0.0218717 -0.00906233 -0.014528401 0.085209765 -0.030090576 -0.0816698 0.03051556 -0.015064123 -0.06904837 0.17531152 0.12025311 -0.022589047 -0.14660439 0.07500619 -0.015348581 -0.09247645 -0.2452256 -0.108037956 -0.265288 -0.14944309 -0.042724967 0.040226996 0.07232336 0.09148941 -0.15878 -0.11291337 -0.107961506 0.031953745 0.051626854 0.04547304 -0.08936775 0.10203264 0.07712018 -0.014760946 0.06584313 -0.09591411 0.056320015 0.034126274 0.048506916 0.16674681 0.08960528 -0.035050858 -0.033112098 -0.17268719 0.03660008 0.100460276 -0.0032622104 0.16739549 -0.06788051 -0.07618954 -0.08509615 -0.02560634 0.07094876 0.06414753 0.08459367 -0.11601498 -0.0369268 -0.03529784 0.04172442 -0.19569068 -0.006978666 -0.1942291 -0.19244702 -0.005421401 -0.13788892 -0.29397222 -0.039973803 -0.17799795 -0.0069913063 0.102826394 -0.06596796 0.008100358 -0.16206717 -0.2167536 -0.029666126 -0.06746071 0.23927885 -0.09499041 0.0107147535 0.07257432 0.044510696 0.0731607 0.0781071 -0.01648288 0.08605365 0.04085136 -0.009122767 -0.020259598 -0.03460688 0.004684706 0.021851007 0.031385757 0.063953616 0.067453355 -0.049576174 0.049705014 0.051456105 -0.0068989927 0.05652807 0.11200565 -0.0036160967 0.0011815778 0.066014014 0.0048747603 0.0006214769 0.0872507 -0.024949053 0.0058846823 0.051733486 0.08592206 0.024637114 -0.17395666 0.18450631 -0.1345579 0.16428754 0.23167087 0.15290734 -0.09126217 -0.05267633 -0.3718784 0.00019286308 -0.0484829 -0.03390869 0.051541828 0.062440217 0.011366374 0.08593652 0.006788822 -0.025979945 0.011291535 -0.008063303 -0.09230234 -0.0098111965 -0.038029216 0.0021246662 -0.042235978 -0.16927846 -0.21866983 -0.37118036 0.40688565 0.43122792 0.20443453 -0.005637731 -0.3189303 0.048074726 -0.38860273 -0.17396878 -0.28820056 0.14193074 -0.3575979 0.62567425 0.64709425 0.3020865 -0.40291357 0.10986264 0.2415329 -0.23950045 0.3669514 0.25034234 0.16742302 -0.5615237 -0.7141714 0.72982186 -0.17483799 0.11611194 0.20670658 -0.8939018 0.2601933 -0.70780677 -0.7572127 0.49079442 -0.3407764 0.04647618 0.55981946 0.30859286 -0.06335733 0.3174258 -0.3627304 0.047960795 0.3366792 0.928971 -0.32800433 0.10471479 -0.01968507 -0.10710061 -0.14523654 0.09676324 0.27877736 0.18613565 -0.09266145 0.36458835 0.050938442 -0.24379295 0.1933179 0.29835907 -0.13512415 0.41872582 -0.28883216 -0.022435201 -0.06855953 -0.04834113 -0.016442506 -0.080028854 -0.0033231315 0.004284675 0.18071243 0.043747388 -0.01791698 -0.100206316 -0.11081789 -0.11307857 -0.079035565 0.017469678 0.05112561 -0.053265747 -0.18981557 -0.015355737 -0.19666743 0.06822432 0.045736346 0.1428989 -0.03435236 0.035399005 -0.10847845 0.05238246 -0.018057737 0.09640649 0.06374148 0.058581885 0.011150932 -0.1852182 0.13655113 -0.094177864 0.097527206 -0.01045271 -0.14636031 -0.13741498 -0.039777137 -0.0969713 0.08901943 -0.47101656 0.17129643 -0.07091934 -0.11309013 -0.3277558 0.2593953 0.36095467 0.19730307 0.042885654 -0.3755583 0.51717097 -0.06708461 -0.19934367 -0.16468765 0.31459117 -0.33484113 0.29644588 0.108597286 -0.2950029 0.49301618 0.56074506 -0.19707441 0.028473694 0.51462454 0.024299795 0.0632261 -0.0542706 0.0043843556 -0.05529664 -0.04015295 -0.057597626 0.0054817284 0.0008206795 0.07340014 -0.016444476 0.06316741 -0.019463196 -0.03776887 0.022507846 0.056437027 -0.01792188 0.009016043 0.034047738 -0.011761688 -0.0023932287 -0.024677046 -0.054069422 -0.0353634 -0.04237323 0.01601612 -0.016816508 0.012683936 -0.040319808 -0.052890994 -0.021312231 0.03912088 0.04571896 -0.009662853 0.04456024 0.0073019764 0.05872258 0.05999093 0.021525223 -0.036030203 -0.2825592 -0.3871655 0.33711314 0.0006835904 -0.24402474 -0.29208162 -0.22225846 -0.10678449 0.4856903 -0.06263919 -1.129622 -0.4141951 -0.29693195 -0.14631993 -0.19506834 -0.060998958 0.54356956 -0.042724155 0.19191094 0.06791937 0.31364948 -0.12521167 0.04632963 0.081547186 0.08735701 -0.07187002 0.06592544 -0.11649279 0.24954878 0.04939622 -0.27220076 -0.2711392 -0.21625648 -0.011991626 -0.15185021 -0.09886168 -0.1447222 -0.10491228 0.19309972 -0.26007518 -0.123533666 -0.08042181 -0.21379475 -0.13055998 -0.14793159 -0.10479042 0.079514414 -0.205286 -0.036023404 -0.13545115 0.10200871 0.044748425 0.06744673 0.2788305 -0.038712732 0.04018226 -0.16026346 0.19104408 0.050654363 -0.022426153 0.19788334 -0.15254949 -0.17440458 0.099392235 0.12710191 -0.23598461 0.25995812 0.025721775 -0.07459183 0.02767705 0.02423047 -0.08031022 -0.016427226 0.02808485 0.026438644 -0.011414857 0.019026276 -0.054927155 -0.036768977 0.0707161 0.052735858 -0.07359161 0.07477076 0.01378624 -0.0644018 0.03080512 -0.121302634 -0.063586205 0.030802019 0.320927 -0.066340804 -0.2480895 0.326334 0.028993705 0.04118333 0.028119948 0.114203416 -0.08526458 -0.06534906 0.13928856 -0.26661605 -0.009315711 0.051732514 -0.06628211 -0.23167412 -0.60187393 0.30879366 -0.30580202 -0.6202188 -0.20582762 0.23739974 -0.13840246 -0.086836964 -0.012538107 0.24832943 -0.12604466 -0.2069066 -0.13777153 -0.20576659 0.26564017 -0.013084441 0.051675487 0.0940441 0.029270388 -0.026943376 -0.00066620135 0.12921835 0.42249894 0.16688912 -0.11498303 0.63448447 -0.64448327 0.15894315 -0.1631075 -0.27909333 -0.0766438 -0.071614094 -0.023651887 -0.080650486 0.14873043 -0.05046936 -0.13671112 0.054764643 -0.07556653 0.1055001 0.0026280223 -0.06374164 -0.056633737 -0.011910072 -0.08689614 0.22060955 0.19849376 -0.13464046 0.25192106 -0.8501996 -0.17420252 -0.11512036 -0.52893984 -0.6978096 -0.32023847 1.0296348 -0.3580532 -0.7959785 1.5501329 -0.25028056 -0.2553378 -0.85611224 -0.8153723 -0.0024091213 -0.71890175 -1.3497015 0.69936 -0.4488605 0.42441708 -0.30823216 1.1601347 0.13732904 0.5116358 -0.6355643 0.079340376 -0.14774482 0.15352675 -0.11094747 0.27555656 0.2209231 -0.00048754743 0.33188513 0.38867468 -0.30177107 0.16477129 -0.048051547 0.39285576 0.19372785 0.12839611 -0.3133849 -0.47556546 0.13673638 0.3809473 0.04729981 -0.0061229393 -0.0038361927 0.06498047 0.065211 -0.03844559 -0.054234568 0.040497854 0.054212958 -0.0643087 -0.28526795 -0.43038797 0.00065880024 0.032662768 -0.03244523 0.16167161 -0.1258888 -0.02948089 0.4562922 -0.8309629 -0.7521279
3 0.24137884 -0.28681418 0.7117773 0.23368333 -1.0069151 0.2150131 -0.09198451 -0.43331966 -0.07093103 -0.059878882 0.10050209 0.38733038 0.030412441 0.06219295 -0.22106723 0.20856535 0.082865015 0.037928525 0.08700735 0.10987025 0.065675765 0.1009959 -0.100921124 0.008789562 0.03546182 -0.0012187266 0.032336663 -0.052599236 -0.09543581 0.0070219818 0.0598679 0.06351575 0.04248947 -0.1397182 0.32223988 0.051901724 -0.20952526 0.24065895 0.39139724 -0.016345413 -0.09077702 0.18627518 0.28136635 0.2561301 0.1072458 0.093947664 0.027687868 -0.0867598 -0.10558036 -0.11902781 -0.037138417 -0.011524162 0.106980175 -0.059317652 -0.1900092 0.22392516 -0.18738465 -0.041613013 0.25888166 -0.1512668 -0.006334185 -0.42822447 0.5143657 0.19756909 -0.32657743 0.2707773 -0.29357094 0.21433449 0.13347521 -0.08265092 -0.4352231 -0.33425048 0.06347652 0.0011498384 0.14429273 0.03973857 0.4809024 -0.15687352 0.2131849 -0.36258152 -0.39426607 0.22276357 -0.3473109 -0.18631306 0.1943534 -0.3048073 -0.11488101 0.4720725 0.0704671 -0.23464991 -0.03608293 -0.16474265 -0.18378405 0.13984284 0.09033532 0.39456782 0.18475346 0.59684104 0.43885225 -0.33256522 -0.14829135 0.03521148 -0.28043342 0.22860686 0.20430735 -0.3122871 -0.3356651 0.22374903 -0.2830994 0.06553921 0.05913735 -0.091836385 -0.11975658 -0.074755974 -0.2622109 0.61398995 -0.12956315 -0.3797068 0.12719102 -0.34245905 -0.20931473 -0.34565946 -0.031220643 0.01492434 0.15599999 0.11248279 0.11078022 0.28155607 -0.0020398663 0.08615366 -0.12074212 0.1363714 -0.123184465 -0.11885 0.17528054 0.146233 0.07619299 0.30757874 0.041223727 0.0755482 -0.09589779 -0.11344029 -0.069118485 -0.07232406 -0.16452546 0.12267986 -0.007790413 -0.13478191 0.033234928 -0.14035255 0.07151301 -0.076415986 -0.011850882 -0.06254369 -0.040634245 -0.06959884 -0.11962592 -0.07008281 -0.07797198 -0.21057993 0.014851517 0.02325291 -0.013414869 0.036058817 0.054574225 -0.0055928985 0.015745813 0.012524205 0.008865476 -0.048058268 0.017940463 -0.024856387 -0.032774817 -0.023189513 0.034686446 -0.048000567 0.008762258 -0.12780258 0.063677445 0.08621789 0.10896798 0.10962631 0.05101987 -0.121227406 -0.022002172 -0.037314482 0.018449755 -0.100041226 0.018372562 0.041792214 0.16884167 -0.06559547 -0.08378376 -0.14198585 0.049566384 -0.09210641 -0.10732703 -0.085932225 0.048369136 -0.0465153 0.115293235 0.1774777 -0.13371508 -0.097022906 0.11141081 0.13359123 -0.33871102 -0.017613411 0.49239036 0.14454597 -0.034893584 -0.12775199 0.16933946 0.26835054 -0.023594253 -0.12898971 0.47205797 0.0043475823 -0.08320527 0.0006814079 -0.43894008 0.02926708 0.08525861 -0.15755537 0.064921945 0.031147692 0.10626107 0.15704454 -0.14460811 0.10282503 0.35670742 -0.22819912 0.025777662 0.15130949 -0.09577894 0.053411786 0.073715 0.03747852 0.061375964 0.16179024 -0.043455854 -0.21822172 0.17943113 -0.48681873 0.13399804 -0.06633188 -0.11945127 -0.0033638678 -0.16127013 0.08085227 0.033935476 -0.12236306 0.20476538 -0.17605409 0.07139534 -0.054239452 -0.18310015 -0.049262743 -0.12648751 -0.14023592 -0.01689391 0.0023024832 0.13652222 0.17745656 0.14314604 0.124034055 -0.022422705 0.30825254 0.15119193 0.176539 0.23429108 0.068969876 -0.19883457 0.028952733 -0.028589256 -0.29082918 -0.27707165 0.095104 0.23500508 0.0098160915 -0.2570153 0.22329183 -0.23837411 -0.15545073 -0.21908002 0.29367504 -0.026160933 0.24702035 0.06507194 -0.11742603 -0.17502788 -0.04688308 -0.31460464 0.119697005 -0.08737246 0.08930016 -0.011520056 0.2928533 0.22045346 0.13518186 0.27793512 -0.16979998 -0.19641973 0.2814578 -0.07479119 -0.16000468 -0.0489143 0.0291998 -0.26308176 -0.11967541 0.02410443 -0.061034326 -0.05266982 -0.10488616 -0.041544814 0.023915024 0.011013831 0.053716164 -0.02306144 0.037344582 0.046291523 0.07101133 -0.16850477 0.12883766 0.09907734 -0.119474776 -0.12570907 -0.042855054 -0.060171932 0.10326491 0.06241455 0.018720446 -0.012576184 -0.016404543 0.04051205 0.013974072 -0.019843483 0.045208324 -0.05495297 -0.19049014 -0.0012384907 -0.12088572 0.10906442 -0.24189773 -0.0968529 0.017337002 -0.135594 0.2433279 -0.24700738 -0.08222177 0.0077192094 0.016385436 0.03970017 -0.016875543 -0.025980461 -0.03275882 -0.17304511 0.07114258 0.15026844 0.04777123 -0.34733343 0.10651017 0.36983383 -0.17498203 0.12820119 0.031165922 0.07998004 0.23116079 0.2657289 -0.204666 0.18413852 0.04455148 0.1507091 -0.049598437 -0.03963115 -0.009669825 -0.24466844 -0.25401992 -0.089613296 0.21828584 0.1603502 0.06473547 0.19207972 -0.010020157 0.030313862 -0.009073621 -0.10155478 -0.15247114 0.16264169 0.33875114 0.60962623 0.27026027 -0.22728543 0.009747215 -0.22682954 -0.26404822 -0.16145216 -0.33067414 0.18221739 0.18196912 0.04217965 -0.12183617 0.049334135 -0.08090659 -0.063930124 0.15006514 0.009158599 0.17878008 -0.13644743 -0.108400285 -0.1381237 0.2233943 0.13443485 0.026389958 -0.064926036 -0.11036008 0.18808822 -0.089068554 0.15432079 0.058997057 -0.22601318 -0.22466552 0.037706055 0.08190052 0.030518204 -0.108203955 -0.01866648 0.099831335 -0.040376294 0.02313707 -0.0673945 -0.005965521 0.034104813 0.020106008 0.04221319 -0.071361504 0.039119907 0.029092506 -0.075355455 -0.032094613 -0.018248167 -0.09165144 0.032229103 -0.042949915 0.07894349 0.016160825 -0.058415674 -0.022501208 -0.035542797 -0.16356348 0.075042956 0.019382834 -0.05712237 0.13182953 0.086372845 0.089791 0.26615515 -0.08953171 -0.09750354 -0.061175514 -0.11812351 -0.10891246 -0.018573686 -0.046752412 -0.014499364 -0.04464901 0.20166034 -0.018204965 -0.17123398 -0.029510193 0.08468751 -0.05635199 -0.14337108 0.08758495 0.06850407 0.08123877 -0.0053910906 0.099767 -0.015657622 -0.03833063 0.022250045 -0.047500122 -0.09861712 -0.22192122 0.15373321 0.20374446 0.23330554 0.12465072 0.012809803 -0.005975572 -0.21240419 0.053566597 0.22709168 -0.25857753 -0.20043178 0.05079107 -0.41965786 0.18224207 0.19713472 -0.07208973 -0.14237425 -0.40849146 -0.26203853 -0.03437287 -0.32381022 0.09780393 0.048377197 0.0758738 -0.22851537 -0.06217102 -0.25211337 -0.35929847 -0.17800723 -0.041735012 -0.13599738 0.25462475 -0.031719733 -0.26618817 0.60333747 -0.07399941 -0.1884091 0.14933404 -0.34963623 -0.04810214 0.2868307 -0.14485867 0.17134279 -0.09285181 -0.24574827 0.9565793 0.1403272 0.14732626 -0.42694607 -0.39185697 0.03912606 -0.5172453 -0.032477256 -0.040800437 0.1661286 0.13695072 -0.18827224 -0.094137155 0.030104984 0.023190435 -0.0040234975 -0.016356843 -0.0142517565 0.10579893 -0.095150486 0.09393662 0.009302286 0.013384984 0.05707945 0.11853639 -0.026751498 -0.009210122 -0.031290017 0.39568093 0.28109843 -0.06291021 0.21653153 0.0050227377 0.020997902 0.08313478 0.07861137 -0.05775198 -0.16745485 -0.06415236 0.033207014 0.01849141 0.1381792 -0.1250739 0.03579482 0.11274506 -0.040325947 0.0018069007 -0.029958865 0.001213881 -0.019087411 0.009504733 0.021488484 -0.0038790135 -0.008676526 0.00032446868 0.033048093 -0.018283147 -0.01839694 -0.01924923 -0.1868873 0.014896902 0.0020903782 -0.011358533 0.039269965 0.08001678 0.005200087 -0.0023857309 0.13812335 0.006635487 -0.04657841 -0.013336566 0.070515856 -0.07294053 0.022887036 0.09386051 -0.007542966 -0.2816357 -0.124856405 -0.026965039 -0.06386269 -0.028315296 0.06438634 0.025429968 -0.065507315 0.14900301 0.033531263 0.17524807 -0.04084434 0.25572506 0.14532912 0.081773944 0.12125578 0.117232904 -0.17735307 0.18388784 0.0536407 -0.102748685 0.11363369 0.047668923 -0.043381732 -0.04121191 0.07230171 0.13738091 0.029891592 -0.017385362 0.005831619 -0.12139466 -0.00504058 0.14998502 0.06418197 -0.089756325 -0.041257545 0.09246286 0.07637496 -0.040337574 -0.17817001 -0.03678217 -0.009758323 0.044970084 0.038439825 -0.063329935 -0.050162036 -0.077924855 -0.06276716 0.07301771 -0.043866634 0.01828981 -0.029110434 -0.024786817 0.020271335 -0.0022057819 -0.023499204 -0.016961562 0.028250303 0.011346806 -0.037581623 -0.031783093 -0.07068325 0.013199065 0.0132909035 0.047855508 -0.029739233 -0.082335606 0.059402317 0.08516887 -0.04809317 0.0666089 0.04132844 -0.13001837 -0.007075773 -0.112992644 -0.09103478 0.000511624 -0.1957965 -0.034328453 -0.09039755 -0.06738147 0.05011665 -0.28917158 0.2222353 -0.10175526 -0.25435168 0.1740706 0.22683176 -0.080791384 -0.40462726 0.042637903 0.06509853 0.17513841 -0.037571456 0.037035014 -0.10635263 -0.09349909 0.040351514 -0.13949883 -0.030599613 -0.07712317 0.07672787 0.115732506 0.11010548 -0.09415112 -0.11095949 0.0767037 0.07016929 0.13622725 0.060853835 0.053945597 -0.017943097 0.063939214 -0.029288301 0.0032610795 -0.07012984 0.1613681 -0.042684756 -0.023693018 0.30055234 -0.03954501 -0.0991896 0.25221208 -0.5503396 -0.03273351 0.13229772 0.09514254 -0.09587965 -0.029054204 -0.13601434 -0.096677214 0.06426668 -0.155672 0.009824575 -0.058968604 0.2295484 0.09616436 0.07469866 0.13425641 -0.08984167 0.13732548 0.03688381 -0.033609234 -0.026743198 -0.06748815 -0.13937609 0.0039861347 -0.08645522 0.022887183 0.04173252 0.13721251 0.16010647 -0.07272539 0.06993289 0.15888731 0.016684301 0.07368542 0.09822292 -0.2662979 -0.072064556 0.1106553 0.0811882 -0.0047934814 0.0034880163 -0.13799801 -0.073187605 0.103809446 -0.08248422 0.22913301 0.02824899 0.07471532 0.041037776 0.09663323 -0.05301964 0.091647916 -0.0695896 0.041755997 -0.056441557 0.009214575 0.004338776 0.046307318 -0.106992655 -0.056223374 -0.06256357 0.03818275 -0.0915339 0.023644604 0.042204704 -0.023442095 -0.028138027 0.015944023 -0.047030624 0.05962074 -0.05603712 0.05416349 -0.33997285 -0.24907635 -0.043826975 0.23477311 -0.3222447 -0.68715686 0.06050417 0.006616585 -0.34807718 0.11816948 0.1399706 -0.4494006 0.11052589 0.61447227 -0.0041586314 0.09830983 -0.17987296 -0.18743336 -0.008535743 0.006201296 0.11080359 0.17402942 -0.11567879 0.29337475 -0.37351707 -0.3244586 0.4099654 -0.18312635 -0.2953877 0.35611495 -0.13229743 0.25613767 -0.0068189083 0.037872694 0.32061422 0.28674984 0.014226607 0.3875819 -0.28211397 -0.1421788 -0.034838255 -0.02578899 -0.3400511 0.34212074 0.08448847 0.23191155 0.05656004 -0.054280814 0.06891922 0.08997124 0.04384884 0.09743607 0.031517006 -0.013459682 -0.065546796 0.17323099 -0.084396854 0.023524415 0.0025932968 0.045291066 -0.009547703 0.04267483 -0.150971 0.09967841 -0.042089365 -0.00018111488 0.060927168 -0.04133756 0.1259301 0.021109866 0.017822979 -0.05460277 -0.095097184 0.13834248 -0.14478111 0.0128830485 0.1221754 0.11195756 0.1097824 0.050871275 0.013079696 -0.025945779 -0.016755387 -0.12373441 -0.034008496 0.033843435 -0.08342597 0.118627034 -0.06322798 0.012816734 0.021040117 -0.012590225 0.07144539 0.040630788 -0.052097302 -0.08148361 -0.06026572 -0.005068408 0.11747827 -0.072698444 0.055263355 0.08651028 0.017498072 0.013245991 -0.08233958 -0.10272932 -0.20746897 -0.10751723 0.052880965 -0.29906833 -0.036990024 -0.43103155 -0.64130265 -0.3970198 -0.31476843 0.037015624 0.53793794 -0.83469546 1.1580715 -0.08072048 0.007840503 0.27118894 -0.69470525 -0.9181599 0.3032839 0.73123854 -0.16110626 -0.22214483 0.0017843031 0.52494663 1.2236489 -0.16742416 0.24556755 0.50246286 -0.30527747 -0.45178825 -0.70531225 -0.3060333 -0.54479754 -0.2711324 -0.1208597 0.025376992 0.86875826 0.19348758 -0.13934708 -0.26097187 -0.6011911 -0.29501575 0.28647852 1.0678239 -0.45338815 -0.19457492 0.019938482 -0.29077432 0.32856074 0.25899005 0.33882982 -0.11970527 -0.054945536 -0.12062834 0.2372153 -0.07610427 0.22210473 -0.40749058 0.14478894 -0.07266556 0.085416466 0.7058435 -0.02507091 -0.28151563 0.040074933 -0.44344175 0.5483172 -0.1349606 -0.13125502 -0.6291015 -0.15868534 -0.3465333 0.14918076 -0.27150694 -0.031204082 -0.49724883 -0.4702891 -0.33875072 0.07482478 0.15268415 0.11837938 0.10101134 0.052954696 0.027630163 -0.07422231 0.0520715 0.2787135 0.09430921 0.09860301 0.10087864 0.035698123 0.1381446 -0.059597332 0.019608904 0.105250165 0.0062637916 0.026013816 0.047669217 0.08881853 0.02879691 0.051098973 -0.0746725 -0.041732937 -0.07975416 0.1039588 0.011369057 0.11883965 0.11862599 -0.043431904 0.024976565 -0.0049313554 -0.0017615156 -0.061802235 0.116330795 0.1994351 -0.010705726 0.11847657 -0.078677475 0.0031360749 0.124010034 0.015451213 0.0049614655 0.21804613 0.09582872 0.08785823 0.06659866 0.14370033 -0.043558724 0.16959505 0.018003372 0.06086497 0.013267851 0.004305693 -0.2840518 0.008970598 -0.04338746 0.026250776 0.05600751 -0.07534401 0.06024479 -0.02873115 -0.036477484 -0.36881194 -0.31028494 0.5928597 0.30144745 -0.26485005 0.040387005 -0.0634613 0.0107856495 0.07354958 0.048694078 0.0066536665 -0.05575677 0.013245979 -0.094231226 -0.11273951 0.002891314 0.16950896 0.102028556 0.028072553 0.17952141 -0.19493999 0.23529519 -0.014466871 0.004062536 -0.27584907 0.18694577 0.032852024 -0.15624188 0.00865519 0.08070655 -0.3201959 0.01804698 0.11156259 0.22743456 -0.00499678 0.08651448 -0.10446675 -0.01800133 -0.02196639 0.2837992 -0.10994808 -0.07151836 0.16135488 -0.09940667 0.09008075 -0.31699827 -0.13409275 -0.045652114 -0.003369133 0.27033633 0.13541518 -0.13057742 -0.46950915 0.16832612 -0.03601061 -0.050937086 0.19025242 -0.050144464 -0.068248235 -0.05774038 -0.14792219 0.05159387 -0.035127323 -0.27881548 -0.172596 0.043430775 0.07199607 0.35473594 -0.44354418 0.2879076 0.028668227 -0.153128 -0.013965209 -0.04295111 0.010302983 0.011733628 0.048002213 0.33437043 0.083587304 -0.07266223 -0.039727826 -0.09736905 -0.21241991 0.08945186 -0.009373971 -0.07690455 -0.08001355 -0.12762383 -0.07710205 -0.26893404 -0.0650915 0.20677137 0.30292323 0.10939295 0.07239294 -0.16210786 0.342273 -0.14667171 -0.018084737 -0.0011254854 -0.25750664 0.1413033 0.014812049 -0.09620593 0.1384136 -0.2027578 -0.002232696 0.24926554 0.16171665 -0.08624841 0.11699715 0.13469066 0.07071605 -0.02599554 -0.065799005 0.097009376 0.13774355 -0.16876587 -0.13361329 -0.08834727 -0.10775151 0.12529123 -0.11677642 -0.0857817 0.0556301 0.026207807 -0.028088694 0.042367026 -0.0647945 0.07912491 -0.0408681 0.06521797 -0.16460133 -0.09410268 0.018196758 0.13260521 0.15678275 0.274659 -0.18941665 0.025547154 -0.0787661 -0.0032051504 -0.261283 0.10004792 0.13783988 -1.0441369 -0.009508565 -0.22297065 -0.060562328 -0.053476915 0.06440202 -0.15236829 0.23402728 0.72005093 0.22580415 0.59521633 0.41488397 -0.09737914 -0.3146481 -0.68444026 0.008774604 -0.34522188 -0.4340153 0.2470154 -0.59767675 0.030079577 -0.05286393 0.07204568 -0.39357707 0.15889648 0.52118427 -0.48797485 -0.7093166 -0.61220264 0.15934323 0.2797544 0.6825286 1.5015391 -1.3924714 -0.17800707 0.5906835 -0.60346925 -0.3419664 -0.36912224 0.43372372 -0.12459233 -0.8774073 -0.27849606 -0.24253666 -0.12209886 -0.054722566 -0.026804741 0.5335371 -0.13092187 0.18335187 0.07270959 0.15485959 -0.150642 0.08099228 -0.00055493024 -0.012004484 0.30581388 0.30996355 -0.08700404 -0.27594262 -0.013083609 0.1344689 0.28908104 0.40291405 -0.0069514615 0.44991484 0.1426417 0.23789535 0.51810217 -0.2735265 0.1586306 0.07117693 -0.13703816 0.7932031 0.32905108 0.6472682 -0.021716198 -0.12544347 0.52938056 0.007847048 0.3741097 -0.25100386 -0.24342337 -0.2994525 -0.3280938 -0.02145916 -0.029918442 0.36610845 -0.53381914 0.1784218 0.04139815 -0.4008307 0.5790996 0.03752146 -0.04294868 -0.52598655 0.7224385 -0.69142944 -0.18370177 0.116907075 -0.121059194 -0.06961554 0.25731936 0.10457227 -0.102063365 0.15150909 -0.20072488 0.025319729 0.28526384 0.17083855 0.3592431 -0.0079941815 0.34949237 0.20593081 -0.042558234 -0.5306329 -0.030073542 -0.48888347 0.09841713 0.033466864 -0.44177777 0.13741209 0.27465755 -0.2973424 -0.1886442 -0.02196801 0.041537277 -0.13471498 0.10830784 0.013315966 -0.21673863 0.37138015 -0.10275005 -0.08400214 0.011257064 0.10800356 0.68716896 -0.39227104 0.2469539 0.6850688 0.3946619 -0.27243358 0.23518465 0.158477 -0.22582921 -0.38134757 0.1811633 0.21173465 -0.0068437243 0.112153076 -0.18534112 0.08878602 -0.29510912 0.23761351 -0.17340483 -0.15385266 -0.13114664 -0.08836301 0.5563772 0.11450754 -0.1611462 0.062126014 -0.034095075 0.113568075 -0.011931161 -0.055030737 -0.039258003 0.063363984 0.23129103 -0.036399443 0.0021142417 -0.11077217 -0.04131963 0.18329424 -0.07522134 0.06427052 -0.09879415 0.15851572 0.19061515 0.18591106 -0.31539023 0.2635817 0.10426871 -0.021142518 0.06154292 -0.2633408 -0.030094687 0.01964749 -0.074329026 -0.07625166 -0.008254055 0.07573512 -0.094139114 -0.12140693 0.20294893 -0.03772301 -0.04434206 -0.22426698 -0.18456347 -0.023653438 -0.1777938 -0.3880302 0.13040788 -0.09007529 0.12399992 -0.13464089 0.17236896 0.021317646 -0.07998416 0.08405199 0.04307634 0.034295637 -0.06830842 0.091621675 -0.052947156 -0.093575366 -0.0050181434 -0.1028987 -0.17999858 0.26419076 -0.24482606 -0.018709099 -0.24746692 -0.04824433 -0.17891635 -0.010627082 0.23979682 -0.06686752 -0.44989336 0.8859282 -0.7116125 -0.7497507 0.084252946 0.2743453 -0.41695952 0.56358683 -0.32263985 -0.3442839 0.41024852 -0.7391522 -1.3298992 0.86653703 0.040620618 0.026770608 0.06645482 -1.1148074 0.96023935 0.16865383 -0.34010452 -0.28313142
4 -0.111333296 0.15613236 -0.12341702 -0.14159422 0.35894322 -0.20366038 0.039000012 0.39431956 0.09029779 -0.026201552 -0.0025404613 -0.1690868 0.0004022905 -0.13899241 0.10182806 -0.035146475 0.07358931 -0.03814577 -0.44867176 -0.3113832 -0.2500451 -0.2585925 -0.08631483 -0.32350013 -0.0064651803 0.20731418 -0.026152132 -0.11186646 0.084098175 0.039839957 -0.015138708 -0.06887016 -0.060630526 -0.02158209 0.025290022 0.1473023 -0.0661489 -0.02739692 -0.13182786 -0.05714174 -0.110230856 -0.44078106 -0.029765826 -0.17703001 -0.0571955 -0.1506698 0.22090623 0.47339517 -0.6968928 0.2414568 0.17023441 -0.32299897 0.0029571557 0.057168085 0.13951226 -0.25447816 0.3907154 -0.044816304 0.08818483 -0.06782406 0.069529444 -0.14842203 0.35911056 0.101470724 -0.2317258 0.18967414 -0.20344979 0.13771106 0.07726004 -0.011995326 -0.26203194 -0.23494732 -0.023952808 0.011146903 0.20765895 0.1162022 0.6989815 -0.32609296 0.46849298 -0.5627118 -0.3419588 0.16647714 -0.29094285 -0.12791331 0.13689303 -0.28380027 -0.09756643 0.519828 0.089841455 -0.26387182 -0.10405408 -0.17629474 -0.22812346 0.15525976 0.08680381 0.33887532 0.17378448 0.4997371 0.3858928 -0.25315404 -0.094232686 0.044175114 -0.24181728 0.22151753 0.21722119 -0.39976928 -0.543684 0.3827561 -0.39574823 0.15119925 0.14580503 -0.10004031 -0.19940728 -0.14173558 -0.3300615 0.88168836 -0.24802995 -0.4803567 0.21548797 -0.45823494 -0.18942092 -0.5069467 -0.014481486 0.011166273 0.17112018 0.24028283 0.20543261 0.34514156 -0.072435714 0.19112615 -0.16656357 0.1391863 -0.18538043 -0.31477404 0.20654221 0.32141888 0.17177038 0.5006089 0.0511313 0.10671563 -0.27004832 -0.054218657 -0.35030434 -0.18184647 -0.2794353 0.34115133 -0.07861751 -0.35663086 0.12136872 -0.19396469 0.14924365 -0.2700755 0.0152084585 -0.30376357 -0.05206251 -0.1220176 -0.19591187 -0.14622425 -0.19926187 -0.32680187 0.14085619 0.07806607 0.081183836 0.30376613 0.14779885 -0.0686231 -0.40132308 -0.18184894 0.30471787 0.35859495 -0.029872423 0.25132814 0.0029748976 -0.1883182 0.15485846 -0.0877132 0.0548117 -0.30387375 0.21367319 0.1173082 0.15197279 0.26193205 0.107934445 -0.2798061 -0.074779056 -0.111662254 0.0031961165 -0.26982182 -0.015170903 0.24097088 0.7815669 -0.22527626 0.20205235 0.28936732 -0.012616655 0.05006841 0.039796315 0.047211275 -0.0115572 0.0119433515 0.015418725 -0.09436002 0.07739015 0.013075498 -0.07243647 -0.031160178 0.043912716 -1.776635e-05 0.040172875 0.052758057 0.014478954 -0.018654987 0.028990919 0.002668162 0.0019184531 0.07240616 -0.24589957 -0.0066116643 0.013394933 0.009148564 0.17152949 -0.0897956 -0.044935655 0.073916495 -0.02034723 0.010247612 -0.0026869604 -0.10252229 0.100336395 0.00011596755 -0.29066902 0.17299448 -0.075856 -0.1807561 0.14997287 0.015443955 -0.11996346 -0.14983504 -0.10393367 -0.2560178 0.103370525 0.18075943 -0.10295197 0.3395019 -0.1336905 0.00384917 0.008801645 -0.03864998 0.25569853 0.013886471 -0.029309833 0.18378702 -0.22516672 0.29626876 -0.050204694 0.17920174 0.12661068 0.051837455 0.026368773 0.05932766 0.011093165 -0.0146764405 -0.16103551 -0.16802067 -0.031566963 -0.038293887 0.0052585034 -0.21679758 0.0015368062 -0.007399285 -0.10536254 -0.016249651 0.044326976 0.011345733 -0.018243073 0.040175714 0.052905828 -0.06263594 -0.037794534 0.039842237 0.014404914 0.015756529 0.009619157 -0.01543621 0.012242275 0.050102226 -0.02136394 0.01888985 -0.028028863 0.024639394 0.025274068 -0.001322438 0.017821083 -0.02149604 -0.012022458 0.0029901576 -0.019378906 0.07077116 0.027482938 0.030279107 0.08614537 -0.06353859 -0.024300212 0.016456602 -0.044067636 -0.039076827 -0.028233496 0.02108898 -0.05415388 0.0053149317 -0.004365405 -0.0034896813 -0.00085859396 0.013762764 0.010082998 0.025080195 0.007904112 -0.026058463 -0.037475012 -0.0026166227 -0.019703716 -0.04336301 0.0071592894 0.009483002 0.02722315 -0.0082894135 -0.074737705 0.0147380605 0.01343045 0.046812426 0.08511184 -0.002948644 -0.033291873 0.04246194 0.10740813 0.06583406 0.053414956 0.012828805 -0.010605692 0.03717494 -0.008935711 0.031258307 0.0076329466 0.09165874 -0.003434573 0.00045687007 -0.03330244 0.0040288577 0.02635059 0.038304154 -0.040383875 0.006456461 -0.02127966 0.018605435 0.017952688 0.03647881 0.024154672 0.011669911 -0.01943772 0.010520329 -0.029678503 0.017135018 -0.0013101989 -0.047134325 0.007055226 -0.041221194 0.03336154 0.04232509 0.01045937 -0.0039958246 -0.0083711045 0.045777142 0.06362462 -0.0020465774 0.03426764 0.04387971 -0.042646483 0.018610496 0.008015327 0.03160708 0.041595694 -0.011497158 0.008761871 -0.0018679389 -0.018514348 0.012912086 -0.05770521 0.046300765 -0.05892439 0.0003752612 -0.056063827 -0.0043755877 -0.026903726 -0.009134314 -0.046829067 0.0047559813 -0.008641932 0.011894685 0.063499466 -0.022373894 0.0022295804 0.040306006 -0.0012673843 0.053682547 0.009881577 0.027063053 0.031484865 -0.000248955 -0.06715571 -0.10361162 -0.039008763 0.11150162 0.04091147 -0.020799916 -0.070954956 -0.04612454 0.19085094 -0.12755325 0.22467041 0.11959889 -0.28904518 -0.31596106 0.03632835 0.10284962 0.15414535 -0.13269842 0.044137966 0.35196018 -0.17806478 -0.083456956 -0.091328815 0.2693869 0.15735789 -0.035024107 0.09131128 -0.17570314 0.40053955 0.09437188 -0.2610308 -0.11203013 0.04354318 -0.06413164 -0.043670416 -0.0054945163 -0.05446525 0.043668587 0.043806393 -0.0069659348 0.043514132 0.12852615 0.005799401 -0.08107866 -0.0072582606 -0.10112417 -0.0008689495 -0.011158454 -0.07703768 -0.032058425 -0.0011575427 -0.0051752785 0.08790264 0.020580724 0.06835036 0.0045466684 -0.01215459 -0.037953388 -0.10868283 -0.005896913 0.116789825 0.055131298 -0.0402422 0.010742354 0.020072926 -0.04891853 0.015991371 -0.072228216 -0.09681443 -0.06376545 0.07534265 -0.017501393 0.052507937 -0.029334102 -0.029243711 -0.10383541 0.0217055 0.038210213 0.041325036 0.057767414 -0.002095829 0.020331437 -0.1433029 0.022303076 0.15453021 -0.1281064 -0.11496138 0.024406677 -0.19263855 0.11987048 0.112948775 -0.042899102 -0.15954882 -0.26320362 -0.12027224 -0.00521421 -0.33841452 0.13347618 -0.0044539445 0.11711151 -0.24194828 -0.08394991 -0.23496862 -0.2970208 -0.1749081 -0.025886279 -0.1299833 0.24410522 -0.08628066 -0.24014516 0.52748024 -0.08486933 -0.28045473 0.23887838 -0.34505373 -0.073241636 0.24441224 -0.13890284 0.17690422 -0.07905365 -0.19730002 0.78399426 0.112465486 0.13942543 -0.31375167 -0.3006906 0.07129925 -0.46501538 -0.12692519 -0.055511784 0.30786762 0.19257034 -0.355426 -0.22321287 0.15021108 0.11492366 0.07597058 -0.14573322 -0.073723055 0.14845462 -0.09646723 -0.00955091 -0.0498299 -0.06337843 0.07475969 0.09846586 0.0350118 0.123991944 -0.077757254 -0.11441687 -0.11009185 0.002111856 -0.36778665 0.006965389 0.07050971 -0.09538498 -0.15206175 0.0822413 0.15403242 0.1580794 0.2112865 0.03223975 0.029849734 -0.09827425 -0.07351735 0.23303428 -0.19623546 -0.048091024 0.04842346 -0.028400332 -0.0041666557 -0.031237612 -0.066467956 0.03441974 0.025129575 0.032510385 0.026099151 0.021651074 -0.0027216207 -0.008587482 0.08310651 -0.028140955 0.007320062 0.033258513 0.076879494 0.14151928 -0.042524576 0.04886767 0.138561 0.021456903 -0.0696937 0.0047821742 -0.05531771 0.062409256 -0.03316911 -0.004306135 0.027128572 -0.036056552 -0.034488667 -0.006479376 0.035159804 -0.00857846 0.038568314 0.019424085 -0.0015830164 0.0748657 0.000748213 -0.002311433 -0.0205139 -0.03495688 0.019735735 0.04072007 0.01295858 -0.02565357 0.01583663 0.002563199 0.008202844 -0.02390774 0.004937313 -0.030995386 -0.038721576 -0.0049383696 0.0220733 0.016382102 0.00322951 0.03605246 -0.050721157 -0.00024010251 -0.05538416 0.055989645 0.020369543 -0.029800799 -0.007854276 -0.063007295 0.0032836967 0.019065969 -0.0278164 -0.019439576 -0.010701068 -0.0027942397 0.017349288 0.10486766 0.034601573 0.144851 0.18901335 0.014125942 0.050797768 0.0789425 -0.13209057 0.0855641 0.113026515 -0.022335013 -0.08397953 -0.051171623 -0.019894283 -0.15547977 0.1393642 -0.056464285 -0.05336851 -0.005077669 0.023458958 -0.05957412 -0.1847228 -0.08936734 0.05867941 0.10828337 -0.13896641 -0.03165294 0.008176982 0.028451549 -0.012542093 -0.021734484 -0.093327925 0.010222688 0.037745923 0.06496813 -0.032866906 0.064050876 -0.012446629 0.06688905 -0.09566596 0.14937791 0.097736165 -0.18772057 -0.07145333 0.11712352 0.2287049 -0.10822745 0.02265449 0.00030107494 0.03999778 0.107083485 0.15916656 0.18538526 -0.11020905 0.1098925 -0.009876302 0.00405901 -0.08365245 -0.25982562 -0.06490149 0.09009911 0.0073086866 0.024568306 -0.068403594 -0.09830192 -0.061912272 0.102652036 -0.14701474 0.025058988 0.09601256 0.08688978 0.10989699 -0.26255572 0.07298926 0.13995112 -0.1634808 0.06948818 0.071595155 -0.053839527 0.12976608 -0.027377138 -0.104319185 -0.05957238 0.059981003 -0.017099971 0.1589091 0.06486103 -0.109979995 0.22247514 0.042946734 0.069698386 -0.20810965 0.23228514 0.097269505 -0.14183326 0.14554527 -0.07600502 0.06422976 0.062197268 0.06939758 0.030576844 0.17603703 -0.104457445 0.03307917 -0.049887195 -0.0380774 -0.04513731 -0.27617812 0.13181381 -0.12629572 -0.054664057 0.1129213 0.25301075 -0.22742453 0.61768895 0.12862583 0.38574624 -0.033982955 0.13045433 0.035062507 -0.1852168 -0.07393975 0.14119178 0.02811407 0.21246168 0.028180096 0.110008754 -0.0052812207 -0.14841409 0.024955282 0.04286117 0.12196641 -0.00869287 0.03508885 0.034837242 0.057062082 -0.029480955 -0.015876088 -0.03236262 -0.021517448 0.014921089 -0.028669674 0.039561704 0.025931453 -0.031198133 -0.015749523 -0.01771557 -0.043359272 0.0022738904 0.03590293 0.024019284 0.015854299 0.025412375 0.0022823054 -0.0059104324 -0.021441821 -0.0994133 -0.021758193 0.0072539914 -0.022908168 -0.033059243 0.043256793 -0.06509212 0.07188734 -0.038562335 -0.027629362 -0.002764718 -0.017543549 0.052319363 -0.025744626 -0.0032282057 0.021783927 0.031010527 -0.0220126 0.0035645817 0.005313638 -0.033506893 -0.04667493 0.017788375 -0.0065150117 0.01934849 0.010876297 0.0463237 0.021530636 0.045433626 0.24740444 0.28203106 0.021613725 0.3025259 -0.1528856 -0.11606242 -0.0015425131 -0.04785818 -0.35680726 0.27222008 0.013897392 0.2783598 0.083373375 -0.03718955 -0.10201254 0.10413797 -0.031105164 -0.015386383 -0.105809264 0.008438397 -0.032414414 0.03633797 -0.10147704 -0.03609365 0.29068178 -0.07224569 -0.10923888 0.05892064 -0.03119863 -0.1294506 -0.070269175 0.025107432 -0.17649423 -0.025076998 -0.06865894 0.052224074 -0.018186072 0.031386282 0.06084562 0.06010583 -0.060058713 -0.011692779 -0.022168519 0.008747988 0.053739976 0.03535304 0.02564804 0.014754775 -0.021084568 -0.036065664 0.05791875 -0.07894617 -0.015928514 -0.017537624 -0.068061315 0.0005205163 0.0069745323 0.026721906 0.017135575 -0.019638063 0.045000557 -0.013094628 0.005701875 0.026678963 0.063300356 0.0037785855 -0.0439472 0.054455876 0.0087969145 0.041842148 0.003156687 -0.015597632 -0.017887808 0.044954535 -0.09178459 -0.03556138 0.02846482 -0.06596665 -0.17539772 -0.09460864 -0.09258629 0.011540473 0.17994572 -0.2535831 0.29997754 -0.058688942 0.0013412001 0.037784666 -0.12125397 -0.14257766 0.05625557 0.10539853 -0.043356184 -0.008894027 -0.007161542 0.02701125 0.17241529 0.012352476 0.106813304 0.07587138 -0.037714317 -0.022069085 -0.011623835 0.011695229 -0.004997999 -0.016218841 -0.033068407 0.008133869 0.21949987 0.030397711 0.011785628 -0.0700157 -0.16201752 -0.09591635 0.030237518 0.28705123 -0.09323583 -0.10071669 -0.017525965 -0.093725875 0.008756125 0.047944874 0.016646637 0.086517856 0.10400282 0.12803486 0.034669295 0.005203879 0.07230349 -0.08445976 0.049641084 -0.027123654 0.044515938 0.16075444 -0.0061539984 -0.07010083 0.023866804 -0.10405404 0.12863529 -0.017378787 -0.018627446 -0.1859528 -0.09465269 -0.14850715 0.06471555 -0.13949136 0.015165899 -0.22205982 -0.16635747 -0.10781188 -0.05655272 -0.24556097 -0.022285564 -0.0936284 0.01407343 0.13812323 -0.035807338 0.07208934 0.17831308 0.09322331 0.06782991 0.08297882 -0.249146 0.23671693 -0.06289858 -0.0067095137 0.17958292 0.09278405 -0.05538737 0.0044549713 0.030959332 8.320973e-05 0.0109901745 -0.058546122 0.016705053 -0.15837362 0.10224992 -0.07471808 0.067447886 0.004658077 0.13576928 -0.020969957 -0.024545353 -0.15397452 -0.047793496 0.066814914 0.006087341 -0.040659256 0.049047366 0.049965125 0.019075513 0.013642248 -0.019110704 -0.013738498 -0.13067114 0.021084525 -0.023133898 -0.27178112 0.18080609 -0.19187881 0.112484075 0.09420144 0.09114838 -0.06223779 -0.019450009 -0.24814707 0.033143554 -0.09974501 -0.020004423 0.03426728 -0.041040227 0.031086318 0.02681916 0.03667482 -0.04231923 -0.037344493 0.11104472 0.033591177 -0.07491829 -0.03191043 -0.013370902 -0.018515218 -0.0070246803 -0.046958975 -0.11889063 0.11075226 0.1650241 0.08547922 -0.06531522 -0.15223554 0.084127404 -0.13661985 -0.051943045 0.0063872538 -0.057484694 0.00039796816 0.14705634 0.18481146 -0.05047938 -0.0004102884 0.024013255 -0.008790786 -0.04421249 0.06336757 -0.07334625 0.02346534 -0.017719256 0.058647618 0.03613557 0.029167956 -0.04947458 0.0018677815 -0.018513974 0.12595022 0.040472846 0.044986736 0.0018932184 0.0064147436 0.029558001 -0.12184873 -0.06800972 -0.015878716 0.009835027 0.015220332 0.022266522 -0.018834757 -0.019856514 -0.0021926656 -0.003321029 -0.0030343335 0.032803297 -0.03432685 -0.0085225925 -0.007943431 -0.027857443 0.013538138 -0.0011750057 -0.07473376 -0.03994196 0.0190063 0.025136732 0.044079218 -0.05574668 0.014067463 0.010614791 -0.028523337 0.009486507 -0.023248548 0.014251415 0.006427911 0.011773476 0.062749654 0.013450162 0.013877203 0.011052507 0.031482473 -0.020700147 0.035912093 0.0013110241 -0.02049659 -0.056666084 -0.12411842 -0.06647469 -0.1759665 -0.04098535 0.122093864 0.15838951 0.1071725 0.07635558 -0.09503519 0.22954279 -0.07167624 -0.09552624 -0.029683812 -0.21251766 0.083034255 0.076786615 -0.16162619 0.08677293 -0.121961564 0.010888622 0.17706268 0.13890736 -0.027612519 0.09220412 0.03500835 0.17559691 -0.06319677 -0.013170483 0.10010535 0.18013363 -0.14117332 -0.13713934 -0.090289466 -0.053005148 0.17004989 -0.20564592 -0.0142872315 0.100528635 0.06833629 -0.14627217 0.1536927 -0.2088305 0.007886278 0.23262486 -0.28828523 -0.4760276 0.08164965 -0.000258543 -0.21415158 -0.016487144 -0.0065510003 0.005616067 0.014183936 -0.018761871 -0.012745244 0.019438101 0.031142062 0.040934537 -0.10506511 -0.021634035 -0.017235922 0.010727197 -0.0069870865 0.03871053 -0.030820278 0.045514002 0.11684415 0.007077902 0.08439555 0.035140265 -0.040217213 0.0065171686 -0.04523437 -0.018745707 -0.019920489 -0.05428548 0.017321648 0.01305411 0.072011605 -0.0180936 -0.038645502 -0.29222894 0.10149757 0.33500022 -0.3311757 -0.50975066 -0.43696755 0.1080957 0.21460393 0.5446181 1.049658 -0.9891415 -0.13086759 0.45219263 -0.12799875 -0.06706277 -0.12866262 0.122527055 -0.047642298 -0.24290878 -0.07321915 -0.08983503 -0.03351149 0.01683802 0.008106172 0.15530935 -0.05347785 0.07372934 0.024081208 0.04128378 -0.06221215 0.044861354 -0.0072150505 0.012778917 0.090918496 0.08871891 -0.049030542 -0.099685445 -3.8308634e-05 0.05149611 0.10020259 0.11854266 -0.009342482 0.15553437 0.050503388 0.086511895 0.18423648 -0.103799865 0.019551195 0.019320017 -0.06850389 0.34882963 0.1353555 0.28005195 -0.005901243 -0.051992405 0.26120195 -0.0024687964 0.20403646 -0.14938277 -0.12339346 -0.16572987 -0.17824331 -0.03717158 0.00214073 0.13023981 -0.23111323 0.106010556 0.019817073 -0.17841281 0.22458072 0.008613046 0.0008174362 -0.20925139 0.2808041 -0.25325453 -0.043210838 0.060503494 -0.14716345 -0.11228406 0.31893775 0.10976189 -0.15283729 0.16940106 -0.20118225 0.0064953696 0.38391158 0.1781185 0.43323082 -0.0058442084 0.51287174 0.27934903 -0.13218485 -0.75129366 -0.046920486 -0.63812 0.052473262 -0.029401062 -0.59808993 0.13237552 0.4240213 -0.42565557 -0.19062689 -0.064787544 0.06114526 -0.2669477 0.1392155 0.13791426 -0.24448381 0.43069997 -0.082540944 -0.07237856 0.10901858 0.23169161 0.8909497 -0.45063868 0.37350574 0.92292416 0.48265117 -0.37747657 0.29698917 0.25851578 -0.21795155 -0.5765254 0.25834596 0.38249356 0.035823982 0.23220038 -0.3368599 0.07510165 -0.3051081 0.20894107 -0.18012847 -0.20889495 -0.084690176 -0.14573494 0.30658898 0.06704863 -0.13554624 0.17844513 -0.15313731 0.054349843 0.0067037037 -0.10365953 -0.099502794 0.05467933 0.1760312 -0.020714993 -0.009926884 -0.14252584 -0.025158048 0.15941723 -0.12710005 0.073356785 -0.09825975 0.13181189 0.20709947 0.13960065 -0.27524766 0.17822182 0.08896424 0.024407858 0.03759148 -0.1235658 -0.033972677 0.020597413 -0.018617742 -0.03750678 0.039897226 -0.1353067 0.024625663 0.07630357 -0.15211543 0.04806112 0.011133307 0.0733294 0.06318923 -0.022433145 0.040882263 0.067237765 -0.07329637 0.042083032 -0.023322385 0.003550143 -0.20589961 -0.019680697 -0.18811823 0.18138213 -0.00067909295 0.037038807 -0.065905675 0.06496693 -0.09955938 -0.06146254 0.00510614 -0.09450716 -0.11407661 0.13970466 -0.08872422 0.0003028751 -0.09019732 -0.05261538 -0.06351783 0.0541821 0.16580988 -0.054516643 -0.23512396 0.25282556 -0.22326706 -0.2608457 0.011650222 0.0847826 -0.15247114 0.24817814 -0.13605551 -0.16994247 0.15617557 -0.19681266 -0.3676925 0.33314693 0.002248197 0.04332058 -0.056661583 -0.28726584 0.26158738 -0.026803866 0.029780297 0.053504877
