11 1421
, -0.17457576 -0.4393202 0.2556539 -0.04271196 -0.039487023 0.17061646 0.28178248 -0.7952474 0.030435532 -0.14638798 -0.1660705 0.004275986 0.015573285 -0.0766961 -0.29718196 -0.04536171 0.019413406 0.09786129 -0.2219568 -0.09359562 -0.1444701 0.7485281 -0.57163894 0.3339458 -0.2838928 0.41725332 0.5692281 0.00570605 0.07412433 0.1759406 0.0006434968 0.00064045645 0.0037835592 0.03336608 0.009781031 -0.019537164 -0.022502204 0.014831437 0.025923155 -0.0006586636 -8.179933e-05 0.008050659 0.012258264 -0.0033868868 0.0060563153 0.024958396 -0.0042060264 0.0010042117 -0.072006375 -0.004329244 0.004892399 0.011737959 0.0012408659 -0.004507838 -0.022741983 -0.00137292 -0.0005549808 0.005055927 -0.01047639 0.0010610671 0.03896234 0.011245736 -0.00053340016 0.0059956224 -0.0035521905 0.21731278 0.011455786 0.013977004 0.0009959613 -0.0041884347 0.0051269596 -0.004347687 -0.122263245 0.012700804 0.06811894 0.007532573 0.0075896354 -0.0062513826 -0.002908495 0.0001769694 -0.0021779493 0.0021791945 0.013966488 -0.008049195 0.0036449987 -0.01265941 0.00016873995 0.07837126 -0.0008490452 -0.014996393 0.023376867 0.08234073 0.020288533 0.007822665 -0.13613963 0.2759742 0.014133667 -0.00015853783 -0.0015337381 0.008302743 0.0018353835 0.06734644 -0.016066633 -0.026948737 -0.01597176 0.00050584227 -0.036418922 -0.046846576 0.016831748 0.005594637 0.008190451 -0.015920537 -0.0019376788 0.014281396 0.0011896022 0.020100301 -0.04449954 -0.0186654 0.079809844 0.13038383 0.0013713229 0.048921145 -0.093728766 0.014545371 0.0521581 -0.10189152 0.25903824 -0.0015644515 0.008605611 -0.026181832 -0.005927237 -0.004990928 0.0032295806 0.011066876 -0.031119604 0.004197225 -0.027638841 -0.005798144 0.049111944 -0.026698615 0.00302637 0.078529686 0.004426888 -0.014023146 -0.0007248658 0.00610373 0.02143359 0.12602031 -0.016038382 -0.0053075007 -0.013281818 0.0087532485 -0.10305246 -0.065732814 -0.12138614 -0.21554913 0.030459257 -0.0049849045 -0.07319834 0.005076612 -0.42808998 0.003186588 0.03707575 -0.03821377 0.013623221 0.026406962 0.28628713 -0.079704024 0.009306341 -0.0179746 -0.052588087 -0.017113255 0.09237241 -0.025001606 -0.004927117 0.24246374 0.00042822442 -0.07982552 -0.10190741 -0.034465596 0.0031318113 -0.04685853 -0.04742165 -0.03835045 0.002027429 0.007901024 0.0030214218 -0.0018408068 -0.005769653 -0.0010928558 0.013714695 0.0076205283 0.051962335 0.07579356 0.0035595482 -0.031374663 -0.0021791146 -0.0035798217 0.056458395 -0.09583953 0.10898352 0.0020353524 -0.03852516 -0.0339277 -0.065909326 0.017495127 0.076393805 0.0036343555 -0.035859708 -0.020459203 -0.1006543 0.066556215 0.04627984 0.16072743 0.012759632 0.03166907 0.25413355 0.17400596 -0.2707915 -0.19426155 -0.02243703 0.009089583 -0.0061576357 0.0007924393 0.0029365153 -0.00045610557 7.400934e-05 -0.00029294146 -0.0013988633 0.005052008 0.0073839207 -0.009138553 -0.0035105513 -6.9736474e-05 -0.000995253 -0.0050607533 -0.0030421885 0.013775044 -0.017474504 -0.07063077 0.0046021305 -0.043876097 -0.03821234 0.034628045 0.0515972 -0.211736 0.03252109 0.15064967 0.0026897052 9.490129e-06 -0.00019242948 -0.0006687361 -8.491311e-05 -0.011628287 0.012315593 0.018022563 -0.0040181414 -0.0009725148 -0.022700472 0.015420831 5.0771006e-05 0.0017967498 0.005549676 -0.0013550322 -0.005269117 -0.011971687 -0.002174666 -0.002916784 -0.00039472478 0.0004877302 0.008860022 0.021003269 0.006047596 0.2588528 0.13600719 0.0005157514 0.14125758 -0.13965243 -0.53623056 -0.009638992 -0.030979851 0.02843095 0.0792171 0.049248587 -0.047092926 0.061296336 0.051678196 -0.059795707 -0.0008710271 -0.05464604 0.041592635 -0.020914903 -0.10410137 -0.11576708 -0.06481028 -0.020359075 0.007974386 0.0075535583 -0.0033824712 0.0028043485 -0.016344085 -0.04055368 0.0013261841 0.044289522 -1.8024819e-05 1.5986483e-05 -3.600639e-05 -0.0018313449 -3.5678542e-07 0.008452887 0.0005016084 -0.007888169 0.0014626391 0.011603806 0.0016399014 -0.010859758 0.004911396 -0.007767155 0.014284628 -0.007078726 -0.0038797406 -0.00079338724 -0.012319193 -0.0007050123 0.004829848 -0.022379464 -0.003468513 -0.10000695 -0.0004115303 -0.00013793889 0.0006324404 0.0007839038 -0.0073425113 0.0053929845 0.043038998 0.0060797315 0.15621747 0.00784059 -0.3013914 -0.18394446 0.07829071 0.25500184 0.21364194 0.08037965 -0.06436914 0.055201355 0.0077530583 0.008234716 0.0074447463 -0.007273939 -0.0030898203 -0.020711975 -0.010126966 0.0057992865 0.016048701 0.006653922 -0.008199589 0.26589355 -0.032115076 -0.44987717 -0.0011207161 -0.045041166 -0.036381222 -0.02887868 0.00080040883 0.034515996 0.00845434 -0.00040371975 -0.009643784 -0.009891561 -0.04869743 0.0278619 0.09147527 0.0009291306 0.23291683 0.08986848 0.0052527147 -0.010045588 0.023667488 0.32452133 -0.24492322 -0.26769152 0.34388623 0.0034907733 -0.0014484884 0.0032922006 -0.004464491 0.0011405603 0.00090178155 0.0012217151 0.0019393321 -0.00042184026 -3.5384735e-05 8.0446815e-05 -0.00010602661 -0.00066954276 -0.0017036854 -0.0029435563 0.0008543072 0.009701421 0.0038939398 0.0045922757 -0.0008548332 -0.022001853 -0.010206601 -8.3354586e-05 0.00020994259 -9.1117654e-05 0.06609983 -0.03501147 -0.01273443 -0.010658935 -0.0021286393 0.0120643545 0.0018598252 -0.012609924 -0.0072292998 -0.0020861104 0.0305385 0.013623598 -0.002332668 0.017797675 0.0046348902 0.00012728316 0.019402174 -0.09485303 -0.17869222 -0.15856679 0.0007529667 -0.00088409864 -0.0042601377 -0.0021318055 -0.002033726 0.0031139175 0.00022177405 0.0022632573 0.00055375067 0.0031328262 -0.0004431739 -0.00066217367 -0.0054534 0.009330119 -0.014424277 -0.10247448 -0.020620732 -0.019549655 0.0024495954 0.0058454135 -0.020714883 -0.0004885557 -0.01236302 0.01725319 0.0013633011 0.07429089 0.11452065 -0.0125345355 0.086449444 0.0013737193 -0.018382171 0.45078814 0.009862409 -0.10223889 0.016325673 0.0018083481 0.0104971705 -0.0052055004 0.020757254 -0.05377202 0.18218948 -0.08104912 0.05972738 0.040064927 0.006233612 -0.0048233247 -0.000515692 0.0057189283 -0.012081708 0.004717305 -0.0032995204 -0.008055388 -0.024324913 0.0034247919 0.0010299468 0.033615526 -0.0052907364 0.06747882 0.0029894954 -0.00038975434 -0.010179469 0.042187914 -0.00917356 -0.0073074484 0.025975753 -0.019523805 0.0053112577 0.021373611 0.08666336 0.04197299 -0.0003975896 0.0012931377 -0.014467689 -0.009801921 0.06787269 0.032288976 -0.05020139 -0.0044128513 0.05068457 -0.035824347 -0.038340904 0.04517803 0.0072269174 -0.000611947 0.033855062 -0.12598771 -0.19683287 -0.011767883 0.020079149 0.042723067 -0.03790244 -0.010916777 0.020981645 0.021268955 0.0026145147 -0.010187905 -0.00061528967 0.026253823 -0.01017541 0.0009430675 -0.010257805 0.0039317254 0.009703462 0.023194524 -0.027841503 4.8704245e-05 -0.0041459603 -0.0022302773 0.042352974 -0.00044601562 0.07972808 0.05416429 -0.15921378 0.031374875 0.035525523 0.0001478405 0.0019742537 0.016119024 0.0055653956 -0.0073573613 0.07388634 -0.09632088 0.22492921 -0.030784102 -0.011662198 -0.00092970126 0.013328946 -0.00034621224 0.008482291 0.0048732813 -0.062493686 -0.55214286 -0.065474994 -0.1714435 -0.069718406 -0.18200725 0.004257068 -0.0020507884 -0.008852107 -0.00024408377 -0.21713975 0.014680627 0.02245076 -0.0013166677 -0.032583985 -0.047708407 0.0067744483 0.012010545 -0.005123742 -0.0125444 -0.0051707323 0.00012775023 0.0032076496 -0.023662653 0.022131357 -0.037021812 0.0015637388 -0.042087864 0.056118686 0.025832271 -0.023556193 -0.015201961 -0.21641445 0.22876336 -0.004610498 0.20131962 -0.18685438 0.004833963 0.016410375 0.009895243 0.016013274 0.0979161 -0.00030765106 -0.014335298 -0.0067717386 -0.00029434584 -0.027902361 -0.006232172 -0.005862583 -0.0018745097 0.0021862027 -0.0032891063 -0.014892503 -0.001612843 -0.10975051 -0.0053630476 -0.009343284 -0.011958158 0.004114772 0.04506624 -0.07294372 0.0016431866 0.050185867 0.017018043 0.012530625 0.0023661975 0.019146984 -0.0035291726 0.012622507 0.024052264 0.004168853 -0.012659467 -0.07056101 0.0669135 -0.010201955 0.1306364 0.04645225 0.027329829 0.095680796 -0.12640885 0.045954626 0.03666064 -0.0028793383 -0.008318446 -0.08903032 -0.0044258437 0.005211867 -0.008879653 -0.04597974 -0.04403137 -0.004477647 0.00021429498 -0.006633093 0.031878993 -0.0053102104 -0.009765461 -0.3046256 -0.01539683 -0.012654663 -0.0079457 -0.012273366 -0.020532561 -0.013665601 -0.23901872 0.13096654 0.15659967 0.0034663416 -0.032505963 0.017594382 -0.002450239 -0.057367288 -0.029276615 0.056503262 -0.2910009 -0.013063216 -0.015503249 -0.00043596877 0.0043833666 -0.012069084 -0.051109787 -0.0509164 -0.0746947 -0.0015574644 -0.008308803 0.0017589539 -0.0019187706 -0.023101797 0.089370884 -0.00553784 -0.02475388 0.004667385 -0.0079491045 0.007336138 -0.07279358 -0.0016579436 0.008134436 0.0020910057 0.0033790134 0.004131959 -0.0076251896 0.008753001 -0.029905101 0.02706607 -0.0035806345 0.008805727 -0.0048532556 -0.0010123854 -0.001665882 -0.0039394177 -0.0005751626 1.8700146e-05 2.4863233e-05 -0.00019820181 2.1043521e-05 -0.0016283748 0.008156598 -0.044637065 -0.080991864 0.00073130964 -0.0010123596 -0.010761585 -0.005519957 -0.0027366611 9.17627e-05 -0.0007798196 -0.00091386057 0.009830541 0.0030678504 -0.0006266402 -0.0069096694 -0.0022841208 0.009013482 0.05253247 0.039478127 -0.04652718 0.20616917 -0.13315733 -0.02465104 0.0011472515 -8.999906e-05 -0.0003106046 -5.7481557e-05 0.0013199283 0.0003563555 0.001319577 0.004884083 0.0032256774 0.014697586 0.022162931 -0.0005349202 -0.009864455 -0.0069569894 0.00038261103 -0.0071519217 0.0011768728 -0.0015113261 -0.0031441816 0.0024682146 -0.03449806 0.09551693 0.22420402 -0.023450121 0.022881657 -0.014288408 0.047086515 0.001432532 -0.04590279 -0.008181813 -0.08349296 0.0074299225 -0.19906574 -0.0063399645 0.10303876 -0.07682679 -0.009277384 -0.009971426 0.011131732 0.006627514 -0.0035524257 -0.012579316 -0.04071604 0.023630919 -0.00058704964 -0.0069352887 0.0085763475 -0.001034224 0.05287152 -0.011540881 -0.00029448923 0.00042235985 0.0038854412 -0.02340971 0.086839214 0.0019900003 -0.01219364 -0.00970347 0.010777556 -0.11392554 0.032024108 -0.03131725 0.013089236 -0.0002518662 -0.27417752 -0.036795236 0.039075132 0.068856604 0.06352372 0.03959923 0.03816047 -0.01783602 -0.0055865548 -0.0060445853 -0.00038586598 -0.0017727952 -0.030075496 0.0004732652 -0.0013054186 -0.06730598 0.003511883 -0.004726716 -0.0022067614 -0.037058372 -0.17414565 -0.014825139 0.072407715 0.048774496 -0.023229323 0.024447119 -0.0003172573 0.029822022 0.037657343 -0.041200027 -0.0025145242 0.03845865 0.037657358 -0.0015827254 0.019501511 -0.068154804 -8.122946e-05 -0.013452983 0.0004788212 0.0016564837 0.0013247845 0.0026262 0.01926885 -0.007053485 0.02389709 0.13264717 -0.0025526367 0.0001357878 0.08151185 -0.12308686 0.011989536 0.18696946 0.05835909 -0.26091918 0.10202651 0.43258178 6.0824845e-05 -0.0057129636 -0.0032860616 -0.004946382 0.0024715043 -0.0040489165 -0.00289312 0.0010439601 0.002898193 -0.0063828593 0.0014439472 0.00029280997 -0.0036614274 0.009213293 -3.5048044e-05 -0.010716947 -0.017462136 -0.015720252 0.037091937 -0.015800606 -0.007431327 -0.004326453 0.0005190679 -0.0035915761 -0.001017991 -0.00414481 -0.001221271 0.014363218 -0.017767044 -7.6538025e-05 0.00037988054 0.0025185014 0.00037222408 0.0020146633 -0.012269713 0.00040188857 -0.0029043157 0.0006476509 0.0017048008 -0.0055324663 0.2100096 0.1187469 -0.036853977 -0.027507577 -0.016010968 -0.013425878 -0.030063031 -0.010060929 0.0055940934 -0.0006140972 0.010200419 -0.0016305774 -0.0064143 -0.001552091 -0.0028430284 -0.009174867 0.0021423686 -0.00017449487 -0.004959466 9.056797e-06 0.001226338 0.00016451746 0.002180322 0.01695704 0.17624587 0.008127696 -0.006161259 -0.005788509 0.0035574464 -0.011350283 0.0010458992 -0.0005843896 -0.00026732884 0.024500225 -0.0003534579 0.0040854607 0.009092233 0.08772664 -0.023875931 -0.038947806 -0.0016036096 -0.0014224343 0.007893821 0.13549747 -0.01461967 0.039611194 -0.009021687 0.12115651 0.05376227 -0.015262102 -0.0010101469 -0.0032193272 0.0008787899 0.0060162446 0.018231897 0.00032289003 0.0022779538 0.012056179 -0.0023661386 -0.0026336862 0.028648201 -0.08886809 -0.055013433 -0.03775832 -0.030133223 -0.0064796545 0.0036805088 -0.003975769 -0.018085659 0.023209052 0.0041135144 0.0019605383 -0.0010404933 -2.3972334e-06 0.00022787768 0.0008673965 0.00028632756 -3.4737575e-05 -0.00047819322 -0.00091391784 -0.00053264236 -4.358684e-05 -7.35607e-05 2.6512804e-05 0.00026972702 -0.00030796477 0.001391293 0.00020474708 0.0018457951 -0.0031158654 0.020590058 0.013304005 0.043759286 0.021384785 0.08724236 -0.028369624 0.0040740897 0.001170492 0.008994573 0.0062410873 0.058982193 0.00976392 0.0247262 0.0011025146 0.0004215582 -0.010016438 0.00044687578 -0.050423674 0.014438564 -0.0037756315 0.025035094 0.055540953 -0.0006867175 -0.07772059 -0.018804546 0.013236801 -0.028686464 -0.06421953 0.0024315172 -4.9904105e-05 0.0028472738 -0.00065227883 0.00498904 0.0065227323 -0.006283774 -0.0078686355 0.0057836426 0.0060463157 -0.045228146 0.0033712292 0.00029629216 -0.0011216498 0.00080700644 0.00059086847 -0.001536563 -0.0008908974 0.027422803 -0.0020004255 0.0076506883 0.00028347046 9.6417956e-05 -0.0036773346 0.017327778 -0.029732766 0.024706494 0.008965619 0.027485006 -0.008714942 0.005821878 -0.0024473763 0.004027699 0.0068087997 -3.18663e-05 0.00025271726 -0.00011434087 -0.00014617256 0.00024044502 -0.00014418138 0.00039699802 -1.2451766e-05 -0.14049384 -0.014160635 0.0125523945 0.007264444 0.007421194 0.0026176616 0.008352355 0.0123437885 -0.0041656685 0.0059902347 -0.002066222 0.015403788 0.02893421 -0.046598412 0.013317228 -0.023874786 0.00025989872 0.017062083 0.016382001 -0.0034616876 -0.025578886 -0.0007854666 -0.03480003 0.08958353 -0.0026440278 0.06392799 -0.18904456 0.2898567 0.0904246 0.22137229 -0.43959007 0.22130463 -0.0046022763 -0.008815094 0.0034497576 -0.06358926 -0.014068135 0.00043069088 -0.0026387617 -0.005165546 0.12532732 -0.033296358 -0.013835115 -0.0019718497 0.036295567 0.046824466 0.004581069 -0.060949184 -0.048336063 -0.0057886136 0.03298353 -0.0055096895 0.003994628 -0.00031048225 -0.010368754 0.023255767 0.005864645 0.0026388273 -0.0030156628 0.0023002096 0.041926384 -0.003910014 0.014599975 -0.0070473948 0.0080351 0.05513765 -0.21304372 0.03192382 0.007602321 0.048803233 0.10410919 0.099035256 0.27054477 -0.00073700765 -0.246019 0.07395512 0.018523525 -0.005584218 0.029419756 0.003128087 0.003460782 0.003846806 0.0111183245 -0.0007762032 -0.0037708506 0.0004516421 0.003600219 0.0005006762 -0.008685083 0.0059999037 0.0004988369 -0.016731547 0.00419791 0.018278396 0.018844787 0.2519399 -0.06744636 -0.07261215 0.030192057 0.20423102 0.07712808 0.008518883 0.053825147 0.01695752 0.04802571 0.11578792 0.1614111 -0.06814334 0.0072366255 0.0023670366 0.0028454207 -0.011843922 0.009840467 -0.00023517018 0.0010093946 0.00041047315 -0.00046288117 -0.00044815734 0.0011171792 0.0077003688 -0.012422935 -0.0038663724 0.031306725 -0.009760179 0.02099198 0.011585032 0.009132359 0.0013454759 0.0059452048 0.037421014 -0.012376287 0.008999139 -0.059152983 0.112931095 0.22020091 -0.04455757 -0.41931018 0.22379789 -0.02413854 0.22240967 0.06578365 -0.028019395 0.036099866 -0.013475508 -0.040919986 0.23293756 0.18867409 0.23174833 0.0069390936 0.013829368 0.0047615566 0.047577452 0.02523778 0.08465615 0.0616703 -0.08057303 0.20623483 -0.029968433 0.0625543 0.032051302 -0.28946805 0.23628293 -0.32608077 0.2942137 -0.19624393 0.16547427 -0.18320605 -0.06364711 -0.030016482 -0.06275233 0.013104895 0.0680702 -0.10403186 -0.23850238 -0.0016156324 0.046940546 -0.02841283 -0.049930427 -0.033892978 -0.004989113 -0.0054895133 -0.01211942 0.020087361 0.03825989 -0.24453759 -0.02025302 -0.008447439 0.0027937987 0.006745757 0.010169794 0.010055553 0.0005354135 -0.00016764402 0.00220742 -0.00010059366 -0.00017467824 0.0025382459 -0.0011128392 -0.00024148264 -0.0009600635 0.00016370816 0.005439219 0.0024115883 -0.0027750935 0.0056951027 0.0041489895 0.0006810073 -2.1724116e-05 9.490621e-05 -0.00056904537 -0.00031944038 -0.016222395 0.021918826 0.0060525136 0.0013113153 -0.0048343292 0.07721092 -0.0067339526 0.013942469 0.0106529305 0.02147475 0.0026066096 0.0014059211 -0.001331617 0.0006769763 0.003917952 0.0061306423 0.0038149108 -0.003334022 0.00048036283 -0.029546462 0.0013456831 0.00014498754 0.00074554014 -0.00033639677 -0.01815751 0.16168106 -0.24831219 -0.2994639 0.11101253 0.0760601 0.015376263 0.008346513 -0.013251144 0.033807717 0.010923032 -0.060038067 0.06275571 -0.0073639574 -0.00671052 0.0066614198 -0.009424115 -0.10835892 -0.24619222 0.061490364 0.012627809 -0.004125461 0.00533353 -0.07241672 -0.35760558 -0.111299716 0.03222241 -0.020997364 -0.013510903 -0.00063580635 0.02118575 -0.018836651 -0.06941035 0.030265702 -0.024984607 -0.0043441723 0.028380714 0.009360528 -0.03221539 0.0004029174 -0.0299168 -0.0017219533 -0.0070752166 -0.020581862 -0.0069691115 0.19734931 -0.20415579 0.14762701 -0.1317076 -0.2033065 0.044754725 0.008508856 -0.046499677 -0.15654907 0.24967304 -0.05743705 0.021054856 0.022690203 0.2945166 -0.012804308 -0.11463597 0.071866654 0.052765474 -0.022429615 0.027233573 0.07342377 -0.15830222 -0.0040845918 0.05809194 0.1450134 -0.120728135 0.0286668 -0.006968436 -0.025683152 0.015396649 -0.0016038816 0.00013691641 0.0038511376 -0.022801964 -0.06862915 -0.0041695205 0.1265388 0.071672015 -0.0054450845 0.0034476493 0.037878275 0.12396121 -0.0015354027 -0.033183303 0.024652764 -0.015690586 -0.0038928173 0.0018182453 -0.046154942 -0.0005959616 0.06603886 -0.040218353 0.013897126 -0.027623927 0.16315426 -0.0004220104 0.00054971717 5.9962797e-05 0.02480363 -0.011789086 -0.019815877 0.00088794285 0.0013168862 -0.060557537 -0.029664312 0.024791896 0.053479865 0.0560678 0.07233973 -0.10825958 -0.013194987 -0.0663856 -0.3074798 -0.015074831 -0.07868918 0.034826197 -0.00475873 -0.030461378 -0.02134611 -0.015824461 -0.1314684 0.40976614 0.009668549 -0.17138033 0.09303349
1 -0.061342854 0.8991149 -0.5975826 0.055956595 0.3395863 -0.5467983 -1.3597698 2.0065143 -0.14817972 -0.08119522 -0.16531134 -0.020911064 0.035289805 -0.16081682 1.2767087 0.09219481 -0.28324208 -0.18991163 -0.21478917 -0.43504465 -0.21838884 1.6692866 -0.8695741 -0.03851708 1.8365341 -1.1113374 1.0310099 -0.03199715 0.032423344 0.06587089 -0.039276887 0.015172445 0.23978925 1.2969683 -2.5732431 -1.3851391 -0.38306 -0.32065722 0.3282563 -0.024287356 0.0004770036 -0.0056019076 -0.61082935 1.7783943 0.74215806 2.740572 1.3880341 0.6904797 -1.0798442 -0.11397682 0.25438407 0.39117885 0.04267066 -0.115482084 -0.67007804 -0.09999107 -0.06302682 0.07896595 -0.1719819 0.018246496 0.42743003 0.12534843 0.0056141564 0.00612216 -0.026159137 2.3982155 -0.225334 0.15964612 -0.026425658 0.016055847 -0.31883803 0.00046247322 -2.6905968 0.286021 1.2932751 0.23212247 0.17950167 -0.14785619 -0.07693972 0.0030568743 -0.031249722 0.03137978 0.3591148 0.4074276 -0.032257233 -0.16278398 0.024067067 -0.10582884 -0.055306513 -0.18773016 0.2624697 0.82303125 0.11087131 0.06363833 -1.7750077 3.3065271 0.34075457 -0.00544002 -0.033249617 0.16176693 0.029118907 0.7606203 -0.043244217 0.4412572 -0.70156485 0.18745503 -0.0319396 -1.0191334 0.71875834 0.23889653 0.32650563 -0.66468316 -0.1409351 0.2952818 0.023181468 0.38179085 -0.67381096 -0.2915406 1.5889775 2.6632087 0.049835857 0.6635635 -1.2512026 0.6181185 0.45706883 -0.90031946 3.3269138 -0.02113119 0.00053048437 0.17593995 -0.006631787 0.012000958 -0.00049955444 -0.007520704 0.08200123 -0.07651265 1.4557031 0.05898284 -0.7875812 0.3532401 -0.0117128175 -0.29865843 0.1672865 0.1671001 0.033426322 -0.054949332 -0.11526503 -0.96998024 0.2003106 0.25206158 0.996668 -0.3237803 0.30612344 0.21264556 0.2081005 0.23403904 0.21137908 -0.03490513 0.010130366 -0.088085316 0.8620721 0.093996994 -0.21745367 -0.17256865 0.035239585 0.012742067 -0.035871107 0.21402606 0.12648878 -0.4346132 -0.027222421 -0.015207047 0.10472412 -0.028411435 -0.004099041 0.019491196 -0.0006846649 -0.2943323 -0.5144885 -0.21198098 0.108356945 -0.6940495 -0.5642239 -0.41285884 0.017398912 0.06936707 0.023154384 -0.008700392 -0.0015599183 0.009266601 0.09344377 0.050431598 0.47792616 0.91675085 0.04273916 -0.34913313 -0.030819332 -0.05242833 0.9720308 -1.5409615 1.5241195 0.034138363 -0.37585706 -0.29293975 -0.4714621 0.1269778 0.4911234 0.029452842 -0.11802352 -0.007191571 0.019495249 0.121595934 0.038349114 0.029186884 0.04087553 -0.035693377 -0.40016726 -0.47890118 1.0618067 0.97000563 0.16656977 -0.069446966 0.017553339 0.016971668 -0.019914178 0.0037891124 -0.002031629 -0.0015402801 0.026126435 -0.11450736 -0.09342692 0.14631064 0.016464029 -0.00034746467 -0.00046413278 0.011028613 0.026677992 -0.12154021 0.20096079 0.8567644 -0.025692986 0.12111128 0.012705662 0.29740456 0.2349466 0.20977856 0.32602066 0.48937333 0.3102384 0.001903523 -0.068676 0.05964552 0.004998279 0.7768039 -0.66851133 -0.9209356 0.01715495 0.007857889 0.048133668 0.03914231 1.5134866e-05 0.008984308 -0.15651484 0.034434877 0.42401707 -0.10891594 0.023024699 0.021749908 -0.05681028 0.027830245 0.008723407 0.01535981 0.018857462 0.8905802 0.32316497 0.0016165728 0.49409905 -0.53220254 -0.77613693 -0.00096764014 -0.18485196 0.16250145 0.29446673 -0.09482328 0.0068443487 -0.00808184 -0.12267866 0.04622309 -0.27938983 -1.9427245 0.4410858 0.3610591 0.77370715 0.73463595 0.52306426 0.18316133 0.1876963 0.25904095 -0.040038556 0.520432 -0.98731375 -2.4405787 0.070732266 1.7017885 -0.0047860835 -0.11865621 0.09896136 -0.0689506 -0.029683536 0.27627105 -0.8668511 0.048634034 0.1926656 0.42545286 0.036907956 -0.2004471 -0.020418065 0.031675644 0.17308214 -0.1895455 0.015494917 0.013389733 0.04896119 0.0028711862 -0.024696624 0.05839122 0.004917642 0.0756628 0.0036819258 0.00060283946 0.0051304437 -0.0016305433 0.018270103 -0.01340979 -0.099657506 -0.026352419 -0.43624178 -0.037355196 1.5179209 0.9328336 -0.40956196 -1.3213142 -1.1000426 -0.4393994 0.66261053 -0.69118166 -0.4160377 -0.12642306 -0.10423748 0.10236595 0.0339395 0.4773525 0.19762646 0.05438629 0.061577175 -0.0047829584 -0.033612546 0.47867617 -0.035314694 -0.6914636 0.0066487803 0.22112945 0.12747332 0.11713962 -0.00674073 -0.15786903 0.0786911 0.023078822 0.0014812802 -0.009229121 -0.041437265 0.04074873 0.10150179 0.0063068606 0.80142564 0.44951263 0.004216107 -0.0001913786 0.077565774 0.47165823 0.29500234 0.3282936 0.29757586 -0.3497429 -0.00038765458 0.0046479115 -0.0029568612 0.01384257 -0.013753055 -0.04397714 -0.04506789 0.0025251738 0.0001421406 -0.00047760157 0.0019977973 -9.909812e-05 0.012973558 0.02219351 0.005822277 -0.025946658 -0.016879618 0.00095421553 -0.003537843 -0.02951863 -0.038158156 0.00097605697 0.00013699703 -0.0004556259 0.27862415 -0.41758752 -0.15120292 -0.19084054 -0.050974425 0.28109202 0.26851234 0.12332786 -0.10875923 -0.008213719 0.17728932 0.2932066 -0.046268474 0.18571877 0.02569316 -0.07253319 0.10393273 -0.14383253 0.089851685 -0.07812577 0.0046115285 0.001444267 -0.025991533 -0.014450729 0.0049402406 -0.018397639 -0.004805983 -0.013410814 -0.0150120305 0.020189233 -0.00059279834 -0.005481287 0.012992748 -0.00573435 0.026782537 0.29809695 0.029306496 0.023116719 -0.005338517 -0.022602236 0.262689 0.0050756102 0.14048548 -0.17055532 -0.03422243 -0.26882628 -0.5076506 0.05002902 -0.40646008 -0.00689686 0.061140813 -1.4330131 -0.025668515 0.2654156 -0.06951257 -0.041641004 -0.030041423 -0.007467984 -0.01025884 -0.07577004 0.27133077 -0.12090042 0.037755642 0.12781523 0.04992788 -0.01216126 0.005241113 0.05107975 -0.29715568 0.11447987 -0.3826558 -0.13367644 0.20019828 -0.04289758 -0.0031155427 -0.18483038 0.041011155 -0.40747562 0.13425365 -0.024599185 0.0029663248 -0.16086881 0.14776543 0.09161611 -0.28664696 0.19325675 0.13389727 0.5128538 -0.15902774 -0.041182004 0.13698982 0.0050428296 0.47326556 0.26022497 -0.9582044 -0.17785469 0.19110273 0.013979509 -0.123931445 0.06996009 0.10326792 -0.123126134 -0.009549556 -9.2045164e-05 0.49090055 -1.2239493 -1.9077512 -0.072812274 0.004660086 -0.07573161 -0.1317944 0.10212241 0.25777152 0.19190633 0.02440226 0.5009891 0.032500736 0.38133717 -0.12192417 0.007222478 -0.01997481 0.033047054 0.3732792 0.5844881 0.46477196 0.0052070078 -0.008598742 0.038408183 0.1273528 -0.00023919946 -0.043398194 0.27772772 -1.5317858 0.30528158 0.20344982 0.0019178756 -0.0074111023 -0.018311711 0.0057949014 0.0135713145 0.1611726 0.052930754 0.17018466 -0.08027025 0.09178199 -0.010732637 0.10607054 0.0035903782 0.11248743 0.07847074 -0.06567268 -0.49318597 -0.068923995 -0.22639869 -0.11258416 -0.27061054 0.14250831 0.067296416 0.08654056 0.0013778795 -0.30396506 0.031683467 -0.02040631 -0.013764956 -0.039688647 -0.058490943 0.011909066 0.020581778 0.093432404 0.052901782 0.0033654291 -0.001012971 0.011201607 -0.08490199 0.09966395 -0.18912923 0.008577883 -0.2383286 0.23093757 0.06545778 -0.035113998 -0.02153057 -0.7878698 0.89687014 -0.013004783 0.6120621 -0.6397431 0.011777267 0.003923706 0.0015394319 -0.012106623 0.078420356 -0.0013186861 -0.020528669 0.0017895835 -0.0008285423 0.05880922 0.01329594 0.013539658 0.0021779204 0.012900995 -0.023434106 0.05568917 -0.10077937 0.26537585 -0.00042700596 -0.004499538 -0.0011577051 0.018477099 0.0844444 -0.06098615 0.009680644 -0.028396273 -0.014335197 -0.018475898 -1.0837229e-06 -0.03400748 0.0034539262 -0.008401254 0.0053227614 -0.003126854 0.023697019 0.08222542 -0.054889478 -0.010587875 0.2175577 -0.10248394 0.106824346 0.29452357 -0.38551828 0.2026608 0.17142987 0.013280338 -0.023985835 -0.38841248 0.00082812674 -0.0038944776 -0.0123376325 -0.20019671 -0.11406766 -0.016130822 0.00018666289 -0.012902437 0.05287934 0.008975808 0.01710374 -0.5109999 -0.018720714 -0.0014628613 -0.00071369455 -0.0027693354 0.011390556 -0.018739413 -0.33034396 0.12182247 0.17072819 -0.00075695314 -0.07856855 0.05723312 0.12596515 -0.08326111 -0.04488024 0.13509683 -0.56924087 0.13398153 0.48451358 0.15069957 0.016514989 0.03149446 0.14431468 0.45458966 0.8904008 -0.01196133 0.3376837 0.060013335 0.1524976 0.18847515 -0.71920365 0.68048453 0.47233754 0.042025957 -0.032133926 0.0898328 0.06624414 0.011361795 -0.072396986 -0.0143714305 -0.033676397 -0.015367077 0.05083603 -0.020435559 0.05360797 0.012575473 -0.013011647 -0.033199407 0.00815232 -0.0024760177 -0.004478425 -0.010209289 -0.0013256727 6.5900094e-05 5.28668e-05 -0.0006142222 0.008821151 0.014148727 -0.046120916 0.036611844 0.07882172 -0.0005491191 0.0002639276 0.014258736 -0.019698378 -0.027569914 0.008730714 0.014082784 -0.007368579 -0.034002516 -0.023471063 -0.074561045 0.07585519 0.06729033 -0.29436824 -0.84922636 -0.7304123 0.3188091 -1.4227668 0.8405592 0.12557223 -0.010337663 0.0008539852 0.002598532 0.00037047415 -0.009357593 -0.0025689416 -0.01212304 -0.0130895125 -0.018714616 -0.091018766 -0.13252796 0.0024003724 0.050102953 0.035233453 -0.010087073 0.04875982 -0.0032802126 0.007883178 0.021146221 -0.017774645 0.16245718 -0.40629116 -0.9033731 0.13126785 -0.04213754 0.009785138 -0.021693898 0.003482663 0.6308923 0.112291865 0.86727417 -0.07077947 1.4267697 0.037874997 -0.55678385 0.5399278 0.06715983 0.06678977 -0.07181692 -0.039203208 0.017017256 0.05863413 0.20896074 -0.10608162 0.0023564093 0.028021185 -0.02913981 0.0061242324 -0.20009625 0.043936577 0.0007558582 -0.0014342222 -0.011203439 0.05271921 -0.12598923 -0.20634605 0.1363225 0.1340403 -0.07605908 0.69421256 -0.03514388 0.034142092 -0.044587087 -0.008571596 1.3840024 0.16797079 -0.1436353 -0.4707517 -0.3425732 -0.21327306 -0.19529605 0.09023198 0.0057030963 0.0111214295 0.0002033633 -0.0074481415 0.060530018 -0.0009860137 0.03121231 0.9499686 0.012093806 0.084150344 0.02715888 0.36276057 1.2087913 0.081692845 -0.47837386 -0.114090964 -0.109605625 -0.049264397 -0.00059183466 -0.04630389 0.23208138 -0.2500202 -0.02697048 0.051131476 -0.4145276 0.017948683 -0.22211665 0.86722153 0.00273437 0.17633675 -0.009643379 -0.038090073 1.3961576 -0.68645984 1.0414267 -0.076705754 0.17619707 0.97654957 -0.20539255 -0.24279624 0.17334555 -0.049570136 -0.010923428 -0.06273961 0.123427905 -0.87572235 0.4638105 0.5906572 0.001087241 -0.07551901 0.0077743623 -0.050619025 0.013810596 -0.022906609 -0.035294194 0.10834452 -0.024263639 0.022543432 0.0019620548 -0.0005078469 -0.0013579504 0.0052120364 -1.5388041e-05 -0.040928785 -0.03381899 0.049624816 -0.085200846 0.01173376 -0.024620032 -0.015091418 -0.00812145 0.012891678 -0.007450765 -0.0016884485 0.0016662381 -0.031180419 0.029377872 -0.0013607079 -0.0009853219 -0.0028184997 -0.0025554278 -0.009843761 0.26058385 -0.022456307 0.018568587 -0.00342164 -0.029448818 0.08780005 -0.5416604 -0.23111323 0.07123882 -0.17045023 -0.19522722 -0.7926157 -1.1301774 -0.4569114 0.15988298 0.032341264 -0.3548748 0.056820236 -0.34542713 -0.08266639 -0.05820067 -0.12410573 -0.00032131054 -0.0003158053 0.012375273 6.960155e-05 0.008233268 -0.0073237317 0.009643294 0.08260594 -0.5943848 -0.037204757 0.007648994 0.024566479 -0.029309804 0.0918099 -0.009213525 0.00775833 3.7191926e-06 -0.037945252 -0.0007848634 0.011881412 0.09873254 0.07369944 -0.015889289 -0.011916825 0.0031989606 0.0067693237 -0.008946993 -0.07511333 0.025267381 -0.07296497 0.013896453 -0.31177047 -0.1763623 0.032261513 0.02657268 0.053124145 -0.0047000004 -0.051082704 -0.18054235 0.0100191515 -0.07199718 -0.15416652 -0.24832492 -0.0007212568 -0.16377833 0.5072683 0.2582695 0.3389715 0.0493882 0.01307541 -0.0042174077 0.0030352946 -0.0384725 0.0010030858 0.017653104 0.0112556415 -0.021026198 -5.8960155e-05 0.002642187 0.00706893 0.0071720807 0.0009784693 0.013147796 0.03975046 0.014078085 -0.0013413157 0.0054805665 -2.2248307e-05 -0.011586103 -0.0016041271 0.080112964 -0.0056931684 -0.020647643 0.03320218 -0.23247644 -0.11581377 -0.620586 -0.30352202 -0.67352355 0.20710942 0.015720142 -0.025681255 -0.17629956 0.24204873 0.94238627 -0.16382019 -0.26963726 -0.0046136295 0.03467679 0.2867839 -0.0100434115 0.4140017 -0.24058686 0.06300856 -0.2970391 -0.5011295 0.007248879 0.88075113 0.23206058 -0.13584286 0.2830664 0.7535628 -0.053970188 -0.0018095158 0.012355953 0.0032777258 0.0049401815 -0.04958002 -0.03634067 -0.04709456 0.9661194 0.06927128 0.049132023 0.007797067 -0.0014674395 -0.0013144668 0.012677985 -0.0036880323 0.07051343 0.036482494 0.37430322 -0.029502515 0.31829637 0.034893334 0.00085714035 -0.048273154 0.19142951 -0.29491666 0.4580768 0.13515425 0.2306857 -0.26025683 0.11383306 -0.047373395 0.16224907 0.20054115 0.0018568316 -0.0027170335 0.005675504 0.0047317473 -0.00036335614 0.00012534803 0.003797509 0.0017080916 1.3746647 -0.051302094 0.009201436 -0.03485032 -0.02930501 -0.053427123 0.0078029493 0.16662738 -0.16238192 0.30739203 -0.045787293 0.042435855 0.14195429 -0.18365413 0.09525039 -0.013613464 0.0032225137 -0.33790165 -0.30408925 0.16605835 1.1131221 0.026180781 1.9251537 -1.8281096 -0.010619384 0.36832345 -0.8376824 1.5363756 0.39497763 0.971061 -1.4513214 1.0007634 0.094155125 0.18162952 -0.108042784 0.49790418 0.22018948 -0.01674951 -0.042529266 0.19833136 -0.23736495 0.16904058 -0.41565353 0.0010883195 -0.15323679 -0.19404817 -0.040014062 -0.0573876 0.11760094 0.009643028 -0.03067545 0.016718933 -0.021950755 -0.010531207 0.0048248363 0.022987392 -0.052099597 -0.008654387 -0.0007609636 -0.009840729 -0.124848776 0.011605468 -0.449575 0.2342751 -0.08725996 -0.6204151 2.7946281 -0.38746554 -0.1059281 -0.97242904 -1.3050408 -1.0984634 -3.108172 0.008523207 4.1359954 -1.6582797 -2.7072165 1.1058894 -0.11172679 -0.1971308 -0.021763273 0.027695164 -0.12804973 0.2916381 -0.2783926 -0.021032313 -0.104929365 -0.012241879 0.2784783 -0.13639253 -0.006748452 0.40725848 -0.09991849 -0.42264557 -0.19970134 -4.538787 0.6859484 1.097924 -0.34414482 -2.2527008 -0.8578583 -0.0891412 -0.45767987 -0.14759211 -0.5961783 -1.1094764 -1.4016908 0.49655354 -0.031440016 -0.010170848 -0.017480005 0.08449053 0.014841291 -3.0234023e-05 -0.0010852193 -0.0009174401 0.007847366 0.007856403 0.00559453 0.022769848 0.3347103 0.0801102 -0.3265745 0.07911495 -0.14859274 -0.08160084 -0.07313143 -0.016701005 0.03876817 -0.040253308 0.033334706 -0.02134894 0.15581904 -0.29934198 -0.50265825 0.103510715 1.1763068 -0.6446306 0.06816789 -0.59892166 -0.19084927 0.08136393 -0.10046071 0.03990152 0.09456367 -0.53441495 -0.32857978 -0.5636921 -0.00640133 -0.031437926 -0.011739423 -0.06589112 -0.07562591 -0.112450786 -0.060948517 -0.00804054 0.2060932 -0.029518673 0.045219082 -0.024754547 0.031928528 0.09396004 -0.04652108 -0.3842458 0.28419244 -0.28610656 0.4420512 0.15666357 0.08826447 0.09427771 -0.04223525 -0.1798741 0.26474118 0.60750973 0.0058146208 -0.12151692 0.050237846 0.07480372 0.06952626 0.0088373395 0.012437444 0.025275368 -0.034580473 -0.05317058 0.33897287 0.00890764 -0.008597379 0.006798735 0.041176435 0.06231321 0.16471446 -0.0009473058 -0.0076406733 0.023828488 -0.00049168785 -0.003938606 -0.0044696364 0.0056410874 -0.0013763875 0.00053032464 0.0001925935 0.017996376 0.029248813 -0.057750575 0.03779475 0.027543934 0.010469259 -3.9765033e-05 0.0011324836 0.00038290748 0.0010530722 -0.0021249016 0.013293306 0.004670436 -0.00092990394 0.0027900808 0.1421636 -0.033468477 -0.09635175 -0.06963558 0.557963 0.06830749 -0.5861054 1.170388 -0.0012348546 -0.0025507642 -0.0030350096 0.0045852307 -0.005081507 -3.9857714e-05 -0.028965844 0.0030294005 0.00022420252 -0.0012500747 0.000119691555 0.019649014 -0.32899567 0.5064631 0.82240754 -0.24015786 -0.16649747 -0.03551855 -0.017060192 0.03947731 -0.060614053 6.489109e-05 0.19017352 -0.34927118 0.019484326 0.013379406 -0.0093106935 0.011342867 0.172565 0.39361668 -0.083830014 -0.019769706 0.0018408783 -0.007937785 0.07354969 -0.053182367 -0.08249512 0.04908029 -0.005714791 -0.0010791929 0.00041387774 -0.009624206 0.013715387 0.10685521 0.20226645 -0.16658653 0.003591492 0.044692587 0.074345864 -0.09202949 0.0058445646 0.0092168115 -0.033785757 -0.0022803776 0.021217478 0.008794243 -0.1387773 0.07943689 -0.30336457 0.45787498 0.7482503 -0.16465114 0.0095946165 0.14772856 -0.32304418 0.18672687 -0.07130684 -0.047582544 -0.08109267 -0.82515025 0.16482277 0.48078638 -0.093107715 -0.15757927 0.086131305 -0.08200889 -0.20973027 0.454531 -0.0013272085 -0.19760974 -0.5737464 0.6015482 -0.16895814 0.03522643 0.20038448 0.015597416 0.005310169 -0.0003837633 0.061534125 0.0036304335 0.08428697 0.013790338 -0.43788826 -0.24796017 0.02395831 -0.011992776 -0.13487405 -0.32575825 0.00047345835 -0.085870326 0.050841127 0.053018417 0.041332547 -0.16572423 1.7480428 0.020708246 1.4561255 -0.06592872 0.0066885212 0.0020539304 0.122928195 -0.09698083 0.0014870949 -0.00063790486 0.02997794 0.21046801 -0.1823228 0.003957191 -0.01772586 0.5188901 -0.84112275 -0.9285657 -0.5974277 -0.30731347 -0.6263275 0.9341914 0.068541504 0.49625057 0.35310584 0.013381135 -0.83339787 0.019549808 -0.12030989 -0.018269984 -0.10700944 -0.17950423 0.31858224 -1.3499314 0.14210899 0.28330293 -1.7807524
2 -0.19828688 0.4056641 0.07070538 -0.08980521 0.79184556 -0.5833816 -1.7539489 1.5655639 0.7340633 1.1366934 0.99440044 0.02791736 -0.07153047 0.34533212 0.44783866 -0.038860228 0.35412404 -0.25720948 1.5543226 0.586455 0.04763351 0.46547183 0.62408155 0.71202546 -1.6857063 0.030150237 -1.9194397 -0.02145195 -0.19950086 -0.4742163 0.01832682 -0.0021698205 -0.15725897 -0.39688563 1.2993873 0.073892996 0.38511664 0.6216408 -0.59010524 0.007954637 0.000449595 -0.11202143 0.72967947 -1.5574689 -0.6757287 -2.536886 -1.1592721 -0.585361 1.5218942 0.16811094 -0.29126483 -0.44304562 -0.061338447 0.19740862 0.920004 0.11580199 0.059286814 -0.050582565 0.11881014 -0.014787491 -0.2906583 -0.08367098 0.001745895 -0.04633837 -0.015979188 1.0161705 -0.02445216 0.021760007 0.023513611 -0.051947854 0.05747305 -0.07666383 0.1497861 -0.10986104 0.115445994 0.009518673 -0.031860746 0.026187446 0.027433753 -0.00064614875 0.0075012404 -0.018748678 -0.19821882 -0.14651836 0.0022760967 0.082959786 -0.008610891 -0.15021555 0.02082409 0.08815048 -0.10309668 -0.34953701 -0.03487328 -0.019915799 0.5689692 -1.0757995 -0.10016035 0.0009965532 0.0075382106 -0.034284815 -0.005189931 -0.2962492 0.1317915 0.27945617 -0.26614994 0.12594844 0.6716419 0.5298091 -0.027098797 -0.007920902 -0.043876994 0.07990785 -0.02237694 -0.040957287 -0.002940498 0.018104821 0.07022573 0.047126677 -0.5107136 -1.0109794 -0.01516523 -0.23725528 0.4912638 -0.22415322 -0.060525067 0.12018641 -0.9480723 0.005642542 -0.061624743 0.32568908 0.04831353 0.0241096 -0.01717908 -0.06135233 0.15193933 -0.010290863 -0.09439741 0.0012057006 -0.068053775 0.041366253 -0.009352096 -0.24469833 0.04795556 0.015630238 0.00543206 -0.054397997 -0.16919355 -1.1709231 0.15094306 0.07868938 0.24863878 -0.26825786 0.676475 0.41241995 0.77170014 1.3557923 -0.35187408 0.05787532 0.7409792 -0.12594652 1.1383193 -0.047624823 -0.1143011 0.36178496 -0.10852327 -0.19720514 -1.9665277 0.5698956 -0.36552528 0.5432556 0.39865267 0.11459712 -0.73381716 0.19919118 0.045027707 -3.3064203 0.00427194 -0.6841285 -0.037253283 0.03541871 0.17806731 -0.15965982 0.07948958 0.10500685 -0.010076221 -0.054796692 -0.027028179 0.01764413 0.09648862 0.03257293 -0.04801665 -0.033655554 -0.3391155 -0.7301806 -0.033774465 0.2560016 0.021257574 0.033099186 -0.53449565 0.9884489 -1.279619 -0.024297228 0.3807617 0.3370337 0.6318118 -0.16801639 -0.6855837 -0.037366223 0.16617592 0.06976278 0.33550242 -0.38439083 -0.2260143 -0.7859677 -0.065893866 -0.09586122 -0.8459999 -0.71578604 0.88868886 0.46197405 0.050878197 -0.020575458 0.06002728 0.014872087 -0.00091415364 -0.0020209204 -7.072725e-06 0.0006953521 -0.0010403978 0.004934785 -0.008882499 -0.0027665321 0.00671822 0.0001119611 0.0019059428 0.007227813 0.0027525735 -0.012378191 -0.009155902 -0.045759816 0.001407679 0.047089588 0.083780766 0.01500421 -0.12782489 0.07032285 -0.0036780797 -0.04043471 -0.07222989 -0.0005116402 0.017577747 -0.014903499 -0.0012750289 -0.16347069 0.13795057 0.19382286 0.027776279 0.007381229 0.16151321 -0.10089518 -0.00034474838 -0.009821009 -0.06436156 0.0106524285 0.20982885 0.017350566 0.020160343 0.026083084 -0.04247445 0.018852154 -0.060461383 -0.12762061 -0.032622896 -1.4264629 -0.7886132 -0.003085009 -0.7866991 0.8166968 5.2577734 0.08033841 0.21837434 -0.23337807 -0.53428745 -0.35178286 0.3836517 -0.49850553 -0.46270445 0.5784775 0.09772462 1.3798473 -0.6276759 0.35110807 1.2884787 1.4940515 0.77293646 0.27267087 -0.015817715 -0.016963402 0.021940717 0.00933192 0.0410377 0.10300554 -0.03125359 -0.26423767 -0.0004777063 -0.0038351826 0.01199309 -0.039340578 -0.0997044 -0.035777785 0.14114326 0.12662241 0.1492818 0.23832822 0.042793427 -0.28350446 0.27441946 -0.4351367 -0.9101704 0.5576721 0.010483513 -0.015936457 0.0193568 -2.1435904e-05 0.004273431 0.045671597 0.008296937 0.3713857 0.00012329033 0.00034545385 -0.0046273246 -0.005011758 0.01473867 -0.010753886 -0.17218098 0.0061120032 -0.5692298 0.14004576 -0.5040658 -0.31731617 0.07696344 0.028229684 -0.06227429 0.10580017 -0.39326456 0.44825393 0.32816845 0.09805612 0.05436919 -0.053700175 -0.026924858 -0.6054336 -0.3997136 -0.16445829 -0.274635 -0.03682626 0.092380404 -2.038507 0.2062585 2.9075644 -0.008166579 -0.22712722 -0.096773 -0.059162732 0.007237934 0.09898862 -0.1455492 -0.03393643 0.019376934 0.0155737465 0.07021211 0.048704643 -0.18313918 0.005466007 -0.6543176 -0.21394806 0.022699382 -0.082369894 0.11795598 0.5179186 -0.54336876 -0.5961316 0.52590066 0.15338767 0.0016463556 -0.008151152 -0.002450518 0.023435393 -0.008453661 -0.032192517 -0.019373717 0.0012925182 6.711125e-05 -0.00032584582 0.00092897326 -0.0002995093 0.011533299 0.01974029 0.009931016 -0.037747357 -0.015335368 0.028802335 -0.013126368 0.13887042 0.06741546 8.01333e-05 -0.00082400575 0.0009618962 -0.27093807 0.23117004 0.07797452 0.055652168 0.015610322 -0.086842425 -0.093218856 -0.019530792 0.099815555 0.016694143 -0.28647554 -0.34012318 0.06199436 -0.34287277 -0.045609202 0.11258418 -0.22034745 0.62405396 1.2788669 0.8489265 0.0045552915 0.009080285 0.07294991 0.042562198 -0.005649163 0.016531773 0.003405745 -0.000118193624 -0.008624807 0.012777252 -0.0011809106 -0.002905542 -0.016321624 -0.039302118 0.027312329 0.10521131 0.015613745 0.01477833 0.00010858465 0.0019362577 -0.11766884 -0.0019118699 -0.03049148 0.031726856 -0.0017561793 0.1650573 0.21135846 -0.02263007 0.2213562 0.0021683974 -0.035520628 0.8423795 0.026174068 -0.22603534 0.013937121 -0.016628029 0.008660515 -0.0023726143 -0.003605121 0.124975935 -0.34106812 0.17718965 -0.097218804 -0.1629413 -0.045704868 0.030998677 -0.0015304016 -0.044842787 0.008834481 -0.004272205 -0.21097751 0.09149077 0.24544594 -0.12723921 -0.01211603 -0.19196019 0.056786936 -0.4630164 0.10336449 -0.017859938 -0.31174484 -1.3377224 -0.27171862 -0.07735282 0.22982548 -0.1540691 -0.115851164 -0.5193532 -0.22976613 -0.12307087 -0.1083034 -0.04141627 0.107931405 0.078507856 -0.4043209 -0.080756046 0.32482228 0.024318142 -0.2221647 0.2166991 0.23996732 -0.2829309 -0.05085779 0.004588305 -0.19805117 0.56647694 0.7688793 -0.0060317586 0.093514 0.20790248 0.028498925 0.01223483 0.03742284 0.04563397 0.0039597913 0.72204316 0.06785382 0.5982205 -0.007383186 0.0045134146 -0.06094879 -0.06731268 -0.2251719 0.29805398 0.8701734 0.03997863 -0.060379576 0.019597737 1.119871 -0.006057521 1.0825686 0.6831846 -1.9469124 0.3815123 0.406224 0.0026080084 0.010288189 0.065041125 0.010938382 -0.019344743 -0.28162083 0.01135061 -0.24974178 0.02807365 -0.017253652 0.0015147064 0.018703964 -0.002882346 0.006964367 0.0029469829 -0.24982391 -1.2722654 -0.032074645 0.04280038 -0.054523773 -0.17415631 0.019975418 0.032883976 -0.01309223 -0.00038046442 -0.43973637 0.045558423 -0.02208289 0.012929411 -0.07223714 -0.10738075 0.016687825 0.02988964 -0.112305306 -0.094969 -0.027627043 0.0011091059 0.0035821875 -0.023376582 0.002816647 0.024872933 -0.00314853 0.07120717 -0.011354904 0.06319347 -0.12966657 -0.085704744 0.23203398 -0.28071147 0.005836898 -0.08196634 0.11694631 -0.0060794875 -0.012898627 -0.018514816 -0.010111122 0.16395055 -0.0018415933 -0.07936908 -0.045404073 -0.0020221868 -0.28305933 -0.06358384 -0.081414275 -0.017909553 -0.04621012 -0.038986262 -0.19982202 0.20825604 -1.1475341 -0.06010361 -0.070930086 -0.09694483 0.10119919 0.7016876 -0.8274815 0.032352872 0.37272468 0.09972181 0.030445762 0.046716396 0.11849276 -0.025245 0.08720018 0.14059304 0.038185243 -0.1342689 -0.8910599 0.9946905 -0.14124566 1.5415075 0.27455008 0.3821534 1.111516 -1.457061 0.753273 0.6478805 -0.0720267 -0.07057365 -0.04687132 -0.018366214 0.0947898 -0.066244654 -0.5550887 -0.61213344 -0.021763492 0.001607816 0.086865894 0.061307553 -0.08231856 -0.15506601 0.28740734 0.011720953 -0.029879477 -0.027087336 -0.0315933 -0.009869201 -0.0043131066 -0.21476334 -0.21054831 -0.19278821 -0.028824255 0.116708726 -0.15998296 -0.5115378 -0.7024221 -0.34471866 0.6608748 -2.916006 -0.28581947 -0.63833016 -0.18373103 0.07505826 -0.15380736 -0.72243494 -0.6430929 -0.8749241 -0.015021552 0.20976868 0.09937612 0.20328261 -0.0285471 0.12278904 0.33785623 -0.36616847 0.020903835 -0.055149097 0.009041159 -0.25522426 -0.010514022 0.05735752 0.03308372 0.0525559 0.010282207 -0.05585533 0.042646013 -0.12989382 0.107687324 -0.016597362 0.037353054 -0.011217729 -0.0036669997 -0.008138041 -0.027586749 -0.01051153 -0.0020431748 -0.0013243008 0.0017348456 -0.014807701 0.027339825 -0.14050314 0.7561508 1.0373609 -0.013114201 0.018134827 0.196627 0.12463151 0.088131934 -0.017119354 -0.0045571756 0.063646205 -0.32173026 -0.061614547 0.12590559 -0.16358598 0.09804055 -0.27586758 -0.8550256 -0.5565741 0.3226331 -1.4322295 1.3372803 0.24080025 -0.019753238 0.0010176532 0.003215914 0.00026119855 -0.008837067 -0.0022179615 -0.0058903163 0.0056384564 0.0096244 0.074728824 0.08831829 -0.0015188307 -0.011679161 -0.00823036 -0.0064624404 0.0017553733 0.005982845 -0.009771291 -0.035481434 0.0072812466 -0.15976126 0.36061054 1.1503351 -0.1525223 0.113693506 -0.085190155 0.2632108 0.0023931486 -0.67578495 -0.119430415 -0.63247013 0.0562486 -1.5353994 -0.0670727 0.90382355 -0.8063643 -0.11280835 -0.124058336 0.08978738 0.059895318 -0.01739773 -0.05357778 -0.16651835 0.09997719 -0.0041773957 -0.04832431 0.063727595 -0.0012815809 0.2942506 -0.06931037 -0.0023477364 -0.0014858869 -0.040518776 0.17189172 -1.357676 1.4643645 -0.2918035 -0.36724308 0.14933597 -0.82993925 -1.0633239 1.0400851 -0.17625421 0.15669572 1.7717097 0.17245068 -0.19882272 -0.19670781 -0.25363964 -0.16007261 -0.1968187 0.116386525 0.06527802 0.060239132 0.0039611757 0.02729644 0.006626533 -4.9101996e-05 -0.03983606 -1.0318907 0.026159422 -0.15752319 -0.06046795 -0.70054203 -3.013632 -0.12075882 0.7662969 0.73530746 -0.4342119 0.2568893 -0.0005664404 0.091106504 -0.080247484 0.08351683 0.007609248 -0.09341722 0.37360537 -0.014169212 0.20368052 -0.4560346 -0.00094783434 -0.13882174 0.0077580153 0.060974468 -1.9209375 1.2625942 -1.195813 0.020698724 0.1114039 0.6169641 -0.0017544958 0.01969949 0.6774826 -1.4445199 0.15484734 2.7650437 1.0119671 -5.1693544 0.82803166 2.4329703 0.0048128353 0.14095744 0.0243658 -0.0436484 -0.0035397422 0.005922711 0.0044636778 -0.05041864 0.019483954 -0.014289265 -0.0047951746 -0.00012594547 -0.00478948 0.00060386996 0.00020564375 0.080960415 0.35750237 -0.5481589 0.44267994 -0.19812648 -0.32906306 -0.19794106 0.18983234 -0.051271807 -0.08369908 -0.12977333 -0.024036119 0.1528466 -0.15729775 -0.012322398 -0.0029156252 0.0054249023 -0.0048649358 -0.029471675 0.9460277 -0.07040429 0.04557535 -0.0075685913 -0.073781595 0.21132791 -3.3627317 -1.3868604 0.7603492 0.40957555 0.12558144 0.52310985 0.52024496 0.3522035 -0.2499854 -0.056223385 0.7078341 -0.07405637 0.6647038 0.1591885 0.11403225 0.20473802 0.1491726 -0.04234799 0.04207293 0.0010758423 0.18223642 0.29068777 -0.0798268 -0.87007135 -3.2988737 -0.021550043 0.17785247 0.1239556 -0.07699122 0.24140999 -0.026874747 0.0059120487 -0.0019956636 0.031577054 -0.004531956 0.02446437 0.17511009 0.34220853 -0.039016716 -0.0275706 0.0050709574 0.0063558184 -0.01802175 -0.16405071 0.030074608 -0.08345112 0.024426576 -0.3505991 -0.12073964 0.0004352465 0.015346739 0.040668678 -0.0021891168 -0.037658665 -0.224588 0.017551173 0.052230205 0.0509175 -0.33566093 0.15671818 0.5321911 -1.6410483 0.92918307 -0.40388754 0.06559489 0.009570747 -0.0029984426 0.0025060896 0.05237051 -0.04216954 -0.015189655 -0.0012625963 0.011126422 3.8650713e-05 -0.002178035 -0.008795321 -0.0041052727 -0.00013742919 -0.005321569 -0.019160548 -0.0033631632 2.4261277e-05 -0.001561808 0.004240136 0.0026654138 -0.002761989 -0.011222044 0.00056255836 0.0019949619 -0.0052528232 0.003619861 0.019252788 0.046531163 0.021742696 0.08518715 -0.015683409 -0.022818882 0.041906446 0.14357954 -0.10176157 -0.3735727 0.100124404 0.3587223 0.01733234 -0.041917857 -0.26431608 0.009958828 -0.31034216 0.10497588 -0.027611189 0.14964375 0.27733558 -0.005895029 -0.61308455 -0.18129079 0.15801798 -0.33674484 -0.67823035 0.08133636 0.0024938039 -0.048261337 0.005442533 -0.009507437 -0.019155899 0.047782302 0.060549367 -0.6970207 -0.028432637 -0.2318214 0.017171538 0.0014324423 -0.0026745242 -0.0014483631 0.004256086 -0.058235087 -0.029427346 -0.13376893 0.010991453 -0.16010088 -0.01948946 -0.00018300174 0.017622972 -0.027518848 0.0125918165 -0.5772476 -0.18433627 -0.4711656 0.24416557 -0.12954858 0.057739433 -0.23701377 -0.2694253 -0.0050866017 0.0042276215 -0.011628567 -0.012978849 -0.010983067 0.0068440265 -0.024195718 -1.5043455e-05 1.4143701 0.18338533 -0.15466382 -0.10454373 -0.11697761 -0.08898019 -0.13856928 -0.075637214 -0.012482935 -0.0029238819 0.014979903 -0.1759377 -0.32196617 0.52449805 -0.18708612 0.3370195 -0.0023395827 -0.44051856 -0.2495304 -0.008543892 -0.08024095 0.0009341263 -0.13072325 -0.32250166 -0.0138322525 -0.21023072 0.9997356 -1.4823881 -0.46813324 -1.12715 2.2639785 -1.4964794 -0.053648185 -0.09285966 0.035085987 0.10315269 -0.04820788 0.006782967 0.04093696 -0.14052513 -0.3107927 0.16424105 -0.30925667 0.0023339316 -0.3438059 -0.4414314 -0.09037244 -0.44126922 -0.42102835 -0.039389744 0.18010676 -0.17618495 0.057782445 0.05947658 0.14007711 -0.58955365 0.13002487 0.044978403 -0.009198741 0.007190444 -0.10876325 0.010139279 -0.18090752 0.0099320775 0.05029816 0.37993717 -1.6982781 0.26229188 0.07269485 0.69476706 0.7796137 0.61705905 2.0413308 -0.005800898 -3.254061 1.3132595 2.3020787 -0.94676155 -0.0015114881 0.15874036 0.0057056546 -0.029186442 0.08007303 -0.22462705 0.22017476 0.0155849 0.07508073 0.009221907 -0.1702051 0.08668627 0.0043273442 -0.29569572 0.08089913 0.33554152 0.06563031 2.934292 -0.28897342 -0.50673115 0.16901107 1.8304907 0.43679726 0.057679515 0.24938309 0.09176811 0.2551521 0.4988817 0.83474445 -0.30499965 0.015064406 0.004827692 0.011160153 -0.051396675 -0.017112296 -0.0020395198 0.00519915 -0.0064618927 -0.004768218 -0.01713455 -0.0071151378 0.015535865 -0.2682957 -0.06017577 0.1885511 -0.04610633 0.07087377 0.039073545 0.036178578 0.0140661355 -0.13436082 -0.10832648 -0.022142572 0.019082535 -0.13377704 0.26307264 0.33158612 -0.06557999 -0.84219646 0.39192978 -0.046078805 0.28536817 0.0780112 -0.033102155 0.054433756 -0.025713086 -0.22134623 1.0786674 0.5362565 0.48467773 0.047093157 -0.0026345921 -0.0033753363 0.11559973 0.862661 -1.2406403 2.018095 -1.4769214 2.597299 -0.37333676 0.42198402 0.1654962 0.39969727 -0.33861205 0.25773183 -0.22004451 0.117908314 -0.034891516 -0.03015071 -0.006532929 0.027763294 0.045647237 -0.017695064 -0.07426871 0.28914297 0.66439235 0.005306857 -0.13273482 -0.06337543 0.040492143 -0.015385072 -0.002040234 -0.019160587 -0.015262509 0.018941274 -0.0087210415 0.15960346 0.06303915 0.02074614 -0.009734445 -0.031233376 -0.04726731 -0.15566833 -0.011773084 -0.005496364 0.025764206 -0.0007315152 -0.00069467 -0.0057066916 0.0035255197 -0.0004169897 0.0016348284 -0.00015913148 -0.0053729024 -0.01909913 0.09631155 -0.16128154 -0.11798408 -0.035546526 0.00021342274 -0.007548842 0.0050283023 0.027421415 0.0703174 -0.08750647 -0.028562903 0.0005260194 0.0056832037 -0.76174694 0.10427389 0.30207446 0.17489015 -1.1513963 -0.14149101 0.76343304 -1.5531286 0.0056327065 -0.00015183666 -0.002315645 -0.0054953364 0.0031788254 -9.740585e-05 0.0005876033 0.00036139597 0.0005158351 0.0016050569 -0.0006439203 -0.034272954 0.39635804 -0.6077898 -1.2377001 0.29568446 0.13518436 0.025253687 0.014460273 -0.016995694 0.047037236 0.016648494 -0.08577145 0.10306546 -0.009747702 -0.009342325 0.014427715 -0.022049645 -0.10019124 -0.22796594 0.070388146 -0.00012889746 0.000319008 0.012212526 -0.010561559 -0.13480398 -0.029936902 -0.004532783 0.0046700137 0.0043786517 -9.8965495e-05 -0.027886434 -0.011681548 0.016809965 0.11749395 -0.096879594 -0.0015840943 -0.02204477 0.030352049 -0.013431926 0.0020131427 -0.10563335 -0.0016468491 -0.020650547 -0.024109757 -0.0054454408 -0.30927923 0.40427765 0.1434032 -0.36895326 -0.661513 0.14692816 -0.04481725 -0.08646201 -0.07466684 0.60843724 -0.118531704 0.5386844 0.096126735 -0.15151092 -0.973806 -0.5479659 0.9959569 0.32314962 -0.11462504 0.11246198 0.31269935 -0.6764733 -0.108016655 0.15070754 0.10614235 -0.09797719 0.020023141 -0.0033477468 -0.04954778 -0.047795292 -0.00026711298 2.504015e-05 -0.02044114 -0.034602694 -0.12903532 -0.00629425 0.26021865 0.14733021 -0.012675136 0.014621908 0.030862384 0.082191154 0.041691698 -0.10378183 0.03753568 -0.008590298 0.012184711 -0.018608224 0.0011263512 -0.00039497076 0.29642388 -0.22142532 0.060367636 -0.14063942 0.69121885 -0.03226782 0.0067867674 0.0005748687 0.10318481 0.2202034 -0.6252275 0.006781555 0.001315029 -0.19269347 0.27924743 0.22090143 0.24069515 0.1825708 0.17472641 -0.2641856 -0.014611514 -0.036094185 0.8143843 0.033082727 2.4935646 -0.092198454 0.30490166 0.26142064 0.18847324 0.305331 0.03262789 1.516975 -0.35034755 -0.68630207 1.7704086
3 -1.1789525 -2.419321 1.9700947 -0.37717736 0.6024749 0.6575393 -0.024027519 -5.5151105 -0.13785566 -1.8797084 -1.3555882 0.037353646 0.101075016 -0.50080633 -1.4206185 -0.21249941 0.21344152 0.5461534 -1.5641658 -0.47276187 -0.36153892 1.5721225 -1.3510797 1.6582034 -2.4012268 1.8501986 0.7613933 0.030645253 0.14639382 0.3541909 0.04546676 -0.012363759 -0.23255323 -0.6036561 1.2992717 0.54342085 -0.12231658 0.27336287 -0.09833758 0.020926366 -0.0035491 0.36568436 0.51937723 -1.0308988 -0.41145554 -1.4786389 -1.207489 -0.59110415 0.41971448 0.07257021 -0.18742219 -0.29579678 -0.02402199 0.045361083 0.58052635 0.08119063 -0.01646275 -0.11637784 0.21784118 -0.01676866 -0.8339985 -0.24059589 0.007433888 -0.07883258 -0.00045876036 -1.6693997 0.49622577 -0.07135393 0.048847813 -0.06332885 0.36292616 0.3319733 2.3814611 -0.44344053 -0.89921665 -0.14992163 -0.06241957 0.05162134 0.043457698 -0.0012374369 0.01690405 -0.024590317 -0.12097972 0.074893065 -0.0273506 0.109918594 -0.004543985 -0.48533913 0.009899215 0.11419833 -0.1817544 -0.547351 -0.13616039 -0.051833842 0.8222945 -2.683662 -0.18884054 0.0022526025 0.0145075 -0.08832916 -0.020053409 -0.7296072 0.12291278 -0.11078727 0.40169162 -0.10763263 0.24183074 0.59922147 -0.28315446 -0.09362889 -0.15089376 0.30545464 0.09135213 -0.18747745 -0.015544657 -0.32367346 0.5470573 0.22240667 -1.0071751 -1.6124712 -0.017731091 -0.42278126 0.7360515 -0.17403404 -0.3405548 0.66702807 -1.8776528 0.011782115 -0.056735456 0.28550148 0.05757362 0.038853493 -0.02558088 -0.093241185 0.23529986 -0.022229346 0.12902266 0.039818265 -0.26124933 0.18146886 -0.02696815 -0.70226216 -0.019785602 0.10714263 0.008317862 -0.023429964 -0.06720807 -0.4768613 0.028322466 0.006233218 -0.017289843 -0.029032357 0.22808844 0.12910886 0.24028517 0.48014542 -0.1062486 0.017438592 0.17056707 -0.008119323 1.4093776 0.017524358 -0.17819831 0.10250027 -0.048684705 -0.081175216 -0.8326516 0.2450732 -0.061798822 0.081611924 0.17862526 0.04872523 -0.25389138 0.0688419 0.01789287 -1.2602903 0.00082351215 -0.07497077 0.14569406 0.11048215 -0.008722774 0.13160706 0.08570047 0.07312888 -0.0047155092 -0.020053638 -0.00786358 0.0046289717 0.0206873 0.0054643303 -0.032561805 -0.01713451 -0.12437407 -0.34665146 -0.015383299 0.121207185 0.008928011 0.013882517 -0.23988447 0.46628708 -0.43044794 -0.0064106067 0.12791055 0.094203435 0.22470325 -0.05957368 -0.26525837 -0.012573326 0.05684977 0.020682193 0.09727723 -0.16151261 -0.09090452 -0.32260457 -0.012157311 -0.025461853 -0.35799044 -0.46417168 0.73899156 0.34254757 0.06354166 -0.026660774 0.045671977 0.020715235 0.0066185542 4.430019e-05 -0.0005926124 -0.00045392808 0.00805907 -0.030113688 -0.036111522 0.055360187 -0.0027696844 -0.0010221414 -0.0055388124 -0.019569261 0.0014625362 -0.0070939064 0.003432714 0.051698197 0.0127880145 -0.23913892 -0.1953655 0.78869665 0.43769187 -1.5439744 0.5395358 1.5422666 0.13070104 0.00060850405 -0.023115776 0.010662808 0.00053640245 0.20283136 -0.18779472 -0.27828488 0.02542616 0.005975479 0.14591809 -0.110132135 -0.00032757604 -0.011897464 -0.0013307094 -0.0040570702 0.035824604 0.06921771 0.0013703345 0.006289694 0.009690849 -0.006059309 -0.044602133 -0.08589514 -0.02548091 -1.3825064 -0.65759045 -0.0026479436 -0.6478886 0.65515023 2.234764 0.035451636 0.22721936 -0.22452709 -0.44415763 -0.18217182 0.333474 -0.43286058 -0.3391934 0.50250125 0.27581644 1.921375 -0.57200366 -0.06549206 0.34227178 0.6113127 0.38277438 0.112424344 -0.008655572 0.0034562894 0.06683033 -0.096661426 0.17240402 0.4300744 -0.05340017 -0.4992614 0.0010585625 0.027578276 -0.02016149 -0.05154978 -0.16604123 -0.025886642 0.3306054 0.099200964 -0.022309456 -0.059846003 0.019682951 -0.15770653 0.34314385 -0.5446889 -0.9872467 0.6347852 0.031141177 -0.034913205 -0.0010995807 -0.0009080371 0.0047032754 0.03747847 0.011449283 0.49362367 0.0072872234 0.0020752356 0.003798598 -0.014454596 0.04770795 -0.03482722 -0.5575353 -0.01325437 -2.229457 0.02843466 0.3892135 -0.6551676 0.1712187 0.07500143 -0.21581702 0.15039077 -0.8606307 0.6789158 0.49595174 0.19452947 0.10540243 -0.104772985 -0.03376878 -0.72450405 -0.250368 -0.18044549 -0.28416437 -0.03830986 0.074406385 -2.2166083 0.2026091 2.793639 -0.005359353 -0.11163227 0.0016755648 0.036670495 0.0026476004 -0.028120376 -0.08082255 -0.013806925 0.040754464 0.07135678 0.3785738 -0.13540858 -0.2702706 0.0032481996 -2.2632997 -1.009943 0.026953213 -0.15637659 0.30570617 3.697423 -1.3026057 -1.4326487 1.8503057 0.469827 0.011380824 -0.04216491 0.024635362 0.079428606 -0.019246627 -0.07475884 -0.032489292 0.0025884549 0.00012754594 -0.0003428563 0.0005924011 0.007290005 0.015195575 0.02620121 0.0150524955 -0.060563367 -0.018987343 0.025303045 -0.015430232 0.22981487 0.10023319 -0.00038654366 -0.0015938104 0.0015797439 -0.38223776 0.22245312 0.08412602 0.056160133 0.0037798393 -0.02052178 -0.1332351 -0.015413586 0.1000032 0.013582194 -0.27616403 -0.28220713 0.005524262 0.056021076 -0.00218749 -0.025011508 0.049830984 -0.18168625 -0.91835916 -0.19826564 -0.009256886 -0.0036138373 0.0012622399 -0.015836166 0.0061539556 -0.0172965 -0.0014803577 -0.011376523 -0.016692048 0.035696976 -0.0042790794 -0.08643107 -0.042562425 -0.12383875 0.055520486 0.34820458 0.09158019 0.08626877 -0.007880131 -0.013420511 0.102294564 0.0016707486 0.07605946 -0.0415717 -0.038929954 0.17844531 -0.020971546 0.006628246 0.23556198 -0.00045104075 -0.012056475 0.33832446 0.016416285 -0.11485577 0.016875358 -0.021822914 0.008935513 -0.013819039 0.014311302 -0.09922274 0.17356296 -0.10822606 0.077350594 0.07153798 0.026803061 0.0008234248 0.007892319 0.033280455 -0.30823216 0.117783114 -0.6069598 -0.33000755 -0.5889073 0.27811277 0.028100759 0.44432366 -0.104278915 0.9213307 -0.32408002 0.042692058 0.3048257 1.7887236 0.3690397 0.023217725 -0.024642676 0.035983 -0.16259412 -0.35686076 -0.06738981 -0.19164984 -0.17501242 -0.07061126 0.71629727 0.4332211 -1.2965987 -0.22022498 0.21688338 0.011720084 -0.13099448 0.1014857 0.1048778 -0.12566505 -0.016779108 0.001882413 0.5314337 -1.2775006 -1.8632779 -0.15869291 0.37009177 0.7488292 -0.5072278 -0.19082657 0.0133231245 0.09643669 0.006363138 -1.5208269 -0.069307946 -0.373663 -0.07466235 0.0034837225 -0.022738835 0.04141067 0.17891964 0.18979502 -0.097654164 0.00139209 -0.019606626 -0.010641888 -0.15733854 -0.0011051695 -0.06173069 -0.048193987 0.049599398 -0.008715428 0.040154822 -3.2609998e-05 0.0034243139 0.031411972 0.012049964 -0.009726708 0.111160174 -0.15725584 0.522584 -0.08629126 -0.029763822 -0.00026783158 0.029138783 0.0023827346 0.08172074 0.056154903 -0.1788324 -1.3145727 -0.1377672 -0.3875946 -0.15260126 -0.38783014 0.04520988 0.030453004 0.021613216 0.00044449745 -0.0130934445 0.007146959 0.08410357 -0.010311425 -0.0677016 -0.098819755 0.017636342 0.03842882 0.014733444 0.023046907 -0.0018872768 0.00036753816 0.0040750494 -0.032018285 0.03300818 -0.052977383 0.002313169 -0.031139145 0.043346185 0.028608354 -0.0441149 -0.028368471 -0.42605522 0.5114688 -0.013158533 0.6693098 -0.62083995 0.009137343 0.014400737 0.0070982133 0.031259574 0.25696972 0.001031444 -0.024322167 -0.013032348 -0.0007355761 -0.03771348 -0.008293293 -0.012436977 -0.002848449 -0.07719089 -0.057152476 -0.12226861 0.20563899 -0.12115026 -0.021757592 -0.0043833973 -0.0018688471 0.062967286 0.3798993 -0.28796342 0.01611625 -0.11592215 -0.05012356 -0.053794112 0.006885485 -0.041440886 0.010282469 -0.03920989 -0.07020687 -0.015044636 0.0201714 0.07183954 -0.054856997 -0.011111078 0.21421921 0.22350177 0.04770154 0.00013862007 0.003441655 0.040674537 0.044650435 -0.00490948 0.037161294 0.6184905 -0.002899177 0.034636497 -0.015146122 -0.1303749 -0.14276601 0.012790017 -0.0051902845 0.065956205 -0.0680682 -0.038681075 -0.07384443 1.0697496 0.060382783 0.049724888 0.030146407 0.012116445 0.13703808 0.061897233 1.0285279 -0.57149035 -0.6158315 -0.039805815 0.26344043 -0.26296824 -0.8611425 -0.44648656 -0.2122501 0.13647696 -0.3667548 -0.114984706 -0.30779952 -0.10577388 -0.045820277 0.0029146385 -0.042666405 -0.26775593 -0.58959424 0.025079332 -0.51633644 -0.122987516 -0.2917726 -0.2764253 1.0448843 -0.8469026 -0.22825016 -0.04844366 0.07459338 -0.119235665 0.6662408 0.035274517 -0.12293766 0.061130613 0.066098966 0.028853478 0.009886193 0.027129235 -0.14082353 0.20422512 -0.04171487 0.027746024 -0.024270482 -0.0043637 -0.009639151 -0.02711314 -0.012911473 -0.001686423 -0.0009086232 0.0025580786 -0.029172761 -0.029543651 0.12389154 -0.40614012 -0.54731864 0.0077783125 -0.009748761 -0.14180766 -0.03176108 -0.006781786 -0.008093724 -0.013358002 -0.023055123 0.20112179 0.06859141 0.07386754 -0.0065751504 -0.10810348 0.42559958 1.1464615 1.252932 -0.6207637 2.7659636 -1.7347374 -0.30912352 0.0124252895 -0.00096403307 -0.00309326 -0.000601048 0.014920916 0.0038327419 0.018140309 -0.00236186 0.023786714 0.1284482 0.2246316 -0.004791236 -0.07465829 -0.052111022 0.0400067 -0.103994586 -0.0009047677 -0.010549307 -0.036081977 0.033755634 -0.16927792 0.39829606 0.8753665 -0.24265933 -0.093212776 0.1141167 -0.31399557 -0.027803201 -1.2490053 -0.22230761 -1.1284751 0.09347624 -1.0338092 0.006501789 0.016579386 0.034987956 0.012842016 0.014525331 0.01398259 -0.0016224413 -0.012666798 -0.047583025 -0.1819292 0.10911175 -0.0010714363 -0.013324068 -0.007388621 -0.011801954 0.044665273 -0.013781947 0.0014222012 0.004658264 0.0572687 -0.25954303 1.0557636 -1.0132234 0.15302838 0.17743467 -0.057265572 0.029153269 0.6749265 -0.65946764 0.110300735 -0.07897956 -0.59385264 -0.0012218186 -0.04163354 0.020676246 -0.036548488 -0.042130366 0.042104825 -0.0435753 -0.049089354 -0.029917499 -0.0016025646 -0.0077984477 -0.14180823 0.0022407407 -0.0035343468 -0.17902222 0.02833995 -0.055060007 -0.019214502 -0.38419023 -1.9756781 -0.08293768 0.4148561 0.39073315 -0.14805925 0.09409176 -0.000335916 0.08152528 0.25760466 -0.2807116 -0.015357032 0.12511604 0.07044327 -0.0023747466 0.003169404 -0.07243029 -0.00035553094 -0.005839883 0.0002123681 -0.0061097294 0.7086827 -0.5339456 0.30027336 0.0040421123 -0.111840636 -0.6199579 0.079135306 0.09923913 0.19387136 -0.13825803 -0.01195647 -0.39745432 -0.0814893 0.8268596 -0.08659937 -0.48663735 -0.0001520803 -0.033188082 -0.0044475393 0.02483243 -0.002942823 0.004896381 0.006244091 0.0104817655 0.01558418 -0.015315951 0.017215306 0.0007702139 -0.006042598 0.023789769 -0.0004110543 -0.109723605 -0.46790767 0.80858785 -0.5780437 0.19434719 0.3345237 0.20102957 -0.19008507 0.052298136 0.059238445 0.08096511 0.01369674 -0.07314517 0.08258233 0.006973395 0.0017590679 -0.003304303 0.0047507817 0.018022496 -0.6521775 0.053624477 -0.03206595 0.0052457005 0.066898346 -0.21661776 1.6486257 1.0914847 -0.3199428 -0.36221975 -0.3036584 -0.92696637 -0.74170727 -0.32222182 0.2669331 0.054508388 -0.7531701 0.083384074 -0.67054605 -0.16038953 -0.11595947 -0.25142473 -0.12457468 0.03805445 -0.035378776 -0.00093127973 -0.1794936 -0.2700824 0.056369785 0.62111694 1.7571877 0.08599888 -0.14572278 -0.13218908 0.062019378 -0.19251266 0.026320914 -0.011806464 0.0063729244 -0.18982042 0.00871454 -0.062486418 -0.30526966 -0.9488648 0.265199 0.47054693 0.015494338 -0.00067291944 -0.06621273 -1.405312 0.07877064 -0.2146788 0.051232606 -0.6157402 -0.43007123 0.085830554 -0.10166311 -0.066286996 0.00040479944 0.045055095 0.03056932 -0.0097401 0.15895039 0.21044163 0.23213781 0.053560328 0.4036542 -1.2614955 0.37295535 -1.0129461 -0.015508821 -0.010998971 3.399796e-05 0.002650153 0.07567871 -0.03196476 -0.02920574 -0.017893597 0.03347974 8.842477e-05 -0.003671698 -0.011915109 -0.0109092295 -0.0013436901 -0.01957596 -0.05930617 -0.018464893 0.0020513935 -0.0074367146 -0.0009797113 0.005957783 -0.00023891554 -0.063094944 0.003327884 0.010824566 -0.015336893 0.2341101 0.019397652 0.41594133 0.20376207 0.46680304 -0.124221854 -0.03387146 0.014121814 0.08962011 -0.016707227 -0.32121658 0.117611855 0.16731016 -0.00069651916 -0.016019454 -0.12686808 0.003990852 -0.17007957 0.14061086 -0.03688078 0.18016434 0.17689598 -0.0021549098 -0.35074973 -0.107048765 0.042034797 -0.06258919 -0.25529328 0.020565003 0.0012370595 0.00015492796 -0.002661597 -0.00084106164 0.032834873 0.0010032962 0.0019807033 0.33056712 -0.012549783 0.2765059 -0.022413973 -0.0010726393 0.00095509813 0.0029099328 -0.0023609265 0.057258535 0.02306695 0.2053523 -0.020568183 0.2667047 0.031270552 0.00092572876 -0.0431983 0.112335406 -0.22936793 0.6806652 0.16090901 0.4533435 -0.2039639 0.0991703 -0.04335765 0.105789796 0.1252123 0.00054819934 0.0023679761 0.0005103281 3.3487955e-05 0.002966613 -0.0017727836 0.009341248 -0.00015512333 -1.2061231 -0.048090685 0.056249265 0.059419647 0.06439028 0.06654241 0.0448424 -0.0743657 0.124132924 -0.17705205 0.023043068 0.030037954 0.013268865 -0.052996505 -0.004515429 -0.07998665 -0.00058034627 0.22819464 0.15757689 -0.07679944 -0.5125198 -0.012682159 -0.793648 0.70709234 0.023443876 -0.279152 0.60635394 -1.0519375 -0.31641328 -0.7754708 1.1709386 -0.6817706 0.00934701 0.016799752 -0.007960743 0.15958597 0.014497496 0.0008149219 0.013053053 -0.01563872 -0.5745335 0.13617638 0.08770046 0.010257762 -0.21088488 -0.2708646 -0.03428242 0.07893414 0.10297955 0.020117037 -0.1511067 0.08076728 -0.055291783 0.023405273 -0.0378223 -0.06671117 0.009583169 0.0032778285 -0.0009439123 0.0015590499 0.001388449 -0.00010092943 0.16621104 -0.07421993 -0.0006117317 0.008596206 -0.073330514 -0.023937346 -0.00513423 -0.03182533 -0.055925477 -0.078533426 -0.24289398 0.0011186673 0.26901397 0.02202413 0.2644422 -0.110751726 -0.03627571 0.019493626 -0.0023666911 -0.0032238872 -0.0038329011 -0.03811411 0.037601143 0.0018681377 0.009066234 0.0007993861 -0.03451082 0.016069323 0.0002950157 -0.034485295 0.006023953 0.025808753 0.015432488 0.46016452 -0.09046794 -0.29257146 0.069990546 0.61666363 0.28274167 0.032483462 0.17774096 0.052014943 0.27858105 0.66295284 0.6605563 -0.18493402 0.013274369 0.004286787 0.006703302 -0.03585477 0.008657823 -0.0009114131 0.0022127258 0.0016456496 0.001450568 0.0056506647 0.004263011 0.06357561 -0.005196958 0.0024307964 -0.04415193 -0.01935268 0.0102798315 0.0054041655 0.0041409475 0.0003620734 -0.040860534 -0.029349927 -0.008302895 0.005625901 -0.041878734 0.07418493 0.18781452 -0.041821677 -0.61794907 0.2991151 -0.024630921 0.2963013 0.0801645 -0.0341127 0.030994289 -0.013518604 0.018527772 -0.117527254 0.05958408 0.04300771 -0.011441971 0.013056955 0.0045009777 -0.008084685 -0.18547057 0.4376559 -0.5578546 0.52517575 -1.2082819 0.17385326 -0.27294627 -0.09405226 0.014134515 0.037185818 -0.20786765 0.1474046 -0.08089064 0.06781189 -0.032282334 -0.02349643 -0.0054025273 0.020010268 0.0023205415 0.0053286995 -0.036587697 -0.08357986 -0.0007103679 -0.004791435 0.039738208 0.027567975 0.027873477 0.0045207716 0.008626409 0.010891284 -0.017523319 -0.03274259 0.44624895 0.044283193 0.022618877 -0.009156959 -0.029058862 -0.04404054 -0.065225475 -0.0021827102 0.004798233 -0.024058774 0.0007163333 0.005145326 -0.006517351 -0.0012110864 0.0021874914 0.0025036153 -0.0008446187 -0.03702019 -0.031977624 0.03433157 0.001076733 0.0008939282 0.0009825887 5.1544444e-05 0.0012887131 -0.00017812876 -0.010372785 0.0136019075 -0.027937397 -0.0038203495 -0.0030611325 0.008291937 -0.09162113 0.0005115908 -0.10768684 -0.037199784 -0.31817275 -0.039027043 0.13934945 -0.29668227 -0.0033064683 -0.006722436 -0.009998894 -0.00972839 0.009699022 -0.001614971 0.10907504 -0.00576428 -0.00067604665 -0.0018023549 0.00095930026 0.0452635 -0.3994496 0.61238396 1.0091639 -0.26023525 -0.113263115 -0.023527231 -0.014599827 0.015636899 -0.06571406 -0.034435287 0.07232807 -0.0707834 0.011338705 0.00894343 -0.0041572433 0.0070481496 0.11122941 0.2514504 -0.07947005 -0.016304787 0.005467313 -0.009594768 0.08261443 0.58261794 0.20423934 -0.059774518 0.04008689 0.027388787 0.0021007163 -0.037566226 0.0811043 0.17131093 -0.19639622 0.16416791 0.009636932 -0.086588256 -0.040676586 0.04850438 -0.003576396 -0.026734756 0.1041785 0.008943456 -0.0030583087 -0.0075878697 0.6880201 -0.66849023 0.3505987 -0.07971732 -0.14970404 0.031313322 0.0014542891 -0.06815074 -0.89848423 1.4209603 -0.29948607 0.53934485 0.054524828 -0.029113894 -0.61311734 -0.18112318 0.76271933 0.27444288 -0.04515091 0.104668476 0.30525956 -0.6543554 0.057893492 0.0002646663 -0.0768052 0.18516639 -0.080937356 0.010116051 0.10483119 0.0445834 -0.0035174622 0.00050728215 0.09340627 -0.12157543 -0.18721838 -0.008005841 0.13572387 0.077816755 -0.007952011 0.030567288 0.06885633 0.3254064 -0.060645647 -0.20039259 0.2555534 0.11410549 -0.010619748 -0.026394602 0.7190612 0.010727298 1.0981195 -0.67613894 0.11513691 -0.3014786 0.48990682 -0.12185098 0.021016156 -0.0026660583 0.061560925 -0.27208027 0.35223857 -0.0048395977 0.0021915596 0.075697966 0.88500756 1.0390517 0.30134654 -0.5089656 -0.060922366 0.09637546 0.19858597 0.5246632 -0.65469915 -0.0071535176 -0.5005486 0.5633387 -0.069202036 -0.17043996 -0.11615628 -0.2445511 -0.43861675 0.29507497 -0.10714639 -0.9845297 1.5899823
4 -0.17459852 -0.5519782 0.07053085 -0.03638356 -0.13958989 0.2352843 0.51630014 -1.236643 0.10599316 -0.2662392 -0.3674247 0.008122504 0.027178055 -0.13538577 -0.8619493 -0.11616181 0.08511999 0.31144652 -0.52181464 -0.032323763 -0.35435563 2.0660138 -1.4069806 0.908284 -1.2951986 1.3319197 0.82377243 0.0077721276 0.098514326 0.23714326 0.022024076 -0.0010530967 -0.16311696 -1.2297572 1.9293596 0.79115486 0.29773462 0.48566607 -0.35396045 0.015606147 -0.00085979304 0.05102183 0.54358995 -1.0983014 -0.49226716 -1.8273271 -0.9456808 -0.4604613 0.6283717 0.07141024 -0.16329819 -0.2631306 -0.031814817 0.09587708 0.46446866 0.06858195 0.039800186 -0.049039077 0.09951339 -0.011867428 -0.2956171 -0.08659596 -0.0012954621 -0.019374747 -0.011562563 -0.5816733 0.34236905 -0.04289487 0.042258218 -0.062182065 0.3025859 0.13126221 1.5992879 -0.3904784 -0.58288795 -0.11532836 -0.04429195 0.0368352 0.034059696 -0.00039330625 0.006899053 -0.012161028 -0.11100653 -0.11815323 0.010475223 0.057076495 -0.010130603 0.12949705 0.022097751 0.05844606 -0.09440024 -0.2671319 -0.04479508 -0.024053141 0.48311728 -1.5469341 -0.11293413 0.0024305845 0.010627343 -0.047580853 -0.006942693 -0.12654902 -0.0074822013 -0.15347494 0.14287566 -0.032585952 0.10766185 0.43033454 -0.2528841 -0.08379271 -0.106567994 0.21046181 0.035796143 -0.08240967 -0.0071131163 -0.09249066 0.1586764 0.07736432 -0.5946315 -1.0739176 -0.0264702 -0.23631798 0.47829297 -0.36289394 -0.024155002 0.0515861 -0.8359918 0.005692118 -0.011861818 0.08513544 0.017484881 -0.004574961 0.0024841062 0.006380973 -0.04759653 0.026662046 -0.28831646 -0.0050772727 0.09596174 -0.012829664 -0.0063751373 -0.16403452 -0.011190764 -0.029931858 -0.0002581039 -0.0076464247 -0.01896296 -0.19492345 0.006765161 -0.018544344 -0.08205065 -0.03444066 -0.073591016 -0.06111927 -0.026557032 -0.02598789 -0.14781527 0.024420263 0.13833213 -0.040913086 -1.2609962 -0.026899049 0.08214505 0.009096196 0.026402993 0.033031564 0.33502114 -0.15874852 0.030680293 0.06515702 -0.03135431 -0.0118402485 0.049662955 -0.0134728085 -0.002930813 0.21098217 0.00085834885 0.19450964 0.23283356 0.08246418 -0.08310602 0.33860832 0.20563218 0.14475282 -0.005313192 -0.017226875 -0.003998887 -0.00030903748 -0.01343859 -0.006943303 -0.0077635488 -0.0021873883 -0.06591458 -0.15379009 -0.007659222 0.057793647 0.0059211957 0.010056999 -0.23397867 0.36236277 -0.4632904 -0.009959539 0.08797277 0.06667377 0.09414067 -0.025430849 -0.0839922 -0.008445145 -0.06500018 -0.054324176 -0.29097804 0.12763977 0.111619785 0.4284644 0.017020773 0.10164711 0.7106282 0.57344687 -1.0664579 -0.8661347 -0.11998765 0.049370874 -0.012859673 -0.0004411105 0.024762148 -0.009288167 -0.00011091085 -0.004630618 -0.007833741 -0.0318117 0.048053257 -0.07943974 -0.0048639276 0.00061689987 0.0023859534 0.0036313317 -0.0124312965 0.056832734 -0.11162932 -0.4630745 0.014421554 -0.03183379 -0.004731118 -0.22141954 -0.15776867 0.21198687 -0.21570231 -0.36252058 -0.13025026 -0.000739393 0.028034875 -0.022269212 -0.0018351745 -0.29725596 0.2515922 0.36853743 -0.0060888724 -0.0023220142 -0.016258553 -0.012707837 -1.2781013e-05 -0.0017147498 0.04125202 -0.013305396 -0.020172682 -0.016805762 -0.002185182 -0.0036081965 -0.016561262 0.008100283 -0.0038589854 -0.0007814316 -0.004314753 -0.09880203 0.015518882 -0.00027917555 -0.09306724 0.14488602 0.67295235 0.013467072 0.044188626 -0.055081528 -0.094497964 -0.037909657 -0.05776739 0.075025216 0.08266361 -0.19055176 -0.03762265 0.29101428 -0.19463077 0.18915743 0.3249213 0.33332723 0.09954915 0.03966669 -0.022569552 -0.035927523 -0.01821451 -0.058740094 0.13802466 0.34050658 -0.027095124 -0.35602728 0.00036491692 0.02092283 -0.011360027 -0.005228295 -0.027730469 -0.058454763 0.208735 0.025371766 0.016116869 0.02665777 0.013676966 -0.09841135 0.121740334 -0.19291322 -0.31809038 0.20893501 -0.00035975358 -0.013385501 -0.02174278 -0.0015113815 0.013651839 -0.028233925 -0.00036697218 0.04356803 -0.0019426259 -0.00013925963 -0.004069528 -0.0015455979 0.0046387105 -0.003381136 -0.08541978 0.015302473 0.050621234 0.09475733 -0.6058255 -0.6483642 0.23498006 0.63051194 0.44242814 0.23962331 -0.3555272 0.32673466 0.13425554 0.059088044 0.04359994 -0.043035623 -0.016299613 -0.25749767 -0.22403856 -0.10298593 -0.13609418 -0.013842039 0.018933319 -0.40965396 0.030353708 0.58335584 -0.0033341225 -0.088944025 -0.038595114 -0.04099644 0.0034913826 0.071206 -0.05187446 -0.0204091 -0.010496176 -0.014806309 -0.06530111 0.08701675 0.25877458 0.0067345854 0.11138435 0.050213173 0.034859106 -0.0867775 0.18566822 2.3124065 -1.1324012 -1.2393912 1.7024007 -0.026642486 0.0036336323 -0.021764088 -0.000605872 0.067529194 -0.020860484 -0.072497435 -0.04269657 0.0022450278 0.00010358719 -0.00044539446 0.0015476845 0.00078345824 0.017343542 0.029749235 0.017808186 -0.04279539 -0.0064830403 0.041631848 -0.016499935 0.119560756 0.057497945 -0.00012646802 -0.0003492112 0.000838241 -0.13486539 0.09302102 0.04746083 0.002182696 0.006784079 -0.037223917 -0.07619714 -0.0333607 0.022246484 0.006157595 -0.11722923 -0.09742343 0.009930631 -0.03709141 0.0022958682 0.04910043 -0.056221668 0.10926994 0.20968933 0.1604048 -3.5720925e-05 0.0029083174 0.06253389 0.039666563 -0.014073044 0.031997688 0.00576657 0.014007096 0.008726796 -0.004288455 -0.00050620316 0.014070667 -0.009999172 0.025490431 -0.03221231 -0.20296925 -0.039590422 -0.036283758 0.006256408 0.017563429 -0.12323863 -0.0016285824 -0.04663079 0.016230565 0.015103321 -0.004049289 0.100790836 -0.0143863065 0.12902941 0.0019268293 -0.03458834 0.8017862 0.025889583 -0.2359622 0.021086859 -0.020995528 0.01619169 -0.006958249 0.022883782 0.02714745 -0.06196385 0.047986653 -0.026318152 -0.06931146 -0.0169942 0.0033456562 -0.004347538 -0.018614536 0.07220756 -0.02772508 -0.031660344 0.011547941 -0.0111975325 0.00020928505 -0.00073090615 0.064869985 -0.016933648 0.17530523 -0.039614584 0.0027776011 -0.08995895 -0.22530666 -0.12823091 -0.06033268 0.21872784 -0.14826049 -0.1038002 -0.40467027 0.12628014 0.04332157 -0.116882846 -0.012278878 -0.06866616 -0.019884162 0.15925846 0.08314787 -0.0779327 -0.009333501 0.08817901 -0.06226136 -0.048385814 0.057232775 0.005769443 0.00021181507 -0.1256306 0.22657059 0.34346566 -0.011643936 0.10684324 0.24110787 -0.11293825 -0.12256609 -0.18700267 -0.09243637 -0.0150145255 -1.4971883 -0.09153601 -0.7124158 0.028803678 -0.0037903292 0.03106991 0.04073763 -0.03463059 -0.39162347 -0.66192997 -0.020595653 0.031990055 -0.029930444 -0.52621126 0.002692111 -0.42392713 -0.5423974 2.0351677 -0.4014263 -0.29668772 -0.0020936648 0.010409586 0.05528542 0.012380013 -0.026544727 0.016367367 -0.23094773 0.47997648 -0.046797745 -0.058706056 0.0009820387 -0.013984279 -0.009958015 -0.093843184 -0.069538504 -0.10102279 -1.1308047 -0.12634003 -0.32920796 -0.1177517 -0.26612934 -0.1677302 -0.11188007 -0.16642033 -0.0028226392 -0.7111394 0.05187205 -0.022985378 0.025722018 -0.048328135 -0.07144642 0.00634155 -0.00083820807 -0.120080575 -0.09585188 -0.027210401 0.00075171585 0.0011621659 -0.008862556 -0.016305551 0.03867395 -0.0030830263 0.07955124 -0.012351526 0.059133466 -0.11335831 -0.07487674 0.061441466 -0.07050116 0.0018100061 -0.048566297 0.073828414 -5.1322168e-05 0.011471664 -0.00038704174 0.0070730383 0.09293106 -0.0013456856 -0.03456191 -0.019746693 -0.0007650475 -0.11722137 -0.02634231 -0.032915525 -0.0070153205 -0.02131037 -0.018029938 -0.12375738 0.1628488 -0.80530345 -0.03503865 -0.038912 -0.054569155 0.04902023 0.37159294 -0.47643206 0.0149895465 0.15798238 0.044277597 0.017971935 0.016764006 0.055838235 -0.009239123 0.033790886 0.079666495 0.015683185 -0.05438105 -0.3421671 0.36674842 -0.049401976 0.592018 0.35076547 0.092524804 0.37667352 -0.4978912 0.17428562 0.15987772 -0.0035927289 -0.015303633 -0.16830276 -0.010336959 0.0091699185 -0.025428168 -0.18922412 -0.12621297 -0.003913403 -0.0005457069 -0.0011398845 0.012956079 -0.0014139279 -0.0026080913 -0.14041236 -0.004295259 -0.0048609767 -0.0021634146 -0.011968502 0.024623422 0.005218241 0.11501093 -0.018322036 -0.01387479 -0.005441441 0.032792725 -0.034035336 -0.112906605 -0.04902383 -0.022846678 -0.027513595 0.12833296 0.046274293 0.16053106 0.057376977 0.0006677907 0.008785103 0.060710702 0.15847203 0.27445287 0.0033895273 -0.052602086 -0.019131942 -0.039064534 0.025016386 -0.09553297 0.033786733 0.08735237 0.0066708373 0.0014356725 0.015039573 -0.061168317 0.0023727422 -0.018387629 0.00225427 -0.0004586198 0.006981416 0.00548413 0.006734792 -0.03483866 0.046797857 -0.009854155 0.0036672347 -0.006802358 0.0006908708 -0.0006027836 -0.00057827856 0.003991223 0.0010057994 0.00068861013 -0.00035291503 0.00513535 -0.01713967 0.08637681 -0.47472468 -0.6411105 0.009399823 -0.012586788 -0.16392165 -0.085875146 -0.059904464 0.003698163 0.0017931788 -0.034210853 0.17609894 0.05348843 0.007872036 0.053455643 -0.053803068 0.16976228 0.40959936 0.5746781 -0.38520706 1.7122899 -1.1407301 -0.23004399 -0.005010476 0.00032529267 0.00053485995 -2.5335341e-05 0.0010917453 0.00049021374 -0.0057349517 0.018343465 0.005337022 0.025342766 0.040872153 -0.0012610808 -0.007348212 -0.0052381987 -0.002189118 -0.007126338 0.0010228517 -0.00257087 -0.006672942 0.011742074 -0.11622881 0.3188605 0.56043243 -0.074345596 -0.010844327 0.014008491 0.09498487 0.00055007247 0.14759988 0.026555294 0.33577135 -0.019284878 0.49457243 0.015475023 -0.20727184 0.086860694 0.011141631 0.019986192 -0.0032500606 -0.0075163753 0.0060099256 -0.0035681818 -0.044538822 0.031795487 -0.0018254886 -0.020721694 0.026271649 0.0055165524 0.07353364 -0.022531085 0.0013543406 -0.0010194931 -0.011843555 0.079818115 -0.18622245 0.24658844 -0.10333226 -0.10336711 0.040839262 -0.31122234 -0.17751475 0.17521806 -0.02409606 0.043645445 0.14790446 0.09119734 -0.16629902 -0.07376086 -0.1323251 -0.09650259 -0.08627173 0.03333879 0.015636947 0.018414201 0.0012684392 0.010925524 0.028467588 -0.00042956584 -0.016580235 -0.36076105 -0.00823093 -0.047730755 -0.012347073 -0.17355715 -0.5959382 -0.024274206 0.18614854 0.047535773 0.11764878 -0.025287185 0.0011980197 -0.04986627 -0.15509686 0.16831803 0.014450835 -0.060754783 0.16091324 -0.008789877 0.098681286 -0.40128788 -0.0017245408 -0.06618019 0.004539342 0.026933447 -0.9454144 0.44654378 -1.0704765 0.10171629 -0.22312237 -1.2371925 0.17468795 0.17952083 -0.8088017 1.02365 -0.07554667 -1.1180289 -0.4374311 2.2267478 -0.74278677 -2.6169267 0.00018617041 0.08477596 0.015173252 0.044567615 -0.018661663 0.030805638 0.03109189 -0.06572045 0.008462621 0.002469108 -0.002432227 -0.00095051556 0.029523892 -0.080818266 0.0003593978 0.16854772 0.07598376 0.12751223 -0.19621965 0.124894954 0.15573849 0.092824355 -0.043686666 0.023657165 0.03315167 0.061834276 0.011871023 -0.07902571 0.10185184 0.005988058 0.00036939132 -0.008869384 0.003762224 0.015525215 -0.66720665 0.05833786 -0.033712372 0.005301758 0.07546764 -0.23462811 1.6696175 1.1640795 -0.30227146 -0.22217429 -0.15388599 -0.4225853 -0.19465184 -0.13719638 0.15077382 0.03616627 -0.5465737 0.058038205 -0.46936437 -0.11240612 -0.081334844 -0.18888529 -0.13760708 0.0335798 -0.0031075962 -0.00058132055 -0.098119825 -0.13029778 0.036512624 0.38475528 1.4925086 0.040090747 -0.09395597 -0.08079176 0.047028236 -0.14666073 0.023125865 -0.028437551 0.001047939 -0.007294217 0.0025126492 -0.011456547 -0.079096645 -0.24977392 0.025819598 0.031359468 0.0015292892 0.0011978784 -0.0013249432 -0.05334668 0.016252048 -0.043012947 0.0103651825 -0.08536241 -0.06821485 -0.0007428249 -0.035276435 -0.023351612 0.00036687023 0.027620204 -0.13470818 0.011406771 0.19932263 0.29952112 -0.08325565 0.14763933 0.8509648 -2.6499684 0.91083825 -1.5929219 -0.03753559 -0.0057817283 0.0003954949 0.005563502 0.037300244 -0.03551651 -0.008513252 -0.007801166 -0.0079289 -2.520851e-05 0.0019226109 0.010676886 0.003540755 -0.00036522717 0.013601921 0.054089636 0.016104551 -0.0022600165 0.0061528054 0.0033078515 -0.00998197 -0.005757344 0.07696039 -0.003212086 -0.00994645 0.0143792955 -0.08812649 -0.031449433 -0.198205 -0.09727367 -0.001170749 -0.009972602 0.0077706273 -0.03428493 -0.08270123 -0.09852413 -0.2513937 -0.04346366 -0.18700388 -0.012338486 0.028825182 0.111622676 -0.005271604 0.17570336 -0.07410084 0.019243535 -0.06738154 -0.20121221 0.002207618 0.1272357 0.013874436 -0.00087446655 0.06283373 0.10092289 -0.014061452 -7.2621435e-05 0.02690383 -0.0025203251 -0.0057425005 0.021522952 -0.022493638 -0.027623722 -0.4452635 -0.040338535 0.0026960042 0.0038569316 0.00020486093 -0.0051444503 0.012608464 0.00012770593 0.03966215 0.018290557 0.3317151 -0.025044985 0.22257164 0.021521043 0.0011640365 -0.047295455 0.18644853 -0.35436773 0.25068465 0.053168263 0.1291658 -0.10492136 0.050867986 -0.024017828 0.036517337 0.056141652 -0.00096073834 0.002980424 -0.0021494562 -0.0031998993 -0.0017522023 0.0011004845 -0.001446422 0.00028936067 -0.072287 -0.0031552827 0.0044017863 0.005848373 0.004832014 -0.0053457776 -0.000712821 0.014872546 0.006534562 -0.030297449 0.0045826184 0.007859023 0.010712252 -0.02725232 0.0013580176 -0.03971729 0.00038117598 -0.029655768 0.014093982 -0.03717781 -0.22160837 -0.004661868 -0.19315891 0.17819537 -0.0036563105 0.08614721 -0.11409568 0.1437554 0.0042141005 0.016169272 0.004312618 -0.15639876 0.008716125 0.019513799 -0.011951672 0.062602945 0.039804503 -0.0031070355 -0.013609838 0.04567185 0.51124954 -0.121896915 -0.118323535 -0.010407988 0.20197795 0.2601427 0.03811939 -0.046479303 0.023562077 -0.00075340795 0.017461838 0.0108055435 0.012046156 -0.018085383 -0.040332157 0.19100502 0.0014913941 0.007475937 -0.011656254 0.004532539 0.119315505 -0.011162581 0.013479306 0.018170698 0.012564332 0.08046221 -0.37796474 0.019216208 0.0022629458 -0.009278453 0.14686456 0.17070079 0.5641813 -0.0015531103 -0.6174298 0.12498387 0.0745946 -0.027167704 0.04749359 0.013025174 0.0057701417 0.0079277465 0.017533503 0.018707389 -0.029133486 -0.00089094107 -0.0031593186 -0.00012653523 0.022334693 -0.0052892086 0.00023424298 0.01672042 -0.0042806845 -0.018630845 -0.0053924406 -0.10045934 -0.08190476 0.0066474886 0.01547394 -0.29476556 0.013260336 -0.004852793 -0.013012933 -0.008981301 -0.0770786 -0.18360308 -0.18543728 0.061131302 0.0021769505 0.0007395444 -0.0012282057 0.010852782 -0.004647445 -7.53739e-05 -0.00075909175 -0.003392911 -0.0014367038 -0.009769172 -0.008090936 -0.071229525 0.13801098 0.024576873 -0.11871294 0.019837664 -0.029010182 -0.015871668 -0.024030006 -0.007116629 0.06882669 0.15223157 -0.028068572 0.016926687 -0.11273783 0.21207541 0.4529389 -0.089262 -0.87701035 0.45986468 -0.05624242 0.4690145 0.14132895 -0.060281053 0.07448649 -0.023954647 -0.07754732 0.46075076 0.21695381 0.2856874 0.004080895 0.020167736 0.0075174803 0.033195484 -0.16513105 0.23739958 -0.37627548 0.24930923 -0.41504008 0.05926098 -0.020096384 0.01667515 -0.4286022 0.23944397 -0.27550542 0.5907519 -0.4029195 0.32259527 -0.4900808 -0.16804218 -0.09099155 -0.16466667 0.043160696 0.21070151 -0.336686 -0.7727363 -0.005249275 0.15216173 -0.06934806 -0.13669594 -0.09379399 -0.015142068 -0.013310749 -0.03283933 0.055046387 0.10793325 -0.87263197 -0.07983348 -0.02895795 0.009666181 0.025092565 0.03793659 0.065714866 0.006905467 -0.00092127523 0.003668434 -0.00014807901 -0.001273076 0.007094886 -0.0022413237 -0.00058271835 -0.0021371308 0.0003371981 0.0082639605 -0.0042964197 0.0063362108 0.0068248343 0.0050290655 0.0011544842 -2.9498864e-05 -0.0009101651 -0.00094021764 0.002911794 -0.02474118 0.029306624 0.005695518 0.0010637211 -0.0043162056 -0.0142543195 0.0033150457 0.0005452347 0.010619801 -0.3171128 -0.039037682 0.14464155 -0.36102915 0.00011803944 0.0031780102 0.0048051057 0.00203138 -0.0007902981 0.00025966053 -0.00019871276 -0.0013178021 -0.000113097354 0.00030739498 2.829054e-05 -0.0009309484 0.0045167627 -0.007873623 0.30919844 0.022559445 0.05340201 0.017763723 0.008264466 -0.02591552 0.028602995 -0.0109622665 -0.11701022 0.21416257 -0.010737483 -0.008002093 0.013689847 -0.019215567 -0.1248783 -0.28451777 0.07689835 0.0048154066 -0.005961009 0.014160316 -0.11618242 -0.14333928 -0.00922198 -0.019351827 -0.014798839 -0.011830963 0.00023525005 -0.038734313 -0.03262501 -0.08498697 0.19133636 -0.1588033 -0.09747117 0.5479699 0.041114803 -0.16956592 -0.0053555192 -0.17741813 0.15089218 -0.018769892 -0.06699022 -0.02282086 0.3545135 -0.16214466 0.18669821 -0.24386267 -0.37573084 0.08023476 0.0055565136 -0.10478031 0.34485266 -0.40238416 0.13178504 -0.1676441 0.009241912 0.39325857 0.073531315 -0.07183865 0.038520288 0.05353261 -0.04173698 0.03414946 -0.046409406 0.09739879 -0.015759997 0.059241686 0.20531425 -0.31468284 0.101789795 -0.014238239 -0.092117965 -0.0179326 -0.00063087564 7.6435084e-05 -0.041321784 0.03353228 0.056932468 -0.0038076935 0.08550894 0.048191004 -0.0085408315 0.0026536246 0.037933145 0.10033818 -0.017663913 -0.06079991 0.12619983 0.13079119 -0.027609432 0.13141488 -0.5908205 -0.0040783677 -0.15723273 -0.40946797 0.060195994 -0.18825857 0.14120169 -0.04730623 0.008414703 -0.001052582 -0.02646988 -0.16940714 0.2359668 -0.0045207157 0.00040953892 0.13430093 0.42069477 0.59972984 0.18297808 -0.29986253 -0.1311614 0.197188 0.07589781 0.40915293 -0.7307347 0.023474334 -1.2456703 -0.09508102 -0.13490209 -0.11335903 -0.014354628 -0.009874672 -0.2888315 1.4881599 0.080318525 -1.4863986 -0.06384595
